svm_type c_svc
kernel_type polynomial
degree 2
gamma 1
coef0 1
nr_class 2
total_sv 76
rho -1.59499
label 1 -1
nr_sv 38 38
SV
0.001 1:0.14204297 2:-1.8194375 
0.001 1:0.18338477 2:-1.7868125 
0.001 1:0.19665234 2:-1.8435 
0.001 1:0.23962695 2:-3.3054375 
0.001 1:0.23009766 2:-1.691 
0.001 1:0.21329102 2:-1.593375 
0.001 1:0.24764258 2:-2.31925 
0.001 1:0.17062695 2:-1.560375 
0.001 1:0.14639062 2:-1.8294375 
0.001 1:0.15420898 2:-1.619875 
0.001 1:0.22255859 2:-2.02525 
0.001 1:0.16217188 2:-2.327625 
0.001 1:0.20256055 2:-1.8050625 
0.001 1:0.18532422 2:-1.690875 
0.001 1:0.1065625 2:-1.722625 
0.0007061380636491925 1:0.19689648 2:-1.5423125 
0.001 1:0.1989707 2:-1.7538125 
0.001 1:0.17714062 2:-2.3680625 
0.001 1:0.22025 2:-3.0306875 
0.001 1:0.18241406 2:-1.7259375 
0.001 1:0.19193359 2:-1.929375 
0.001 1:0.18467578 2:-2.040125 
0.001 1:0.18350195 2:-2.1923125 
0.001 1:0.25284766 2:-1.5586875 
0.001 1:0.18408398 2:-1.84125 
0.001 1:0.28905469 2:-3.669375 
0.001 1:0.14642578 2:-1.6275625 
0.001 1:0.22366992 2:-1.713625 
0.001 1:0.15630078 2:-1.555375 
0.001 1:0.13479492 2:-1.7898125 
0.001 1:0.19230078 2:-1.6540625 
0.001 1:0.27030078 2:-1.6701875 
0.001 1:0.18249023 2:-1.704875 
0.001 1:0.20046875 2:-2.5005 
0.001 1:0.12719922 2:-1.6950625 
0.001 1:0.19116602 2:-1.706625 
0.001 1:0.35157227 2:-1.6589375 
0.001 1:0.18711914 2:-2.3135 
-0.001 1:0.21798242 2:-3.359625 
-0.001 1:0.16456055 2:-2.7685625 
-0.001 1:0.14020508 2:-2.8765 
-0.001 1:0.21938672 2:-3.08825 
-0.001 1:0.1780957 2:-3.2313125 
-0.001 1:0.21479102 2:-3.233 
-0.001 1:0.20934961 2:-3.377625 
-0.001 1:0.2040625 2:-3.052875 
-0.001 1:0.15241797 2:-2.6614375 
-0.001 1:0.15593555 2:-3.0060625 
-0.001 1:0.18180469 2:-3.0364375 
-0.001 1:0.18081641 2:-3.34325 
-0.001 1:0.18545703 2:-3.2850625 
-0.001 1:0.15659961 2:-3.070875 
-0.001 1:0.15663281 2:-3.2999375 
-0.001 1:0.18333398 2:-3.381 
-0.001 1:0.17125391 2:-3.1401875 
-0.001 1:0.21907031 2:-3.1823125 
-0.001 1:0.15175 2:-2.97025 
-0.001 1:0.15662109 2:-3.363625 
-0.001 1:0.15335352 2:-3.1814375 
-0.001 1:0.15605664 2:-3.3848125 
-0.001 1:0.10407031 2:-2.424125 
-0.001 1:0.15937305 2:-3.3386875 
-0.001 1:0.14236523 2:-2.8335 
-0.001 1:0.16499609 2:-2.9005 
-0.001 1:0.17932031 2:-2.390125 
-0.001 1:0.18000586 2:-2.755125 
-0.001 1:0.29119141 2:-3.1743125 
-0.001 1:0.13432812 2:-2.488 
-0.001 1:0.30482617 2:-3.0379375 
-0.001 1:0.20789063 2:-3.1371875 
-0.001 1:0.50546875 2:-2.978125 
-0.001 1:0.15477344 2:-3.1905625 
-0.001 1:0.1526582 2:-3.2295625 
-0.001 1:0.068048828 2:-0.315 
-0.001 1:0.19591602 2:-3.3183125 
-0.0007061380636491925 1:0.22942383 2:-3.4251875 
