svm_type c_svc
kernel_type rbf
gamma 1
nr_class 2
total_sv 20
rho 7.18837
label 1 -1
nr_sv 7 13
SV
10000 1:0.23962695 2:-3.3054375 
4636.088072358521 1:0.16217188 2:-2.327625 
289.2700483783292 1:0.077960938 2:-0.51175 
10000 1:0.22025 2:-3.0306875 
2061.817008236152 1:0.089603516 2:-0.2883125 
10000 1:0.28905469 2:-3.669375 
7328.320562364576 1:0.20046875 2:-2.5005 
-10000 1:0.21938672 2:-3.08825 
-1036.132282351042 1:0.21479102 2:-3.233 
-4891.259140744698 1:0.26879883 2:-3.4326875 
-505.8523920488886 1:0.40190039 2:-4.0061875 
-185.8943294909425 1:0.21907031 2:-3.1823125 
-10000 1:0.17932031 2:-2.390125 
-3063.665178510331 1:0.18000586 2:-2.755125 
-2148.053520024645 1:0.30482617 2:-3.0379375 
-4.745859683883717 1:0.3006875 2:-3.8331875 
-2332.214508857594 1:0.068048828 2:-0.315 
-10000 1:0.26591016 2:-3.618625 
-128.6764360262524 1:0.48453711 2:-3.700375 
-19.00204359936619 1:0.24443555 2:-3.5398125 
