svm_type c_svc
kernel_type rbf
gamma 1
nr_class 2
total_sv 31
rho 0.30214
label 1 -1
nr_sv 14 17
SV
1 1:0.1092793 2:-0.1195 
1 1:0.23962695 2:-3.3054375 
1 1:0.24764258 2:-2.31925 
0.7837419051154219 1:0.10350977 2:-0.1501875 
1 1:0.16217188 2:-2.327625 
0.1781293759004878 1:0.26716211 2:-0.6474375 
1 1:0.17714062 2:-2.3680625 
1 1:0.22025 2:-3.0306875 
0.4104431585844829 1:0.060169922 2:-0.6791875 
0.503291773795599 1:0.18467578 2:-2.040125 
1 1:0.18350195 2:-2.1923125 
1 1:0.28905469 2:-3.669375 
1 1:0.20046875 2:-2.5005 
1 1:0.18711914 2:-2.3135 
-0.06715454093411358 1:0.24226758 2:-5.4451875 
-1 1:0.16456055 2:-2.7685625 
-0.1416859201497182 1:0.14020508 2:-2.8765 
-0.3246995654600016 1:0.52801953 2:-5.481 
-1 1:0.15241797 2:-2.6614375 
-0.5774949242209924 1:0.40190039 2:-4.0061875 
-1 1:0.10407031 2:-2.424125 
-1 1:0.14236523 2:-2.8335 
-1 1:0.17932031 2:-2.390125 
-1 1:0.18000586 2:-2.755125 
-1 1:0.13432812 2:-2.488 
-0.6082957046626996 1:0.40119336 2:-7.3266875 
-0.8564187684963641 1:0.50546875 2:-2.978125 
-0.8582240668847149 1:0.16737891 2:-4.012875 
-0.3020132634569995 1:0.26445117 2:-6.1681875 
-1 1:0.068048828 2:-0.315 
-0.1396194591303875 1:0.48453711 2:-3.700375 
