svm_type c_svc
kernel_type rbf
gamma 1
nr_class 2
total_sv 22
rho 0.689911
label 1 -1
nr_sv 8 14
SV
100 1:0.23962695 2:-3.3054375 
94.01874164373093 1:0.16217188 2:-2.327625 
100 1:0.17714062 2:-2.3680625 
100 1:0.22025 2:-3.0306875 
32.78785711128522 1:0.089660156 2:-0.3435 
68.42208813511959 1:0.089603516 2:-0.2883125 
100 1:0.28905469 2:-3.669375 
100 1:0.20046875 2:-2.5005 
-9.152753609215775 1:0.15241797 2:-2.6614375 
-98.06787473896173 1:0.23297852 2:-3.4668125 
-11.99629623044754 1:0.40190039 2:-4.0061875 
-1.527742613351627 1:0.41519336 2:-4.189625 
-0.05546936978905957 1:0.45997461 2:-6.2921875 
-100 1:0.10407031 2:-2.424125 
-88.69066737430957 1:0.21822266 2:-3.4904375 
-100 1:0.17932031 2:-2.390125 
-100 1:0.13432812 2:-2.488 
-50.09565117498749 1:0.30482617 2:-3.0379375 
-0.2546590215762611 1:0.40119336 2:-7.3266875 
-35.24669324659117 1:0.50546875 2:-2.978125 
-0.1408795109054091 1:0.26445117 2:-6.1681875 
-100 1:0.068048828 2:-0.315 
