svm_type c_svc
kernel_type polynomial
degree 5
gamma 1
coef0 1
nr_class 2
total_sv 21
rho -0.7919
label 1 -1
nr_sv 10 11
SV
0.594600870067848 1:0.1092793 2:-0.1195 
1 1:0.23962695 2:-3.3054375 
0.1519452308975944 1:0.24764258 2:-2.31925 
1 1:0.16217188 2:-2.327625 
1 1:0.17714062 2:-2.3680625 
1 1:0.22025 2:-3.0306875 
0.3897734909678465 1:0.18350195 2:-2.1923125 
1 1:0.28905469 2:-3.669375 
1 1:0.20046875 2:-2.5005 
1 1:0.18711914 2:-2.3135 
-0.9623081558725227 1:0.21938672 2:-3.08825 
-0.05364262780879318 1:0.31473047 2:-4.4974375 
-1 1:0.15241797 2:-2.6614375 
-0.006978305843635459 1:0.31289453 2:-4.549 
-0.1133905024084067 1:0.29039062 2:-4.55775 
-1 1:0.17932031 2:-2.390125 
-1 1:0.18000586 2:-2.755125 
-1 1:0.29119141 2:-3.1743125 
-1 1:0.13432812 2:-2.488 
-1 1:0.30482617 2:-3.0379375 
-1 1:0.068048828 2:-0.315 
