svm_type c_svc
kernel_type polynomial
degree 5
gamma 1
coef0 1
nr_class 2
total_sv 26
rho -1.38874
label 1 -1
nr_sv 13 13
SV
3.302554429803713e-05 1:0.19665234 2:-1.8435 
0.0001 1:0.23962695 2:-3.3054375 
0.0001 1:0.24764258 2:-2.31925 
0.0001 1:0.22255859 2:-2.02525 
0.0001 1:0.16217188 2:-2.327625 
0.0001 1:0.17714062 2:-2.3680625 
0.0001 1:0.22025 2:-3.0306875 
0.0001 1:0.19193359 2:-1.929375 
0.0001 1:0.18467578 2:-2.040125 
0.0001 1:0.18350195 2:-2.1923125 
0.0001 1:0.28905469 2:-3.669375 
0.0001 1:0.20046875 2:-2.5005 
0.0001 1:0.18711914 2:-2.3135 
-0.0001 1:0.16456055 2:-2.7685625 
-0.0001 1:0.14020508 2:-2.8765 
-0.0001 1:0.15241797 2:-2.6614375 
-0.0001 1:0.15175 2:-2.97025 
-0.0001 1:0.10407031 2:-2.424125 
-0.0001 1:0.14236523 2:-2.8335 
-0.0001 1:0.16499609 2:-2.9005 
-0.0001 1:0.17932031 2:-2.390125 
-0.0001 1:0.18000586 2:-2.755125 
-0.0001 1:0.13432812 2:-2.488 
-3.302554429803713e-05 1:0.30482617 2:-3.0379375 
-0.0001 1:0.50546875 2:-2.978125 
-0.0001 1:0.068048828 2:-0.315 
