svm_type c_svc
kernel_type polynomial
degree 2
gamma 1
coef0 1
nr_class 2
total_sv 34
rho -2.1866
label 1 -1
nr_sv 17 17
SV
0.01 1:0.14204297 2:-1.8194375 
0.01 1:0.19665234 2:-1.8435 
0.01 1:0.23962695 2:-3.3054375 
0.01 1:0.24764258 2:-2.31925 
0.01 1:0.14639062 2:-1.8294375 
0.01 1:0.22255859 2:-2.02525 
0.01 1:0.16217188 2:-2.327625 
0.00397940915225612 1:0.20256055 2:-1.8050625 
0.01 1:0.17714062 2:-2.3680625 
0.01 1:0.22025 2:-3.0306875 
0.01 1:0.19193359 2:-1.929375 
0.01 1:0.18467578 2:-2.040125 
0.01 1:0.18350195 2:-2.1923125 
0.01 1:0.18408398 2:-1.84125 
0.01 1:0.28905469 2:-3.669375 
0.01 1:0.20046875 2:-2.5005 
0.01 1:0.18711914 2:-2.3135 
-0.01 1:0.16456055 2:-2.7685625 
-0.01 1:0.14020508 2:-2.8765 
-0.01 1:0.2040625 2:-3.052875 
-0.01 1:0.15241797 2:-2.6614375 
-0.01 1:0.15593555 2:-3.0060625 
-0.01 1:0.18180469 2:-3.0364375 
-0.003979409152256119 1:0.15659961 2:-3.070875 
-0.01 1:0.15175 2:-2.97025 
-0.01 1:0.10407031 2:-2.424125 
-0.01 1:0.14236523 2:-2.8335 
-0.01 1:0.16499609 2:-2.9005 
-0.01 1:0.17932031 2:-2.390125 
-0.01 1:0.18000586 2:-2.755125 
-0.01 1:0.13432812 2:-2.488 
-0.01 1:0.30482617 2:-3.0379375 
-0.01 1:0.50546875 2:-2.978125 
-0.01 1:0.068048828 2:-0.315 
