svm_type c_svc
kernel_type polynomial
degree 2
gamma 1
coef0 1
nr_class 2
total_sv 236
rho -1.23574
label 1 -1
nr_sv 118 118
SV
0.0001 1:0.14204297 2:-1.8194375 
0.0001 1:0.18338477 2:-1.7868125 
0.0001 1:0.18854883 2:-1.38175 
0.0001 1:0.19324805 2:-1.237 
0.0001 1:0.13386133 2:-1.2381875 
0.0001 1:0.11079297 2:-1.479125 
0.0001 1:0.17200195 2:-1.5355625 
0.0001 1:0.19665234 2:-1.8435 
0.0001 1:0.094105469 2:-1.25525 
0.0001 1:0.18283203 2:-1.520625 
0.0001 1:0.19747266 2:-1.3880625 
0.0001 1:0.23962695 2:-3.3054375 
0.0001 1:0.068253906 2:-1.364625 
0.0001 1:0.23009766 2:-1.691 
0.0001 1:0.21329102 2:-1.593375 
0.0001 1:0.24764258 2:-2.31925 
0.0001 1:0.16185547 2:-1.519125 
0.0001 1:0.10816211 2:-1.3498125 
0.0001 1:0.11371484 2:-1.3401875 
0.0001 1:0.17062695 2:-1.560375 
0.0001 1:0.22277734 2:-1.3945 
0.0001 1:0.14639062 2:-1.8294375 
0.0001 1:0.16803906 2:-1.3530625 
0.0001 1:0.15420898 2:-1.619875 
0.0001 1:0.14702148 2:-1.28975 
0.0001 1:0.25565625 2:-1.4544375 
0.0001 1:0.22255859 2:-2.02525 
0.0001 1:0.16217188 2:-2.327625 
0.0001 1:0.10664258 2:-1.4766875 
0.0001 1:0.21677539 2:-1.36575 
0.0001 1:0.20256055 2:-1.8050625 
0.0001 1:0.19461914 2:-1.3445625 
0.0001 1:0.18532422 2:-1.690875 
0.0001 1:0.1065625 2:-1.722625 
0.0001 1:0.10953125 2:-1.2106875 
0.0001 1:0.19689648 2:-1.5423125 
0.0001 1:0.1989707 2:-1.7538125 
0.0001 1:0.20061523 2:-1.3003125 
0.0001 1:0.28416211 2:-1.2368125 
0.0001 1:0.13932031 2:-1.2410625 
0.0001 1:0.17714062 2:-2.3680625 
0.0001 1:0.067634766 2:-1.410875 
0.0001 1:0.22025 2:-3.0306875 
0.0001 1:0.1367793 2:-1.2078125 
0.0001 1:0.18241406 2:-1.7259375 
0.0001 1:0.14162305 2:-1.396 
0.0001 1:0.19193359 2:-1.929375 
0.0001 1:0.12993359 2:-1.4123125 
0.0001 1:0.20369141 2:-1.43725 
0.0001 1:0.24479297 2:-1.2194375 
0.0001 1:0.18467578 2:-2.040125 
0.0001 1:0.092253906 2:-1.2986875 
0.0001 1:0.092449219 2:-1.3479375 
0.0001 1:0.19182813 2:-1.3671875 
0.0001 1:0.18350195 2:-2.1923125 
0.0001 1:0.20761914 2:-1.4529375 
0.0001 1:0.20406445 2:-1.2705625 
0.0001 1:0.20280469 2:-1.346875 
0.0001 1:0.1505293 2:-1.2823125 
0.0001 1:0.25284766 2:-1.5586875 
0.0001 1:0.12036133 2:-1.40125 
0.0001 1:0.26035937 2:-1.318125 
0.0001 1:0.11639648 2:-1.314625 
0.0001 1:0.20186328 2:-1.2709375 
0.0001 1:0.17305469 2:-1.5033125 
0.0001 1:0.15626562 2:-1.477 
0.0001 1:0.18408398 2:-1.84125 
0.0001 1:0.10986133 2:-1.25375 
0.0001 1:0.18658008 2:-1.3195 
0.0001 1:0.21106641 2:-1.4304375 
0.0001 1:0.16279883 2:-1.3314375 
0.0001 1:0.18491797 2:-1.406 
0.0001 1:0.28905469 2:-3.669375 
0.0001 1:0.12097266 2:-1.23825 
0.0001 1:0.14642578 2:-1.6275625 
0.0001 1:0.22366992 2:-1.713625 
0.0001 1:0.16041602 2:-1.4425625 
0.0001 1:0.16453125 2:-1.2055625 
0.0001 1:0.19703125 2:-1.2106875 
0.0001 1:0.16345508 2:-1.4323125 
0.0001 1:0.11278516 2:-1.221 
0.0001 1:0.24219531 2:-1.26275 
0.0001 1:0.166 2:-1.25175 
0.0001 1:0.12264258 2:-1.255875 
0.0001 1:0.11933008 2:-1.317 
0.0001 1:0.31554102 2:-1.5011875 
0.0001 1:0.14164258 2:-1.2774375 
0.0001 1:0.10383789 2:-1.3301875 
0.0001 1:0.097498047 2:-1.346875 
0.0001 1:0.10355469 2:-1.358375 
0.0001 1:0.15630078 2:-1.555375 
0.0001 1:0.16394531 2:-1.220625 
0.0001 1:0.16663672 2:-1.2071875 
0.0001 1:0.13479492 2:-1.7898125 
0.0001 1:0.18990234 2:-1.227375 
0.0001 1:0.17749023 2:-1.3291875 
0.0001 1:0.12639453 2:-1.29225 
0.0001 1:0.19230078 2:-1.6540625 
0.0001 1:0.27030078 2:-1.6701875 
0.0001 1:0.12122656 2:-1.3519375 
0.0001 1:0.18249023 2:-1.704875 
0.0001 1:0.10416406 2:-1.4846875 
0.0001 1:0.12774414 2:-1.2005625 
0.0001 1:0.20046875 2:-2.5005 
0.0001 1:0.13027148 2:-1.22175 
0.0001 1:0.090445312 2:-1.3025 
0.0001 1:0.27432812 2:-1.215 
0.0001 1:0.17559766 2:-1.279625 
0.0001 1:0.22610742 2:-1.3413125 
0.0001 1:0.27775586 2:-1.43175 
0.0001 1:0.12719922 2:-1.6950625 
0.0001 1:0.19116602 2:-1.706625 
0.0001 1:0.18694922 2:-1.42925 
0.0001 1:0.35157227 2:-1.6589375 
0.0001 1:0.17333594 2:-1.2938125 
0.0001 1:0.22366797 2:-1.3763125 
0.0001 1:0.18711914 2:-2.3135 
0.0001 1:0.19510352 2:-1.2179375 
-0.0001 1:0.21798242 2:-3.359625 
-0.0001 1:0.18447266 2:-3.474625 
-0.0001 1:0.20691602 2:-3.74675 
-0.0001 1:0.20191211 2:-3.6116875 
-0.0001 1:0.22581641 2:-4.0114375 
-0.0001 1:0.16456055 2:-2.7685625 
-0.0001 1:0.20003516 2:-3.9598125 
-0.0001 1:0.1849043 2:-3.6331875 
-0.0001 1:0.14020508 2:-2.8765 
-0.0001 1:0.26691406 2:-3.8111875 
-0.0001 1:0.21938672 2:-3.08825 
-0.0001 1:0.24210937 2:-3.6994375 
-0.0001 1:0.18441602 2:-3.94975 
-0.0001 1:0.19592383 2:-3.6909375 
-0.0001 1:0.16533203 2:-3.7995 
-0.0001 1:0.22442969 2:-3.56525 
-0.0001 1:0.27114648 2:-4.04875 
-0.0001 1:0.1780957 2:-3.2313125 
-0.0001 1:0.25544727 2:-3.8409375 
-0.0001 1:0.22999023 2:-4.06075 
-0.0001 1:0.21479102 2:-3.233 
-0.0001 1:0.20934961 2:-3.377625 
-0.0001 1:0.2040625 2:-3.052875 
-0.0001 1:0.27834961 2:-3.9286875 
-0.0001 1:0.15241797 2:-2.6614375 
-0.0001 1:0.26879883 2:-3.4326875 
-0.0001 1:0.19991992 2:-3.5648125 
-0.0001 1:0.26508984 2:-4.06 
-0.0001 1:0.17627734 2:-3.7154375 
-0.0001 1:0.15448633 2:-3.7628125 
-0.0001 1:0.15593555 2:-3.0060625 
-0.0001 1:0.18180469 2:-3.0364375 
-0.0001 1:0.1738125 2:-3.8840625 
-0.0001 1:0.18081641 2:-3.34325 
-0.0001 1:0.17764258 2:-3.615625 
-0.0001 1:0.23297852 2:-3.4668125 
-0.0001 1:0.18545703 2:-3.2850625 
-0.0001 1:0.40190039 2:-4.0061875 
-0.0001 1:0.18764453 2:-3.5874375 
-0.0001 1:0.23667383 2:-3.7280625 
-0.0001 1:0.2713125 2:-4.0443125 
-0.0001 1:0.15563281 2:-3.469125 
-0.0001 1:0.15659961 2:-3.070875 
-0.0001 1:0.22113672 2:-3.8909375 
-0.0001 1:0.21965625 2:-4.0564375 
-0.0001 1:0.21081055 2:-3.7844375 
-0.0001 1:0.15663281 2:-3.2999375 
-0.0001 1:0.19526562 2:-3.679375 
-0.0001 1:0.22788867 2:-3.7604375 
-0.0001 1:0.18333398 2:-3.381 
-0.0001 1:0.17125391 2:-3.1401875 
-0.0001 1:0.21907031 2:-3.1823125 
-0.0001 1:0.26776367 2:-4.0185625 
-0.0001 1:0.15175 2:-2.97025 
-0.0001 1:0.18800781 2:-3.768125 
-0.0001 1:0.26863672 2:-3.92925 
-0.0001 1:0.15662109 2:-3.363625 
-0.0001 1:0.23759961 2:-3.883125 
-0.0001 1:0.15335352 2:-3.1814375 
-0.0001 1:0.20055078 2:-4.0369375 
-0.0001 1:0.18700195 2:-3.6405 
-0.0001 1:0.2073418 2:-3.732875 
-0.0001 1:0.15605664 2:-3.3848125 
-0.0001 1:0.21972656 2:-4.0135 
-0.0001 1:0.22061328 2:-3.57275 
-0.0001 1:0.17587695 2:-3.6184375 
-0.0001 1:0.10407031 2:-2.424125 
-0.0001 1:0.2814668 2:-3.89525 
-0.0001 1:0.1867168 2:-3.8624375 
-0.0001 1:0.22005664 2:-4.01325 
-0.0001 1:0.21794531 2:-3.825375 
-0.0001 1:0.15964258 2:-4.055 
-0.0001 1:0.21822266 2:-3.4904375 
-0.0001 1:0.18161914 2:-3.980125 
-0.0001 1:0.28383789 2:-4.0355 
-0.0001 1:0.15937305 2:-3.3386875 
-0.0001 1:0.16400781 2:-3.708375 
-0.0001 1:0.14236523 2:-2.8335 
-0.0001 1:0.16499609 2:-2.9005 
-0.0001 1:0.17932031 2:-2.390125 
-0.0001 1:0.19066406 2:-3.7959375 
-0.0001 1:0.21193945 2:-3.8865 
-0.0001 1:0.18000586 2:-2.755125 
-0.0001 1:0.29119141 2:-3.1743125 
-0.0001 1:0.13432812 2:-2.488 
-0.0001 1:0.30482617 2:-3.0379375 
-0.0001 1:0.23752344 2:-3.9145 
-0.0001 1:0.17342969 2:-3.4353125 
-0.0001 1:0.20650391 2:-3.9256875 
-0.0001 1:0.20789063 2:-3.1371875 
-0.0001 1:0.19514063 2:-3.7558125 
-0.0001 1:0.21905469 2:-3.8708125 
-0.0001 1:0.23947656 2:-3.9203125 
-0.0001 1:0.1999375 2:-3.966625 
-0.0001 1:0.50546875 2:-2.978125 
-0.0001 1:0.15477344 2:-3.1905625 
-0.0001 1:0.16221484 2:-3.8394375 
-0.0001 1:0.16737891 2:-4.012875 
-0.0001 1:0.22532617 2:-3.8934375 
-0.0001 1:0.18193164 2:-4.0205 
-0.0001 1:0.3006875 2:-3.8331875 
-0.0001 1:0.18764453 2:-4.048125 
-0.0001 1:0.25813086 2:-3.672125 
-0.0001 1:0.31799219 2:-3.949 
-0.0001 1:0.2009082 2:-3.641875 
-0.0001 1:0.1526582 2:-3.2295625 
-0.0001 1:0.25719141 2:-3.743625 
-0.0001 1:0.18423828 2:-4.0299375 
-0.0001 1:0.068048828 2:-0.315 
-0.0001 1:0.19463281 2:-4.043 
-0.0001 1:0.19591602 2:-3.3183125 
-0.0001 1:0.26591016 2:-3.618625 
-0.0001 1:0.24375781 2:-4.0209375 
-0.0001 1:0.32016211 2:-4.0165625 
-0.0001 1:0.27724023 2:-3.912125 
-0.0001 1:0.48453711 2:-3.700375 
-0.0001 1:0.22942383 2:-3.4251875 
-0.0001 1:0.24443555 2:-3.5398125 
