svm_type c_svc
kernel_type rbf
gamma 1
nr_class 2
total_sv 403
rho 0.221006
label 1 -1
nr_sv 200 203
SV
0.01 1:0.14204297 2:-1.8194375 
0.01 1:0.1438125 2:-0.2509375 
0.01 1:0.14866406 2:-0.3103125 
0.01 1:0.18338477 2:-1.7868125 
0.01 1:0.18854883 2:-1.38175 
0.01 1:0.12841992 2:-0.312625 
0.01 1:0.14452539 2:-0.301 
0.01 1:0.10353711 2:-0.32425 
0.01 1:0.13918359 2:-0.2368125 
0.01 1:0.11079297 2:-1.479125 
0.01 1:0.17200195 2:-1.5355625 
0.01 1:0.19665234 2:-1.8435 
0.01 1:0.094105469 2:-1.25525 
0.01 1:0.17457617 2:-0.277875 
0.01 1:0.13761328 2:-0.2299375 
0.01 1:0.12943359 2:-0.3091875 
0.01 1:0.12999609 2:-0.2566875 
0.01 1:0.11714258 2:-0.2729375 
0.01 1:0.1092793 2:-0.1195 
0.01 1:0.18283203 2:-1.520625 
0.01 1:0.19747266 2:-1.3880625 
0.01 1:0.23962695 2:-3.3054375 
0.01 1:0.068253906 2:-1.364625 
0.01 1:0.15165234 2:-0.2708125 
0.01 1:0.15173438 2:-0.3281875 
0.01 1:0.23009766 2:-1.691 
0.01 1:0.21329102 2:-1.593375 
0.01 1:0.24764258 2:-2.31925 
0.01 1:0.16185547 2:-1.519125 
0.01 1:0.14279883 2:-0.327 
0.01 1:0.10816211 2:-1.3498125 
0.01 1:0.11371484 2:-1.3401875 
0.01 1:0.17062695 2:-1.560375 
0.01 1:0.14379492 2:-0.279 
0.01 1:0.10868945 2:-0.1948125 
0.01 1:0.22277734 2:-1.3945 
0.01 1:0.1243418 2:-0.2868125 
0.01 1:0.14757227 2:-0.2563125 
0.01 1:0.16332227 2:-0.216 
0.01 1:0.13817969 2:-0.2635 
0.01 1:0.11149023 2:-0.2650625 
0.01 1:0.10350977 2:-0.1501875 
0.01 1:0.14802344 2:-0.3280625 
0.01 1:0.14639062 2:-1.8294375 
0.01 1:0.16803906 2:-1.3530625 
0.01 1:0.12116602 2:-0.2950625 
0.01 1:0.15420898 2:-1.619875 
0.01 1:0.15075781 2:-0.2981875 
0.01 1:0.10614258 2:-0.2461875 
0.01 1:0.13176758 2:-0.3184375 
0.01 1:0.14702148 2:-1.28975 
0.01 1:0.25565625 2:-1.4544375 
0.01 1:0.22255859 2:-2.02525 
0.01 1:0.16217188 2:-2.327625 
0.01 1:0.10803516 2:-0.1565625 
0.01 1:0.10664258 2:-1.4766875 
0.01 1:0.21677539 2:-1.36575 
0.01 1:0.10305469 2:-0.2403125 
0.01 1:0.20256055 2:-1.8050625 
0.01 1:0.099722656 2:-0.31875 
0.01 1:0.15018359 2:-0.1978125 
0.01 1:0.19461914 2:-1.3445625 
0.01 1:0.096380859 2:-0.32325 
0.01 1:0.10279687 2:-0.2023125 
0.01 1:0.18532422 2:-1.690875 
0.01 1:0.1065625 2:-1.722625 
0.01 1:0.12032031 2:-0.275875 
0.01 1:0.19689648 2:-1.5423125 
0.01 1:0.12021484 2:-0.266625 
0.01 1:0.1387832 2:-0.2895 
0.01 1:0.10139063 2:-0.265875 
0.01 1:0.1989707 2:-1.7538125 
0.01 1:0.10471094 2:-0.235125 
0.01 1:0.20061523 2:-1.3003125 
0.01 1:0.28416211 2:-1.2368125 
0.01 1:0.17714062 2:-2.3680625 
0.01 1:0.067634766 2:-1.410875 
0.01 1:0.22025 2:-3.0306875 
0.01 1:0.11264648 2:-0.2361875 
0.01 1:0.18241406 2:-1.7259375 
0.01 1:0.14162305 2:-1.396 
0.01 1:0.13489258 2:-0.252625 
0.01 1:0.13743359 2:-0.297875 
0.01 1:0.10736719 2:-0.22725 
0.01 1:0.12208984 2:-0.3139375 
0.01 1:0.15754102 2:-0.3066875 
0.01 1:0.19193359 2:-1.929375 
0.01 1:0.12993359 2:-1.4123125 
0.01 1:0.09196875 2:-0.3141875 
0.01 1:0.20369141 2:-1.43725 
0.01 1:0.10375391 2:-0.212 
0.01 1:0.12626758 2:-0.246375 
0.01 1:0.18467578 2:-2.040125 
0.01 1:0.092253906 2:-1.2986875 
0.01 1:0.092449219 2:-1.3479375 
0.01 1:0.19182813 2:-1.3671875 
0.01 1:0.18350195 2:-2.1923125 
0.01 1:0.20761914 2:-1.4529375 
0.01 1:0.10410156 2:-0.1661875 
0.01 1:0.20406445 2:-1.2705625 
0.01 1:0.20280469 2:-1.346875 
0.01 1:0.12524609 2:-0.281875 
0.01 1:0.1505293 2:-1.2823125 
0.01 1:0.25284766 2:-1.5586875 
0.01 1:0.12036133 2:-1.40125 
0.01 1:0.26035937 2:-1.318125 
0.01 1:0.11639648 2:-1.314625 
0.01 1:0.20186328 2:-1.2709375 
0.01 1:0.10165625 2:-0.324625 
0.01 1:0.17305469 2:-1.5033125 
0.01 1:0.15626562 2:-1.477 
0.01 1:0.12141992 2:-0.1913125 
0.01 1:0.099912109 2:-0.2281875 
0.01 1:0.09196875 2:-0.3166875 
0.01 1:0.1179082 2:-0.281875 
0.01 1:0.11030664 2:-0.315125 
0.005022845537881463 1:0.10248828 2:-0.332125 
0.01 1:0.18408398 2:-1.84125 
0.01 1:0.089603516 2:-0.2883125 
0.01 1:0.15856836 2:-0.29775 
0.01 1:0.12008008 2:-0.25775 
0.01 1:0.10151172 2:-0.2658125 
0.01 1:0.12408984 2:-0.189 
0.01 1:0.10986133 2:-1.25375 
0.01 1:0.11367188 2:-0.2075625 
0.01 1:0.18658008 2:-1.3195 
0.01 1:0.11025195 2:-0.245875 
0.01 1:0.21106641 2:-1.4304375 
0.01 1:0.23102539 2:-0.31325 
0.01 1:0.10266602 2:-0.3030625 
0.01 1:0.12006641 2:-0.2590625 
0.01 1:0.16279883 2:-1.3314375 
0.01 1:0.18491797 2:-1.406 
0.01 1:0.10953906 2:-0.2093125 
0.01 1:0.28905469 2:-3.669375 
0.01 1:0.12621094 2:-0.2626875 
0.01 1:0.11013086 2:-0.2614375 
0.01 1:0.10375 2:-0.3034375 
0.01 1:0.14642578 2:-1.6275625 
0.01 1:0.097117188 2:-0.2763125 
0.01 1:0.22366992 2:-1.713625 
0.01 1:0.17925391 2:-0.3043125 
0.01 1:0.16041602 2:-1.4425625 
0.01 1:0.11790625 2:-0.303625 
0.01 1:0.10613281 2:-0.24175 
0.01 1:0.11030664 2:-0.3095625 
0.01 1:0.16345508 2:-1.4323125 
0.01 1:0.1204043 2:-0.27 
0.01 1:0.11500781 2:-0.2405625 
0.01 1:0.18616406 2:-0.32975 
0.01 1:0.10688477 2:-0.239125 
0.01 1:0.24219531 2:-1.26275 
0.01 1:0.166 2:-1.25175 
0.01 1:0.10169141 2:-0.2866875 
0.01 1:0.12993359 2:-0.263125 
0.01 1:0.11089844 2:-0.2035625 
0.01 1:0.1322207 2:-0.179 
0.01 1:0.12264258 2:-1.255875 
0.01 1:0.11933008 2:-1.317 
0.01 1:0.31554102 2:-1.5011875 
0.01 1:0.14164258 2:-1.2774375 
0.01 1:0.10383789 2:-1.3301875 
0.01 1:0.097498047 2:-1.346875 
0.01 1:0.10355469 2:-1.358375 
0.01 1:0.10168555 2:-0.2433125 
0.01 1:0.21317188 2:-0.3318125 
0.01 1:0.15630078 2:-1.555375 
0.01 1:0.10604102 2:-0.3180625 
0.01 1:0.13479492 2:-1.7898125 
0.01 1:0.17749023 2:-1.3291875 
0.01 1:0.099724609 2:-0.323875 
0.01 1:0.12639453 2:-1.29225 
0.01 1:0.19230078 2:-1.6540625 
0.01 1:0.27030078 2:-1.6701875 
0.01 1:0.12122656 2:-1.3519375 
0.01 1:0.18249023 2:-1.704875 
0.01 1:0.10416406 2:-1.4846875 
0.01 1:0.14710938 2:-0.22725 
0.01 1:0.20046875 2:-2.5005 
0.01 1:0.090445312 2:-1.3025 
0.01 1:0.1231543 2:-0.2958125 
0.01 1:0.27432812 2:-1.215 
0.01 1:0.17559766 2:-1.279625 
0.01 1:0.22610742 2:-1.3413125 
0.01 1:0.27775586 2:-1.43175 
0.01 1:0.093871094 2:-0.28325 
0.01 1:0.12719922 2:-1.6950625 
0.01 1:0.19116602 2:-1.706625 
0.01 1:0.15412891 2:-0.297 
0.01 1:0.18694922 2:-1.42925 
0.01 1:0.10514258 2:-0.224 
0.01 1:0.35157227 2:-1.6589375 
0.01 1:0.17333594 2:-1.2938125 
0.01 1:0.13016992 2:-0.2438125 
0.01 1:0.10584961 2:-0.2670625 
0.01 1:0.1491582 2:-0.2735625 
0.01 1:0.15826172 2:-0.267 
0.01 1:0.12051562 2:-0.2690625 
0.01 1:0.22366797 2:-1.3763125 
0.01 1:0.18711914 2:-2.3135 
-0.01 1:0.44413086 2:-5.4968125 
-0.01 1:0.21798242 2:-3.359625 
-0.01 1:0.24378906 2:-4.7823125 
-0.01 1:0.18447266 2:-3.474625 
-0.01 1:0.20691602 2:-3.74675 
-0.01 1:0.20191211 2:-3.6116875 
-0.01 1:0.4447832 2:-5.192375 
-0.01 1:0.30793359 2:-6.8123125 
-0.01 1:0.16456055 2:-2.7685625 
-0.01 1:0.22054102 2:-4.6275625 
-0.01 1:0.1849043 2:-3.6331875 
-0.01 1:0.14020508 2:-2.8765 
-0.01 1:0.35932617 2:-6.08425 
-0.01 1:0.36448047 2:-5.8969375 
-0.01 1:0.4319082 2:-4.9931875 
-0.01 1:0.21938672 2:-3.08825 
-0.01 1:0.24210937 2:-3.6994375 
-0.01 1:0.30248438 2:-5.774375 
-0.01 1:0.19592383 2:-3.6909375 
-0.01 1:0.34451172 2:-5.8075 
-0.01 1:0.35028711 2:-6.351625 
-0.01 1:0.52801953 2:-5.481 
-0.01 1:0.16533203 2:-3.7995 
-0.01 1:0.37476758 2:-6.0885625 
-0.01 1:0.22442969 2:-3.56525 
-0.01 1:0.21854297 2:-4.6409375 
-0.01 1:0.37276172 2:-6.2431875 
-0.01 1:0.21350781 2:-4.545 
-0.01 1:0.35889258 2:-6.5419375 
-0.01 1:0.43250195 2:-4.395375 
-0.01 1:0.31458398 2:-6.05 
-0.01 1:0.1780957 2:-3.2313125 
-0.01 1:0.35349219 2:-6.191 
-0.01 1:0.21479102 2:-3.233 
-0.01 1:0.20934961 2:-3.377625 
-0.01 1:0.2040625 2:-3.052875 
-0.01 1:0.39625195 2:-5.7065625 
-0.01 1:0.37918555 2:-4.8870625 
-0.01 1:0.48716016 2:-4.86025 
-0.01 1:0.15241797 2:-2.6614375 
-0.01 1:0.24530469 2:-4.861 
-0.01 1:0.26879883 2:-3.4326875 
-0.01 1:0.19991992 2:-3.5648125 
-0.01 1:0.32481836 2:-6.3535 
-0.01 1:0.37691602 2:-4.8575625 
-0.01 1:0.34958789 2:-6.155125 
-0.01 1:0.17627734 2:-3.7154375 
-0.01 1:0.15448633 2:-3.7628125 
-0.01 1:0.15593555 2:-3.0060625 
-0.01 1:0.18180469 2:-3.0364375 
-0.01 1:0.38185937 2:-5.7153125 
-0.01 1:0.18081641 2:-3.34325 
-0.01 1:0.2720625 2:-5.821875 
-0.01 1:0.37411719 2:-4.8251875 
-0.01 1:0.38608203 2:-5.83775 
-0.01 1:0.17764258 2:-3.615625 
-0.01 1:0.23297852 2:-3.4668125 
-0.01 1:0.34370508 2:-6.6133125 
-0.01 1:0.18545703 2:-3.2850625 
-0.01 1:0.40190039 2:-4.0061875 
-0.01 1:0.41519336 2:-4.189625 
-0.01 1:0.18764453 2:-3.5874375 
-0.01 1:0.20479297 2:-4.5269375 
-0.01 1:0.23667383 2:-3.7280625 
-0.01 1:0.38089258 2:-4.9790625 
-0.01 1:0.15563281 2:-3.469125 
-0.01 1:0.15659961 2:-3.070875 
-0.01 1:0.33624023 2:-6.860125 
-0.01 1:0.37858984 2:-6.0868125 
-0.01 1:0.21081055 2:-3.7844375 
-0.01 1:0.15663281 2:-3.2999375 
-0.01 1:0.2179043 2:-4.7313125 
-0.01 1:0.19526562 2:-3.679375 
-0.01 1:0.22788867 2:-3.7604375 
-0.01 1:0.24993945 2:-5.5373125 
-0.01 1:0.18333398 2:-3.381 
-0.01 1:0.36661328 2:-6.022 
-0.01 1:0.36959961 2:-5.9623125 
-0.01 1:0.39398437 2:-5.7020625 
-0.01 1:0.35889453 2:-4.4951875 
-0.01 1:0.17125391 2:-3.1401875 
-0.01 1:0.37286523 2:-4.83775 
-0.01 1:0.21907031 2:-3.1823125 
-0.01 1:0.22279883 2:-4.62925 
-0.01 1:0.21282422 2:-4.698 
-0.005022845537881461 1:0.23544531 2:-5.3535 
-0.01 1:0.30776562 2:-5.9931875 
-0.01 1:0.15175 2:-2.97025 
-0.01 1:0.21464258 2:-4.6244375 
-0.01 1:0.43591602 2:-5.860375 
-0.01 1:0.18800781 2:-3.768125 
-0.003417924072621747 1:0.23888281 2:-5.203 
-0.01 1:0.45997461 2:-6.2921875 
-0.01 1:0.37671289 2:-4.9030625 
-0.01 1:0.15662109 2:-3.363625 
-0.01 1:0.15335352 2:-3.1814375 
-0.01 1:0.45030664 2:-4.5109375 
-0.01 1:0.32026367 2:-6.1031875 
-0.01 1:0.18700195 2:-3.6405 
-0.01 1:0.40238867 2:-4.4288125 
-0.01 1:0.2073418 2:-3.732875 
-0.01 1:0.15605664 2:-3.3848125 
-0.01 1:0.39944727 2:-5.0774375 
-0.01 1:0.22061328 2:-3.57275 
-0.01 1:0.17587695 2:-3.6184375 
-0.01 1:0.2189375 2:-4.7980625 
-0.01 1:0.36413867 2:-6.3994375 
-0.01 1:0.24639063 2:-4.836125 
-0.01 1:0.10407031 2:-2.424125 
-0.01 1:0.38444141 2:-4.484 
-0.01 1:0.43064648 2:-5.9849375 
-0.01 1:0.3282168 2:-6.19075 
-0.01 1:0.45663086 2:-6.1100625 
-0.01 1:0.30285937 2:-5.6975625 
-0.01 1:0.38377344 2:-6.2124375 
-0.01 1:0.21822266 2:-3.4904375 
-0.01 1:0.3675957 2:-5.8905625 
-0.01 1:0.39553906 2:-4.077875 
-0.01 1:0.369375 2:-4.5480625 
-0.01 1:0.15937305 2:-3.3386875 
-0.01 1:0.16400781 2:-3.708375 
-0.01 1:0.14236523 2:-2.8335 
-0.01 1:0.27334961 2:-5.794 
-0.01 1:0.22604883 2:-4.733125 
-0.01 1:0.34606445 2:-6.244125 
-0.01 1:0.44727148 2:-5.6630625 
-0.01 1:0.31229102 2:-6.0148125 
-0.01 1:0.44730469 2:-5.969375 
-0.01 1:0.16499609 2:-2.9005 
-0.01 1:0.17932031 2:-2.390125 
-0.01 1:0.41330273 2:-6.1581875 
-0.01 1:0.19066406 2:-3.7959375 
-0.01 1:0.22706055 2:-4.6515625 
-0.01 1:0.20489258 2:-4.5708125 
-0.01 1:0.18000586 2:-2.755125 
-0.01 1:0.29119141 2:-3.1743125 
-0.01 1:0.13432812 2:-2.488 
-0.01 1:0.30482617 2:-3.0379375 
-0.01 1:0.17342969 2:-3.4353125 
-0.01 1:0.26600391 2:-5.95225 
-0.01 1:0.40545312 2:-6.2274375 
-0.01 1:0.45595703 2:-5.719625 
-0.01 1:0.40119336 2:-7.3266875 
-0.01 1:0.20789063 2:-3.1371875 
-0.01 1:0.19514063 2:-3.7558125 
-0.01 1:0.30795703 2:-6.1831875 
-0.01 1:0.27466602 2:-6.4654375 
-0.01 1:0.35628711 2:-6.539625 
-0.01 1:0.50546875 2:-2.978125 
-0.01 1:0.34544336 2:-5.7846875 
-0.01 1:0.15477344 2:-3.1905625 
-0.01 1:0.20798828 2:-4.5903125 
-0.01 1:0.2029707 2:-4.5528125 
-0.01 1:0.16221484 2:-3.8394375 
-0.01 1:0.4003418 2:-4.8186875 
-0.01 1:0.40289063 2:-5.0608125 
-0.01 1:0.21367187 2:-5.067625 
-0.001283946839647821 1:0.3006875 2:-3.8331875 
-0.01 1:0.21133984 2:-4.653 
-0.01 1:0.36280859 2:-5.7243125 
-0.01 1:0.21148828 2:-4.67825 
-0.01 1:0.23898828 2:-4.7155 
-0.01 1:0.36478711 2:-5.8079375 
-0.01 1:0.41792383 2:-5.6728125 
-0.01 1:0.28633789 2:-6.1458125 
-0.01 1:0.25813086 2:-3.672125 
-0.01 1:0.26445117 2:-6.1681875 
-0.01 1:0.2009082 2:-3.641875 
-0.01 1:0.1526582 2:-3.2295625 
-0.0051798617163136 1:0.24790039 2:-4.9433125 
-0.01 1:0.24075195 2:-4.7785625 
-0.01 1:0.25719141 2:-3.743625 
-0.01 1:0.38399023 2:-4.735 
-0.01 1:0.31124219 2:-6.1073125 
-0.01 1:0.30435937 2:-6.94625 
-0.01 1:0.2345 2:-5.0680625 
-0.001656346633598543 1:0.37297266 2:-4.1598125 
-0.01 1:0.37275586 2:-7.081375 
-0.01 1:0.35354297 2:-7.0851875 
-0.01 1:0.35895703 2:-6.632125 
-0.01 1:0.068048828 2:-0.315 
-0.01 1:0.41373437 2:-5.745875 
-0.01 1:0.39512695 2:-4.9090625 
-0.01 1:0.41708984 2:-7.1114375 
-0.01 1:0.35916016 2:-4.7018125 
-0.01 1:0.36837695 2:-6.2575 
-0.01 1:0.40685938 2:-5.1049375 
-0.01 1:0.35732227 2:-6.6468125 
-0.01 1:0.3703457 2:-6.1079375 
-0.01 1:0.19591602 2:-3.3183125 
-0.01 1:0.32278711 2:-6.0531875 
-0.01 1:0.26810547 2:-6.101125 
-0.008461920737818289 1:0.36524414 2:-5.6711875 
-0.01 1:0.21464844 2:-5.0144375 
-0.01 1:0.28458594 2:-6.0638125 
-0.01 1:0.26591016 2:-3.618625 
-0.01 1:0.23612109 2:-4.8973125 
-0.01 1:0.35369141 2:-4.686375 
-0.01 1:0.2860332 2:-5.7048125 
-0.01 1:0.48453711 2:-3.700375 
-0.01 1:0.22942383 2:-3.4251875 
-0.01 1:0.24443555 2:-3.5398125 
-0.01 1:0.35529297 2:-4.68275 
