svm_type c_svc
kernel_type rbf
gamma 1
nr_class 2
total_sv 17
rho 146.712
label 1 -1
nr_sv 8 9
SV
1000000 1:0.23962695 2:-3.3054375 
218892.3825281202 1:0.16217188 2:-2.327625 
489579.1931619819 1:0.17714062 2:-2.3680625 
751724.9348841285 1:0.22025 2:-3.0306875 
1785.46655886789 1:0.099912109 2:-0.2281875 
2155.401629236729 1:0.089603516 2:-0.2883125 
415489.6140675487 1:0.28905469 2:-3.669375 
308879.6771679994 1:0.20046875 2:-2.5005 
-1000000 1:0.21938672 2:-3.08825 
-463276.3616056591 1:0.26879883 2:-3.4326875 
-16181.6513470513 1:0.40190039 2:-4.0061875 
-222142.9528934877 1:0.21907031 2:-3.1823125 
-1000000 1:0.17932031 2:-2.390125 
-63909.76947997563 1:0.30482617 2:-3.0379375 
-3955.953073988752 1:0.068048828 2:-0.315 
-418436.3814167898 1:0.26591016 2:-3.618625 
-603.6001809365293 1:0.48453711 2:-3.700375 
