svm_type c_svc
kernel_type polynomial
degree 2
gamma 1
coef0 1
nr_class 2
total_sv 386
rho -2.29512
label 1 -1
nr_sv 193 193
SV
0.01 1:0.14204297 2:-1.8194375 
0.01 1:0.18283984 2:-1.0160625 
0.01 1:0.18338477 2:-1.7868125 
0.01 1:0.18854883 2:-1.38175 
0.01 1:0.22682812 2:-0.9900625 
0.01 1:0.17437305 2:-1.1169375 
0.01 1:0.1064707 2:-1.0458125 
0.01 1:0.19324805 2:-1.237 
0.01 1:0.18330469 2:-1.0176875 
0.01 1:0.13386133 2:-1.2381875 
0.01 1:0.11079297 2:-1.479125 
0.01 1:0.17200195 2:-1.5355625 
0.01 1:0.19665234 2:-1.8435 
0.01 1:0.15559375 2:-1.099625 
0.01 1:0.094105469 2:-1.25525 
0.01 1:0.14158398 2:-1.0695625 
0.01 1:0.15216406 2:-1.026125 
0.01 1:0.18283203 2:-1.520625 
0.01 1:0.13518945 2:-1.040625 
0.01 1:0.12067969 2:-1.18375 
0.01 1:0.22023828 2:-1.059 
0.01 1:0.19747266 2:-1.3880625 
0.01 1:0.23962695 2:-3.3054375 
0.01 1:0.068253906 2:-1.364625 
0.01 1:0.23009766 2:-1.691 
0.01 1:0.21329102 2:-1.593375 
0.01 1:0.24764258 2:-2.31925 
0.01 1:0.16185547 2:-1.519125 
0.01 1:0.10816211 2:-1.3498125 
0.01 1:0.11371484 2:-1.3401875 
0.01 1:0.17062695 2:-1.560375 
0.01 1:0.14517578 2:-1.09425 
0.01 1:0.10826172 2:-1.0439375 
0.01 1:0.22277734 2:-1.3945 
0.01 1:0.13659961 2:-1.093125 
0.01 1:0.10053125 2:-1.1860625 
0.01 1:0.14639062 2:-1.8294375 
0.01 1:0.25077539 2:-1.1349375 
0.01 1:0.14623242 2:-1.0671875 
0.01 1:0.16803906 2:-1.3530625 
0.01 1:0.17791992 2:-1.055 
0.01 1:0.15420898 2:-1.619875 
0.01 1:0.16303125 2:-1.1005625 
0.01 1:0.14702148 2:-1.28975 
0.01 1:0.16949023 2:-1.1785 
0.01 1:0.25565625 2:-1.4544375 
0.01 1:0.22255859 2:-2.02525 
0.01 1:0.23245703 2:-1.195625 
0.01 1:0.16217188 2:-2.327625 
0.01 1:0.10207617 2:-1.067 
0.01 1:0.10664258 2:-1.4766875 
0.01 1:0.21677539 2:-1.36575 
0.01 1:0.20256055 2:-1.8050625 
0.01 1:0.19461914 2:-1.3445625 
0.01 1:0.18532422 2:-1.690875 
0.01 1:0.1065625 2:-1.722625 
0.01 1:0.10953125 2:-1.2106875 
0.01 1:0.19689648 2:-1.5423125 
0.01 1:0.22131836 2:-0.972 
0.01 1:0.13424609 2:-1.040625 
0.01 1:0.1989707 2:-1.7538125 
0.01 1:0.20061523 2:-1.3003125 
0.01 1:0.23345117 2:-1.063375 
0.01 1:0.28416211 2:-1.2368125 
0.01 1:0.17612305 2:-1.000625 
0.01 1:0.24884961 2:-0.97475 
0.01 1:0.13932031 2:-1.2410625 
0.01 1:0.17714062 2:-2.3680625 
0.01 1:0.067634766 2:-1.410875 
0.01 1:0.22025 2:-3.0306875 
0.01 1:0.1367793 2:-1.2078125 
0.01 1:0.18241406 2:-1.7259375 
0.01 1:0.14162305 2:-1.396 
0.01 1:0.23783789 2:-0.9815625 
0.01 1:0.19193359 2:-1.929375 
0.01 1:0.12993359 2:-1.4123125 
0.01 1:0.20846484 2:-0.99375 
0.01 1:0.095126953 2:-1.0759375 
0.01 1:0.20369141 2:-1.43725 
0.01 1:0.24479297 2:-1.2194375 
0.01 1:0.13571484 2:-1.0553125 
0.01 1:0.1653418 2:-1.166875 
0.01 1:0.18621875 2:-1.0839375 
0.01 1:0.18467578 2:-2.040125 
0.01 1:0.092253906 2:-1.2986875 
0.01 1:0.092449219 2:-1.3479375 
0.01 1:0.19182813 2:-1.3671875 
0.01 1:0.18350195 2:-2.1923125 
0.01 1:0.20761914 2:-1.4529375 
0.01 1:0.2320293 2:-1.118875 
0.01 1:0.22644727 2:-1.011625 
0.01 1:0.16998828 2:-1.1355625 
0.01 1:0.20406445 2:-1.2705625 
0.01 1:0.20280469 2:-1.346875 
0.01 1:0.12955469 2:-1.1235625 
0.01 1:0.1505293 2:-1.2823125 
0.01 1:0.25284766 2:-1.5586875 
0.01 1:0.12036133 2:-1.40125 
0.01 1:0.26035937 2:-1.318125 
0.01 1:0.19900977 2:-1.1204375 
0.01 1:0.1970332 2:-1.14525 
0.01 1:0.11639648 2:-1.314625 
0.01 1:0.20186328 2:-1.2709375 
0.01 1:0.077263672 2:-1.0995 
0.01 1:0.17305469 2:-1.5033125 
0.01 1:0.10909375 2:-1.11075 
0.01 1:0.15942383 2:-1.0588125 
0.01 1:0.17619141 2:-1.071875 
0.01 1:0.15626562 2:-1.477 
0.01 1:0.15686523 2:-1.1291875 
0.01 1:0.12803125 2:-1.108625 
0.01 1:0.18408398 2:-1.84125 
0.005751644770045307 1:0.20376172 2:-0.978 
0.01 1:0.12140039 2:-1.143 
0.01 1:0.21675391 2:-1.0773125 
0.01 1:0.10986133 2:-1.25375 
0.01 1:0.18658008 2:-1.3195 
0.01 1:0.21106641 2:-1.4304375 
0.01 1:0.23630273 2:-1.0464375 
0.01 1:0.16279883 2:-1.3314375 
0.01 1:0.1687168 2:-1.07825 
0.01 1:0.18491797 2:-1.406 
0.01 1:0.28905469 2:-3.669375 
0.01 1:0.12097266 2:-1.23825 
0.01 1:0.15547266 2:-1.14625 
0.01 1:0.14642578 2:-1.6275625 
0.01 1:0.16908984 2:-1.0158125 
0.01 1:0.22366992 2:-1.713625 
0.01 1:0.16041602 2:-1.4425625 
0.01 1:0.1085 2:-1.054 
0.01 1:0.16453125 2:-1.2055625 
0.01 1:0.11625781 2:-1.134125 
0.01 1:0.20705664 2:-0.99 
0.01 1:0.086097656 2:-1.1035 
0.01 1:0.19703125 2:-1.2106875 
0.01 1:0.12818555 2:-1.0766875 
0.01 1:0.16345508 2:-1.4323125 
0.01 1:0.17454492 2:-1.0478125 
0.01 1:0.11278516 2:-1.221 
0.01 1:0.24219531 2:-1.26275 
0.01 1:0.166 2:-1.25175 
0.01 1:0.12264258 2:-1.255875 
0.01 1:0.11933008 2:-1.317 
0.01 1:0.30291602 2:-0.991625 
0.01 1:0.31554102 2:-1.5011875 
0.01 1:0.16424414 2:-1.067375 
0.01 1:0.14164258 2:-1.2774375 
0.01 1:0.10383789 2:-1.3301875 
0.01 1:0.097498047 2:-1.346875 
0.01 1:0.10355469 2:-1.358375 
0.01 1:0.15374805 2:-1.035875 
0.01 1:0.15630078 2:-1.555375 
0.01 1:0.16394531 2:-1.220625 
0.01 1:0.16663672 2:-1.2071875 
0.01 1:0.19907422 2:-0.9955 
0.01 1:0.13479492 2:-1.7898125 
0.01 1:0.18665039 2:-1.145625 
0.01 1:0.18990234 2:-1.227375 
0.01 1:0.15716602 2:-1.198625 
0.01 1:0.17749023 2:-1.3291875 
0.01 1:0.12639453 2:-1.29225 
0.01 1:0.2133125 2:-0.990375 
0.01 1:0.17983594 2:-1.146625 
0.01 1:0.19230078 2:-1.6540625 
0.01 1:0.27030078 2:-1.6701875 
0.01 1:0.12122656 2:-1.3519375 
0.01 1:0.18249023 2:-1.704875 
0.01 1:0.1407832 2:-1.13525 
0.01 1:0.1527168 2:-1.0211875 
0.01 1:0.10416406 2:-1.4846875 
0.01 1:0.12774414 2:-1.2005625 
0.01 1:0.20046875 2:-2.5005 
0.01 1:0.13027148 2:-1.22175 
0.01 1:0.090445312 2:-1.3025 
0.01 1:0.12721289 2:-1.0301875 
0.01 1:0.12404102 2:-1.078 
0.01 1:0.27432812 2:-1.215 
0.01 1:0.17559766 2:-1.279625 
0.01 1:0.17580078 2:-1.0739375 
0.01 1:0.22610742 2:-1.3413125 
0.01 1:0.27775586 2:-1.43175 
0.01 1:0.15311328 2:-1.0805 
0.01 1:0.12719922 2:-1.6950625 
0.01 1:0.19116602 2:-1.706625 
0.01 1:0.10912695 2:-1.035375 
0.01 1:0.18694922 2:-1.42925 
0.01 1:0.35157227 2:-1.6589375 
0.01 1:0.17333594 2:-1.2938125 
0.01 1:0.17308008 2:-1.1093125 
0.01 1:0.22366797 2:-1.3763125 
0.01 1:0.18711914 2:-2.3135 
0.01 1:0.16342383 2:-1.017125 
0.01 1:0.19510352 2:-1.2179375 
-0.01 1:0.17680469 2:-0.7626875 
-0.01 1:0.34409766 2:-1.65875 
-0.01 1:0.3864375 2:-1.5735 
-0.01 1:0.25451758 2:-1.7416875 
-0.01 1:0.13074219 2:-1.6263125 
-0.01 1:0.27570508 2:-1.7501875 
-0.01 1:0.10989844 2:-1.7845 
-0.01 1:0.21885156 2:-1.7906875 
-0.01 1:0.19477539 2:-1.5100625 
-0.01 1:0.50997461 2:-1.53175 
-0.01 1:0.52543945 2:-1.5133125 
-0.01 1:0.076144531 2:-1.757125 
-0.01 1:0.10011719 2:-1.7415625 
-0.01 1:0.17488281 2:-1.0215 
-0.01 1:0.23530273 2:-1.1014375 
-0.01 1:0.088027344 2:-1.490625 
-0.01 1:0.28346094 2:-1.1570625 
-0.01 1:0.34080859 2:-1.552 
-0.01 1:0.11400195 2:-1.7169375 
-0.01 1:0.23729883 2:-1.4004375 
-0.01 1:0.2591543 2:-1.780875 
-0.01 1:0.33716992 2:-1.6179375 
-0.01 1:0.32062109 2:-1.7270625 
-0.01 1:0.25826562 2:-1.6623125 
-0.01 1:0.31220117 2:-1.354625 
-0.01 1:0.21630273 2:-1.4938125 
-0.01 1:0.093355469 2:-1.65375 
-0.01 1:0.53756055 2:-1.4563125 
-0.01 1:0.15331641 2:-1.8380625 
-0.01 1:0.18063281 2:-1.7966875 
-0.01 1:0.40429687 2:-1.10175 
-0.01 1:0.23803906 2:-1.2504375 
-0.01 1:0.36394531 2:-1.63875 
-0.01 1:0.40451953 2:-1.271 
-0.01 1:0.20431836 2:-1.3066875 
-0.01 1:0.41103125 2:-1.5165625 
-0.01 1:0.33723437 2:-1.4580625 
-0.01 1:0.28037109 2:-1.59875 
-0.01 1:0.24942188 2:-1.6803125 
-0.01 1:0.26952148 2:-1.5008125 
-0.01 1:0.3401875 2:-1.4686875 
-0.01 1:0.32116602 2:-1.6766875 
-0.01 1:0.24449219 2:-1.5425 
-0.01 1:0.22915234 2:-1.374375 
-0.01 1:0.32749023 2:-1.7175 
-0.01 1:0.2248125 2:-1.0631875 
-0.01 1:0.20659375 2:-1.3813125 
-0.01 1:0.29856836 2:-1.3805625 
-0.01 1:0.20087109 2:-0.9624375 
-0.01 1:0.4820332 2:-1.2183125 
-0.01 1:0.20248633 2:-1.470125 
-0.01 1:0.57983398 2:-1.5735625 
-0.01 1:0.16695508 2:-1.788625 
-0.01 1:0.44060156 2:-1.6279375 
-0.01 1:0.21296484 2:-1.6684375 
-0.01 1:0.339125 2:-1.304625 
-0.01 1:0.396875 2:-1.6061875 
-0.01 1:0.11469336 2:-1.1860625 
-0.01 1:0.11040039 2:-1.0778125 
-0.01 1:0.081978516 2:-1.5713125 
-0.01 1:0.37437891 2:-1.7210625 
-0.01 1:0.44779492 2:-1.6871875 
-0.01 1:0.35502539 2:-1.6113125 
-0.01 1:0.43997461 2:-1.51125 
-0.01 1:0.22288086 2:-0.879125 
-0.01 1:0.28343945 2:-1.48925 
-0.01 1:0.13053516 2:-1.8559375 
-0.01 1:0.26330664 2:-1.4164375 
-0.01 1:0.20781641 2:-1.73425 
-0.01 1:0.32364258 2:-0.9266875 
-0.01 1:0.12839844 2:-1.844625 
-0.01 1:0.43955078 2:-1.6426875 
-0.01 1:0.10430078 2:-1.799125 
-0.01 1:0.26228125 2:-1.668 
-0.01 1:0.25470508 2:-0.922875 
-0.01 1:0.082253906 2:-1.711875 
-0.01 1:0.49685547 2:-1.6393125 
-0.01 1:0.3485625 2:-1.658125 
-0.01 1:0.32937891 2:-1.713375 
-0.01 1:0.21323437 2:-1.5406875 
-0.01 1:0.34611328 2:-1.1154375 
-0.01 1:0.18579297 2:-1.535625 
-0.01 1:0.11993555 2:-1.763125 
-0.01 1:0.38763477 2:-1.709875 
-0.01 1:0.44179297 2:-1.180625 
-0.01 1:0.36413281 2:-1.5961875 
-0.01 1:0.28627148 2:-1.2314375 
-0.01 1:0.10788672 2:-0.7638125 
-0.01 1:0.25452539 2:-1.412375 
-0.01 1:0.36987109 2:-1.69375 
-0.01 1:0.090345703 2:-0.9753125 
-0.005751644770045307 1:0.161875 2:-1.8429375 
-0.01 1:0.22771875 2:-1.64375 
-0.01 1:0.25978906 2:-1.63275 
-0.01 1:0.23420703 2:-1.3368125 
-0.01 1:0.39682227 2:-1.5556875 
-0.01 1:0.31925977 2:-1.5941875 
-0.01 1:0.4265625 2:-1.383125 
-0.01 1:0.25358594 2:-0.9501875 
-0.01 1:0.11356445 2:-1.707875 
-0.01 1:0.084939453 2:-1.6044375 
-0.01 1:0.31989258 2:-1.6335625 
-0.01 1:0.089160156 2:-1.664875 
-0.01 1:0.26113086 2:-1.6146875 
-0.01 1:0.22906641 2:-1.590375 
-0.01 1:0.081677734 2:-1.615 
-0.01 1:0.23073047 2:-1.6185625 
-0.01 1:0.27299023 2:-1.2601875 
-0.01 1:0.23117383 2:-1.6263125 
-0.01 1:0.088638672 2:-1.6873125 
-0.01 1:0.22947852 2:-1.157625 
-0.01 1:0.21206055 2:-1.68725 
-0.01 1:0.31141211 2:-1.650875 
-0.01 1:0.31237305 2:-1.243125 
-0.01 1:0.095677734 2:-1.830875 
-0.01 1:0.12900781 2:-1.6446875 
-0.01 1:0.31803516 2:-0.858 
-0.01 1:0.096371094 2:-1.652375 
-0.01 1:0.40707813 2:-1.1791875 
-0.01 1:0.085773437 2:-1.749625 
-0.01 1:0.1862207 2:-1.8210625 
-0.01 1:0.13232227 2:-1.697 
-0.01 1:0.33593555 2:-1.454375 
-0.01 1:0.28295508 2:-0.9159375 
-0.01 1:0.35878516 2:-1.594875 
-0.01 1:0.37358398 2:-1.4289375 
-0.01 1:0.3609707 2:-1.736625 
-0.01 1:0.43455859 2:-1.505125 
-0.01 1:0.10522656 2:-1.86675 
-0.01 1:0.43425977 2:-1.4025 
-0.01 1:0.49054687 2:-1.1923125 
-0.01 1:0.087923828 2:-1.8408125 
-0.01 1:0.14311133 2:-0.8130625 
-0.01 1:0.079349609 2:-1.6896875 
-0.01 1:0.076787109 2:-1.723625 
-0.01 1:0.090884766 2:-1.8548125 
-0.01 1:0.37888477 2:-1.45675 
-0.01 1:0.41257227 2:-1.71725 
-0.01 1:0.26130078 2:-1.77575 
-0.01 1:0.11264453 2:-1.797 
-0.01 1:0.49512891 2:-1.64025 
-0.01 1:0.30670117 2:-1.691 
-0.01 1:0.24798438 2:-1.645375 
-0.01 1:0.29705078 2:-1.08675 
-0.01 1:0.11080273 2:-1.3539375 
-0.01 1:0.084816406 2:-1.8560625 
-0.01 1:0.081591797 2:-1.7980625 
-0.01 1:0.26060352 2:-0.900625 
-0.01 1:0.32942969 2:-1.7116875 
-0.01 1:0.34419531 2:-1.66775 
-0.01 1:0.22933008 2:-1.4585 
-0.01 1:0.36602734 2:-1.5118125 
-0.01 1:0.28570312 2:-1.774 
-0.01 1:0.43242188 2:-1.561625 
-0.01 1:0.046820312 2:-0.9586875 
-0.01 1:0.067253906 2:-1.4940625 
-0.01 1:0.27055078 2:-1.3105 
-0.01 1:0.16663672 2:-0.9226875 
-0.01 1:0.22599414 2:-1.5581875 
-0.01 1:0.11631055 2:-1.8314375 
-0.01 1:0.31439063 2:-1.372 
-0.01 1:0.34260937 2:-1.451625 
-0.01 1:0.35279102 2:-1.1444375 
-0.01 1:0.28167188 2:-1.3150625 
-0.01 1:0.60116992 2:-1.4695625 
-0.01 1:0.54976758 2:-0.798875 
-0.01 1:0.20134375 2:-1.7034375 
-0.01 1:0.3515918 2:-1.2735625 
-0.01 1:0.44529687 2:-1.3795 
-0.01 1:0.29655078 2:-0.9794375 
-0.01 1:0.098136719 2:-1.4321875 
-0.01 1:0.077703125 2:-1.7349375 
-0.01 1:0.091894531 2:-1.8661875 
-0.01 1:0.26932422 2:-1.75025 
-0.01 1:0.27455664 2:-1.5620625 
-0.01 1:0.068048828 2:-0.315 
-0.01 1:0.17296875 2:-1.639 
-0.01 1:0.10482422 2:-1.7215 
-0.01 1:0.38938672 2:-1.4563125 
-0.01 1:0.3668457 2:-1.7016875 
-0.01 1:0.24726953 2:-1.332625 
-0.01 1:0.27632617 2:-1.724 
-0.01 1:0.23089453 2:-1.5915 
-0.01 1:0.17054102 2:-1.676875 
-0.01 1:0.41735742 2:-1.526375 
-0.01 1:0.10108594 2:-1.3268125 
-0.01 1:0.34125391 2:-1.1159375 
-0.01 1:0.37282227 2:-1.704 
-0.01 1:0.33852734 2:-1.579375 
-0.01 1:0.35805469 2:-1.609 
-0.01 1:0.1554707 2:-1.6245625 
-0.01 1:0.083884766 2:-1.3044375 
-0.01 1:0.36944336 2:-1.555 
