svm_type c_svc
kernel_type polynomial
degree 2
gamma 1
coef0 1
nr_class 2
total_sv 1340
rho 0.999162
label 1 -1
nr_sv 658 682
SV
0.01 1:0.29193555 2:-4.3520625 
0.01 1:0.20337891 2:-3.3363125 
0.01 1:0.28341602 2:-4.0206875 
0.01 1:0.29260352 2:-4.7495 
0.01 1:0.14435352 2:-2.1880625 
0.01 1:0.24815234 2:-3.5175 
0.01 1:0.25181055 2:-3.654375 
0.01 1:0.30577539 2:-4.2723125 
0.01 1:0.26988281 2:-3.781125 
0.01 1:0.33696094 2:-4.6469375 
0.01 1:0.26391211 2:-4.62975 
0.01 1:0.34718164 2:-5.0629375 
0.01 1:0.3785957 2:-3.982125 
0.01 1:0.31819336 2:-4.47875 
0.01 1:0.36934766 2:-3.1859375 
0.01 1:0.20792578 2:-2.2953125 
0.01 1:0.33440625 2:-3.9676875 
0.01 1:0.36500586 2:-4.0619375 
0.01 1:0.29884375 2:-5.16125 
0.01 1:0.2848457 2:-4.2438125 
0.01 1:0.1932832 2:-2.9311875 
0.01 1:0.23298633 2:-2.002375 
0.01 1:0.22383594 2:-2.1114375 
0.01 1:0.44478125 2:-4.250625 
0.01 1:0.20360742 2:-3.3480625 
0.01 1:0.27054883 2:-3.8561875 
0.01 1:0.22860547 2:-3.5635625 
0.01 1:0.31200586 2:-4.8094375 
0.01 1:0.2238125 2:-3.79475 
0.01 1:0.29704883 2:-3.9256875 
0.01 1:0.23852734 2:-3.167 
0.01 1:0.28319336 2:-3.9333125 
0.01 1:0.2803125 2:-4.0429375 
0.01 1:0.33800977 2:-5.073625 
0.01 1:0.32891211 2:-3.746125 
0.01 1:0.35856055 2:-4.7313125 
0.01 1:0.2579707 2:-2.818 
0.01 1:0.2319375 2:-3.6893125 
0.01 1:0.21820898 2:-2.6646875 
0.01 1:0.338125 2:-5.053 
0.01 1:0.19692188 2:-3.39575 
0.01 1:0.31208594 2:-5.566 
0.01 1:0.27745898 2:-4.6110625 
0.01 1:0.25940625 2:-5.0618125 
0.01 1:0.2610918 2:-2.924625 
0.01 1:0.25101953 2:-5.5248125 
0.01 1:0.21958984 2:-2.6198125 
0.01 1:0.19083008 2:-3.947625 
0.01 1:0.16535352 2:-3.2903125 
0.01 1:0.21100977 2:-3.42 
0.01 1:0.308875 2:-5.303375 
0.01 1:0.26604102 2:-4.314875 
0.01 1:0.26405078 2:-4.7771875 
0.01 1:0.25223437 2:-3.971 
0.01 1:0.33277148 2:-4.6433125 
0.01 1:0.26214258 2:-3.674 
0.01 1:0.27315234 2:-2.730375 
0.01 1:0.20678516 2:-3.22225 
0.01 1:0.25205078 2:-2.93175 
0.01 1:0.26273438 2:-3.28225 
0.01 1:0.40959766 2:-4.346125 
0.01 1:0.30964844 2:-4.2974375 
0.01 1:0.23047852 2:-4.1770625 
0.01 1:0.35771094 2:-4.2160625 
0.01 1:0.35455664 2:-3.95475 
0.01 1:0.25057227 2:-4.1718125 
0.01 1:0.32633594 2:-3.9435 
0.01 1:0.32655273 2:-4.7643125 
0.01 1:0.3622207 2:-4.4836875 
0.01 1:0.33055078 2:-3.4485 
0.01 1:0.30962891 2:-2.9985 
0.01 1:0.41484961 2:-3.875875 
0.01 1:0.13006055 2:-2.3679375 
0.01 1:0.28378711 2:-4.067625 
0.01 1:0.20948438 2:-3.14125 
0.01 1:0.25099805 2:-3.2134375 
0.01 1:0.30496484 2:-3.691125 
0.01 1:0.20317578 2:-3.6855625 
0.01 1:0.21226953 2:-3.20225 
0.01 1:0.36505078 2:-3.2536875 
0.01 1:0.36882813 2:-4.353 
0.01 1:0.24975391 2:-4.9430625 
0.01 1:0.30545898 2:-3.800375 
0.01 1:0.22049219 2:-2.84775 
0.01 1:0.26083398 2:-3.8071875 
0.01 1:0.40097656 2:-4.777375 
0.01 1:0.40899219 2:-5.5123125 
0.01 1:0.35768945 2:-6.08625 
0.01 1:0.40966797 2:-3.993875 
0.01 1:0.19202344 2:-4.285125 
0.01 1:0.21664258 2:-3.8098125 
0.01 1:0.27623242 2:-3.7608125 
0.01 1:0.30438672 2:-2.5859375 
0.01 1:0.32357812 2:-3.277 
0.01 1:0.25950977 2:-4.6583125 
0.01 1:0.33651953 2:-5.174875 
0.01 1:0.21465625 2:-3.1859375 
0.01 1:0.17041797 2:-3.62 
0.01 1:0.22808398 2:-3.1641875 
0.01 1:0.36937305 2:-4.2505625 
0.01 1:0.22425781 2:-3.2 
0.01 1:0.18447266 2:-3.1966875 
0.01 1:0.25314258 2:-3.9844375 
0.01 1:0.39997852 2:-5.778625 
0.01 1:0.16792383 2:-3.2284375 
0.01 1:0.22792773 2:-3.4629375 
0.01 1:0.26610156 2:-3.9569375 
0.01 1:0.2945 2:-4.27725 
0.01 1:0.31336523 2:-3.929875 
0.01 1:0.30566992 2:-4.4906875 
0.01 1:0.23108984 2:-4.202 
0.01 1:0.2169375 2:-3.0226875 
0.01 1:0.26342969 2:-3.8723125 
0.01 1:0.30717578 2:-3.554125 
0.01 1:0.2175918 2:-2.9788125 
0.01 1:0.32863477 2:-3.693375 
0.01 1:0.14101758 2:-2.5933125 
0.01 1:0.41108008 2:-4.3343125 
0.01 1:0.17407812 2:-3.102625 
0.01 1:0.42868164 2:-3.7133125 
0.01 1:0.41662305 2:-5.1686875 
0.01 1:0.35747656 2:-4.5548125 
0.01 1:0.25036328 2:-3.019875 
0.01 1:0.4081543 2:-3.5719375 
0.01 1:0.30863867 2:-3.7415625 
0.01 1:0.19308398 2:-3.168875 
0.01 1:0.30339062 2:-3.2913125 
0.01 1:0.30611523 2:-2.9101875 
0.01 1:0.35369336 2:-3.8585 
0.01 1:0.29476172 2:-4.2281875 
0.01 1:0.30151758 2:-5.2821875 
0.01 1:0.35457227 2:-3.133 
0.01 1:0.21883594 2:-3.8285 
0.01 1:0.27779687 2:-2.887375 
0.01 1:0.23314844 2:-3.966125 
0.01 1:0.27866992 2:-3.1021875 
0.01 1:0.27174219 2:-5.023125 
0.01 1:0.32765234 2:-4.0785625 
0.01 1:0.31051172 2:-4.055625 
0.01 1:0.26871289 2:-3.656875 
0.01 1:0.17018359 2:-2.38025 
0.01 1:0.32941016 2:-4.59175 
0.01 1:0.28486719 2:-3.718875 
0.01 1:0.24349805 2:-2.2509375 
0.01 1:0.19408398 2:-3.2364375 
0.01 1:0.40841602 2:-5.890375 
0.01 1:0.33573047 2:-4.2478125 
0.01 1:0.48122461 2:-4.6288125 
0.01 1:0.33568945 2:-4.6773125 
0.01 1:0.21092969 2:-3.133125 
0.01 1:0.21583203 2:-3.4614375 
0.01 1:0.38566406 2:-5.403625 
0.01 1:0.31589453 2:-4.6761875 
0.01 1:0.28108203 2:-3.5603125 
0.01 1:0.31639063 2:-4.31275 
0.01 1:0.20250391 2:-3.0280625 
0.01 1:0.18080469 2:-3.690125 
0.01 1:0.38022852 2:-5.2323125 
0.01 1:0.2646582 2:-3.4330625 
0.01 1:0.28633789 2:-3.591 
0.01 1:0.32294922 2:-4.96825 
0.01 1:0.31435742 2:-5.30375 
0.01 1:0.32183594 2:-4.6823125 
0.01 1:0.081978516 2:-1.5713125 
0.01 1:0.21419336 2:-1.8233125 
0.01 1:0.22320313 2:-2.806375 
0.01 1:0.15773828 2:-2.32525 
0.01 1:0.31990625 2:-4.2178125 
0.01 1:0.27248438 2:-4.349875 
0.01 1:0.2641543 2:-3.894125 
0.01 1:0.27653711 2:-3.3175625 
0.01 1:0.25031445 2:-4.073125 
0.01 1:0.39774414 2:-6.05375 
0.01 1:0.22101953 2:-4.0928125 
0.01 1:0.30616797 2:-4.56425 
0.01 1:0.44216406 2:-4.5275 
0.01 1:0.38049805 2:-4.2808125 
0.01 1:0.19823438 2:-3.312625 
0.01 1:0.40190625 2:-5.91075 
0.01 1:0.19210547 2:-3.7350625 
0.01 1:0.19281836 2:-3.81475 
0.01 1:0.40013867 2:-4.9890625 
0.01 1:0.23430664 2:-3.7355 
0.01 1:0.29729883 2:-3.9883125 
0.01 1:0.31636133 2:-2.7805 
0.01 1:0.2800332 2:-3.6730625 
0.01 1:0.30330469 2:-2.7196875 
0.01 1:0.30932617 2:-3.8633125 
0.01 1:0.32060352 2:-4.442625 
0.01 1:0.27453906 2:-4.14125 
0.01 1:0.29849609 2:-3.9649375 
0.01 1:0.22791016 2:-4.01 
0.01 1:0.2117207 2:-4.1814375 
0.01 1:0.3000918 2:-3.7284375 
0.01 1:0.27028711 2:-2.9045 
0.01 1:0.36425586 2:-4.5600625 
0.01 1:0.31678516 2:-5.1941875 
0.01 1:0.32768164 2:-3.8809375 
0.01 1:0.29023828 2:-4.9870625 
0.01 1:0.35126758 2:-4.4229375 
0.01 1:0.30526953 2:-5.664125 
0.01 1:0.23304492 2:-3.69675 
0.01 1:0.23367578 2:-2.1321875 
0.01 1:0.39972461 2:-5.7641875 
0.01 1:0.43530664 2:-4.53675 
0.01 1:0.24793164 2:-3.6923125 
0.01 1:0.29679883 2:-4.7449375 
0.01 1:0.18136328 2:-3.9119375 
0.01 1:0.38264844 2:-5.1065 
0.01 1:0.27766797 2:-3.8261875 
0.01 1:0.23266016 2:-4.689 
0.01 1:0.268375 2:-3.6995625 
0.01 1:0.31280664 2:-3.883 
0.01 1:0.33487109 2:-3.044875 
0.01 1:0.31535937 2:-4.855125 
0.01 1:0.30266992 2:-4.88725 
0.01 1:0.17253516 2:-3.41425 
0.01 1:0.29676953 2:-4.008375 
0.01 1:0.22069727 2:-2.997375 
0.01 1:0.37776953 2:-5.1730625 
0.01 1:0.22812305 2:-4.5526875 
0.01 1:0.25456445 2:-3.6688125 
0.01 1:0.25320117 2:-3.239875 
0.01 1:0.21255078 2:-3.1623125 
0.01 1:0.45806641 2:-2.8064375 
0.01 1:0.33355664 2:-3.210625 
0.01 1:0.37282422 2:-4.1736875 
0.01 1:0.2822168 2:-4.0884375 
0.01 1:0.22749609 2:-2.9654375 
0.01 1:0.4509043 2:-6.5925625 
0.01 1:0.38269531 2:-4.839625 
0.01 1:0.31787891 2:-2.8479375 
0.01 1:0.30931641 2:-2.750125 
0.01 1:0.37639453 2:-2.792375 
0.01 1:0.3757207 2:-4.5140625 
0.01 1:0.31471484 2:-4.6373125 
0.01 1:0.19935352 2:-3.559875 
0.01 1:0.18109961 2:-2.77675 
0.01 1:0.23675195 2:-3.4498125 
0.01 1:0.29289258 2:-3.71 
0.01 1:0.25084766 2:-3.399625 
0.01 1:0.2802832 2:-4.3881875 
0.01 1:0.34348242 2:-3.792 
0.01 1:0.39061133 2:-3.7198125 
0.01 1:0.19359766 2:-3.0270625 
0.01 1:0.23483008 2:-3.5435 
0.01 1:0.22642578 2:-3.8066875 
0.01 1:0.28875781 2:-4.933 
0.01 1:0.27839453 2:-2.256625 
0.01 1:0.15043945 2:-2.502625 
0.01 1:0.17954883 2:-3.3505625 
0.01 1:0.28249414 2:-2.825 
0.01 1:0.40465039 2:-3.5784375 
0.01 1:0.27832031 2:-3.4939375 
0.01 1:0.22297266 2:-2.9069375 
0.01 1:0.20948242 2:-3.10625 
0.01 1:0.34069922 2:-4.6513125 
0.01 1:0.26292969 2:-2.64375 
0.01 1:0.26445117 2:-4.8659375 
0.01 1:0.38406055 2:-4.01 
0.01 1:0.31895703 2:-3.3794375 
0.01 1:0.30638672 2:-3.60425 
0.01 1:0.26500391 2:-5.61825 
0.01 1:0.19155273 2:-3.0366875 
0.01 1:0.161875 2:-1.8429375 
0.01 1:0.1194082 2:-2.294 
0.01 1:0.21319141 2:-3.8570625 
0.01 1:0.22507227 2:-4.09775 
0.01 1:0.20861523 2:-3.512375 
0.01 1:0.33949219 2:-4.249625 
0.01 1:0.28433203 2:-4.1348125 
0.01 1:0.25391016 2:-3.94825 
0.01 1:0.21941992 2:-4.12225 
0.01 1:0.23691406 2:-3.568375 
0.01 1:0.20968945 2:-4.0735625 
0.01 1:0.35580078 2:-6.299125 
0.01 1:0.22488672 2:-4.0564375 
0.01 1:0.27745117 2:-5.06825 
0.01 1:0.34071094 2:-6.2910625 
0.01 1:0.22606445 2:-3.9135625 
0.01 1:0.17310937 2:-2.4065 
0.01 1:0.21088477 2:-4.1166875 
0.01 1:0.23025 2:-4.340625 
0.01 1:0.18216992 2:-2.539625 
0.01 1:0.22105273 2:-3.51125 
0.01 1:0.25425781 2:-3.375125 
0.01 1:0.22406641 2:-3.3175 
0.01 1:0.35527734 2:-2.8031875 
0.01 1:0.43747852 2:-3.440125 
0.01 1:0.21753125 2:-3.3175 
0.01 1:0.25088867 2:-3.4085 
0.01 1:0.51403125 2:-6.2425 
0.01 1:0.22638281 2:-3.972 
0.01 1:0.24883203 2:-4.1166875 
0.01 1:0.17964063 2:-3.5225 
0.01 1:0.28824609 2:-6.03575 
0.01 1:0.26501562 2:-3.754625 
0.01 1:0.41241016 2:-5.256375 
0.01 1:0.26988086 2:-3.72675 
0.01 1:0.29255078 2:-4.3645 
0.01 1:0.23668945 2:-3.4695625 
0.01 1:0.24077734 2:-4.2138125 
0.01 1:0.28167578 2:-3.8419375 
0.01 1:0.35218555 2:-4.829875 
0.01 1:0.25711914 2:-4.0904375 
0.01 1:0.22389453 2:-3.9030625 
0.01 1:0.1943125 2:-3.39925 
0.01 1:0.19107617 2:-2.8655625 
0.01 1:0.23113867 2:-2.8440625 
0.01 1:0.21091406 2:-3.474375 
0.01 1:0.32567383 2:-4.7173125 
0.01 1:0.32640039 2:-3.9146875 
0.01 1:0.29329687 2:-4.0680625 
0.01 1:0.21836328 2:-3.3104375 
0.01 1:0.28477148 2:-4.239375 
0.01 1:0.22638477 2:-4.1114375 
0.01 1:0.26134961 2:-5.7624375 
0.01 1:0.23856445 2:-4.425875 
0.01 1:0.32193164 2:-3.7441875 
0.01 1:0.24965039 2:-3.8403125 
0.01 1:0.2504668 2:-3.255625 
0.01 1:0.27760547 2:-5.098 
0.01 1:0.35965234 2:-4.6843125 
0.01 1:0.22646094 2:-4.0330625 
0.01 1:0.27056641 2:-3.9689375 
0.01 1:0.22640625 2:-4.277375 
0.01 1:0.43398242 2:-2.614875 
0.01 1:0.35400195 2:-5.0933125 
0.01 1:0.35855859 2:-5.03625 
0.01 1:0.21389453 2:-2.7635625 
0.01 1:0.32303516 2:-4.5411875 
0.01 1:0.27808203 2:-4.4469375 
0.01 1:0.26486133 2:-3.8655625 
0.01 1:0.26174219 2:-3.757875 
0.01 1:0.28044922 2:-4.8344375 
0.01 1:0.23514258 2:-3.5215 
0.01 1:0.28697656 2:-4.9888125 
0.01 1:0.27904687 2:-4.1286875 
0.01 1:0.29430664 2:-3.5336875 
0.01 1:0.25026758 2:-2.719625 
0.01 1:0.28364844 2:-3.9654375 
0.01 1:0.20660742 2:-3.4691875 
0.01 1:0.25994336 2:-3.6735 
0.01 1:0.2743457 2:-3.3559375 
0.01 1:0.16317773 2:-3.7641875 
0.01 1:0.31555273 2:-3.88875 
0.01 1:0.19564844 2:-3.46 
0.01 1:0.26391602 2:-4.205625 
0.01 1:0.2777832 2:-4.090375 
0.01 1:0.33506445 2:-4.2043125 
0.01 1:0.30936133 2:-5.0581875 
0.01 1:0.22355273 2:-2.8776875 
0.01 1:0.37594727 2:-4.9313125 
0.01 1:0.32874023 2:-3.8516875 
0.01 1:0.36907031 2:-3.72325 
0.01 1:0.26124219 2:-4.48975 
0.01 1:0.19799414 2:-3.060125 
0.01 1:0.2531543 2:-3.0548125 
0.01 1:0.35150195 2:-5.98175 
0.01 1:0.21948047 2:-3.96125 
0.01 1:0.13230078 2:-1.8993125 
0.01 1:0.28085547 2:-3.77075 
0.01 1:0.23031836 2:-4.3780625 
0.01 1:0.28638672 2:-4.4854375 
0.01 1:0.11510742 2:-2.670625 
0.01 1:0.22267578 2:-4.330875 
0.01 1:0.20242773 2:-2.74125 
0.01 1:0.18501172 2:-2.7576875 
0.01 1:0.17368945 2:-2.735 
0.01 1:0.34413281 2:-2.960375 
0.01 1:0.26255859 2:-3.6566875 
0.01 1:0.22788477 2:-4.178625 
0.01 1:0.31420117 2:-4.928125 
0.01 1:0.27499609 2:-5.066875 
0.01 1:0.40826563 2:-3.8423125 
0.01 1:0.19295312 2:-3.474625 
0.01 1:0.28526758 2:-3.844625 
0.01 1:0.40497656 2:-2.8505625 
0.01 1:0.2369082 2:-3.1478125 
0.01 1:0.22866016 2:-3.083125 
0.01 1:0.24328906 2:-4.71675 
0.01 1:0.28778516 2:-4.2623125 
0.01 1:0.4515 2:-5.3444375 
0.01 1:0.16077539 2:-2.996375 
0.01 1:0.20717578 2:-4.2123125 
0.01 1:0.2951543 2:-3.1799375 
0.01 1:0.2801875 2:-4.254 
0.01 1:0.3555332 2:-3.0255 
0.01 1:0.2325 2:-3.7203125 
0.01 1:0.30338281 2:-4.609375 
0.01 1:0.25304492 2:-2.577 
0.01 1:0.22142969 2:-3.6686875 
0.01 1:0.23966797 2:-3.09075 
0.01 1:0.19753125 2:-3.98325 
0.01 1:0.39812109 2:-4.224375 
0.01 1:0.27809375 2:-4.651125 
0.01 1:0.22938477 2:-4.071 
0.01 1:0.35793945 2:-3.3578125 
0.01 1:0.39202148 2:-4.8614375 
0.01 1:0.39500586 2:-4.4770625 
0.01 1:0.15762891 2:-2.296 
0.01 1:0.47303906 2:-4.5331875 
0.01 1:0.4128457 2:-5.946 
0.01 1:0.15794727 2:-3.4435 
0.01 1:0.33401758 2:-3.5395 
0.01 1:0.22802539 2:-3.4985 
0.01 1:0.1474375 2:-2.99075 
0.01 1:0.17675195 2:-3.076 
0.01 1:0.14654883 2:-2.5340625 
0.01 1:0.13772852 2:-3.0235 
0.01 1:0.27532422 2:-4.362 
0.01 1:0.23545313 2:-3.917125 
0.01 1:0.33609961 2:-3.7926875 
0.01 1:0.2793418 2:-3.8708125 
0.01 1:0.29333203 2:-5.2593125 
0.01 1:0.24166016 2:-3.9934375 
0.01 1:0.34149805 2:-4.603125 
0.01 1:0.30390039 2:-4.5905625 
0.01 1:0.24054883 2:-3.2778125 
0.01 1:0.26693555 2:-3.574375 
0.01 1:0.27701758 2:-4.0153125 
0.01 1:0.38399414 2:-3.8518125 
0.01 1:0.25398438 2:-4.262 
0.01 1:0.21783594 2:-3.912875 
0.01 1:0.23787109 2:-4.0896875 
0.01 1:0.36859961 2:-5.0895625 
0.01 1:0.4497168 2:-4.510125 
0.01 1:0.31553516 2:-3.8324375 
0.01 1:0.23867578 2:-2.756 
0.01 1:0.26769531 2:-4.6426875 
0.01 1:0.35910352 2:-6.03025 
0.01 1:0.2675293 2:-3.2640625 
0.01 1:0.29719141 2:-4.0711875 
0.01 1:0.30215625 2:-3.0803125 
0.01 1:0.30007813 2:-4.4925625 
0.01 1:0.23556055 2:-4.2160625 
0.01 1:0.26753125 2:-5.033 
0.01 1:0.28121875 2:-5.2725 
0.01 1:0.26738867 2:-4.9895625 
0.01 1:0.15734961 2:-3.1759375 
0.01 1:0.27294336 2:-4.2574375 
0.01 1:0.23801953 2:-3.8355625 
0.01 1:0.20823437 2:-3.4113125 
0.01 1:0.28567383 2:-3.5205 
0.01 1:0.23520312 2:-3.8448125 
0.01 1:0.37324023 2:-3.38975 
0.01 1:0.23008008 2:-3.0500625 
0.01 1:0.23933203 2:-3.2325625 
0.01 1:0.23986133 2:-2.677 
0.01 1:0.25762891 2:-4.3735 
0.01 1:0.21398438 2:-4.000375 
0.01 1:0.2940332 2:-3.7155625 
0.01 1:0.38613477 2:-4.4948125 
0.01 1:0.28774805 2:-4.69975 
0.01 1:0.32254492 2:-3.2290625 
0.01 1:0.33518359 2:-4.321625 
0.01 1:0.29483008 2:-4.1045625 
0.01 1:0.16031445 2:-3.2430625 
0.01 1:0.21741602 2:-3.2058125 
0.01 1:0.34039258 2:-4.108125 
0.01 1:0.36108594 2:-3.895375 
0.01 1:0.27839453 2:-4.3684375 
0.01 1:0.28993164 2:-4.093625 
0.01 1:0.30195117 2:-4.4536875 
0.01 1:0.1918457 2:-3.4600625 
0.01 1:0.32814648 2:-4.10025 
0.01 1:0.40025 2:-3.6605 
0.01 1:0.30610937 2:-4.347125 
0.01 1:0.43192969 2:-5.2444375 
0.01 1:0.21371875 2:-2.9296875 
0.01 1:0.22739063 2:-3.4049375 
0.01 1:0.23747656 2:-3.9735 
0.01 1:0.28536914 2:-4.698875 
0.01 1:0.39936523 2:-5.981625 
0.01 1:0.22978125 2:-3.6273125 
0.01 1:0.24485742 2:-4.1643125 
0.01 1:0.22514648 2:-3.759375 
0.01 1:0.30863281 2:-4.3255 
0.01 1:0.27022461 2:-3.434875 
0.01 1:0.401375 2:-3.7811875 
0.01 1:0.22114844 2:-3.5301875 
0.01 1:0.26944727 2:-3.966375 
0.01 1:0.27979687 2:-4.1613125 
0.01 1:0.41133203 2:-3.5669375 
0.01 1:0.22609766 2:-3.4574375 
0.01 1:0.38608594 2:-4.26 
0.01 1:0.21548828 2:-3.7371875 
0.01 1:0.24112305 2:-2.88025 
0.01 1:0.38733984 2:-6.4479375 
0.01 1:0.15704297 2:-2.8084375 
0.01 1:0.39028711 2:-4.6720625 
0.01 1:0.32716211 2:-4.7526875 
0.01 1:0.28974219 2:-4.1793125 
0.01 1:0.23024805 2:-4.4745 
0.01 1:0.30520703 2:-4.6108125 
0.01 1:0.42158008 2:-4.9910625 
0.01 1:0.39239062 2:-5.2711875 
0.01 1:0.2800918 2:-3.8188125 
0.01 1:0.25068945 2:-3.924375 
0.01 1:0.34806445 2:-5.270625 
0.01 1:0.34435742 2:-4.3355625 
0.01 1:0.26128711 2:-4.145875 
0.01 1:0.19952148 2:-3.337 
0.01 1:0.35097461 2:-5.6483125 
0.01 1:0.22480859 2:-2.255625 
0.01 1:0.24904297 2:-4.2915 
0.01 1:0.41813477 2:-4.671875 
0.01 1:0.27323828 2:-3.409 
0.01 1:0.25547266 2:-3.1161875 
0.01 1:0.2628418 2:-2.9529375 
0.01 1:0.19487109 2:-3.5824375 
0.01 1:0.20196289 2:-3.2884375 
0.01 1:0.19740234 2:-3.2804375 
0.01 1:0.38274609 2:-3.323375 
0.01 1:0.3116875 2:-3.424125 
0.01 1:0.33639844 2:-4.3919375 
0.01 1:0.31269922 2:-4.47825 
0.01 1:0.2705 2:-3.3024375 
0.01 1:0.23283984 2:-3.2834375 
0.01 1:0.35423242 2:-3.837 
0.01 1:0.46185352 2:-4.74475 
0.01 1:0.41732812 2:-3.825625 
0.01 1:0.32971875 2:-3.6864375 
0.01 1:0.33603906 2:-3.70375 
0.01 1:0.2912832 2:-3.3300625 
0.01 1:0.22175977 2:-4.1065625 
0.01 1:0.22531445 2:-4.0313125 
0.01 1:0.29275781 2:-4.2250625 
0.01 1:0.35748437 2:-4.221125 
0.01 1:0.39505078 2:-4.75675 
0.01 1:0.43663086 2:-4.5245 
0.01 1:0.28565039 2:-3.8091875 
0.01 1:0.21031641 2:-3.1408125 
0.01 1:0.21675781 2:-2.693 
0.01 1:0.16562695 2:-2.3655 
0.01 1:0.23851953 2:-4.312625 
0.01 1:0.29956055 2:-4.238375 
0.01 1:0.3421875 2:-3.4231875 
0.01 1:0.3277207 2:-3.7340625 
0.01 1:0.21192773 2:-2.841125 
0.01 1:0.27267773 2:-3.639 
0.01 1:0.25657617 2:-4.3558125 
0.01 1:0.45179883 2:-3.507 
0.01 1:0.29808984 2:-4.7075625 
0.01 1:0.24998242 2:-3.8195625 
0.01 1:0.24925391 2:-4.0321875 
0.01 1:0.29440625 2:-4.072 
0.01 1:0.13779102 2:-2.9471875 
0.01 1:0.14456641 2:-2.916 
0.01 1:0.17409766 2:-3.4580625 
0.01 1:0.14902539 2:-3.169875 
0.01 1:0.1850332 2:-3.9254375 
0.01 1:0.1939082 2:-4.118375 
0.01 1:0.28336523 2:-4.2206875 
0.01 1:0.31816797 2:-3.9778125 
0.01 1:0.21966992 2:-3.706125 
0.01 1:0.21903711 2:-2.3874375 
0.01 1:0.23783594 2:-4.166125 
0.01 1:0.25103711 2:-5.075625 
0.01 1:0.25545898 2:-4.041 
0.01 1:0.29107422 2:-4.6368125 
0.01 1:0.25980859 2:-2.995 
0.01 1:0.32877344 2:-5.270875 
0.01 1:0.25639453 2:-2.3706875 
0.01 1:0.32176758 2:-4.7096875 
0.01 1:0.31054492 2:-4.243875 
0.01 1:0.27562305 2:-3.7109375 
0.01 1:0.19568164 2:-2.5778125 
0.01 1:0.26903906 2:-3.6906875 
0.01 1:0.25396289 2:-4.1254375 
0.01 1:0.32654883 2:-4.3288125 
0.01 1:0.25672656 2:-4.230875 
0.01 1:0.30117773 2:-4.08525 
0.01 1:0.29326953 2:-4.7504375 
0.01 1:0.46342969 2:-3.82325 
0.01 1:0.45973828 2:-3.94875 
0.01 1:0.15348438 2:-2.6431875 
0.01 1:0.23408984 2:-3.4955 
0.01 1:0.20333984 2:-3.7419375 
0.01 1:0.22732031 2:-4.0624375 
0.01 1:0.16210352 2:-2.9211875 
0.01 1:0.15866602 2:-2.873375 
0.01 1:0.26888086 2:-3.809625 
0.01 1:0.28005078 2:-4.63375 
0.01 1:0.2700332 2:-3.06725 
0.01 1:0.21939063 2:-4.302 
0.01 1:0.30597656 2:-4.17525 
0.01 1:0.25593945 2:-4.45375 
0.01 1:0.35893164 2:-4.5775 
0.01 1:0.20554492 2:-3.8453125 
0.01 1:0.26416797 2:-4.048625 
0.01 1:0.29808984 2:-4.03125 
0.01 1:0.203625 2:-4.27825 
0.01 1:0.22920898 2:-4.2850625 
0.01 1:0.26645117 2:-3.9381875 
0.01 1:0.21803711 2:-2.5533125 
0.01 1:0.33880469 2:-3.9513125 
0.01 1:0.20491992 2:-3.25725 
0.01 1:0.30881055 2:-3.461625 
0.01 1:0.41218555 2:-5.1688125 
0.01 1:0.29636133 2:-3.4575 
0.01 1:0.31855273 2:-4.2399375 
0.01 1:0.33329102 2:-5.1855625 
0.01 1:0.29873633 2:-4.0429375 
0.01 1:0.33156641 2:-3.792 
0.01 1:0.31324609 2:-4.533875 
0.01 1:0.31735547 2:-3.8170625 
0.01 1:0.28265625 2:-4.24225 
0.01 1:0.3285918 2:-5.3643125 
0.01 1:0.30987109 2:-4.26675 
0.01 1:0.26213867 2:-2.9094375 
0.01 1:0.42212695 2:-5.196375 
0.01 1:0.24000195 2:-3.0318125 
0.01 1:0.20745508 2:-3.2791875 
0.01 1:0.38552344 2:-4.6464375 
0.01 1:0.2102168 2:-2.0330625 
0.01 1:0.43723828 2:-7.1905 
0.01 1:0.39195898 2:-3.22275 
0.01 1:0.25410547 2:-5.11025 
0.01 1:0.27607813 2:-4.5745625 
0.01 1:0.33188672 2:-4.5985 
0.01 1:0.26721875 2:-3.688 
0.01 1:0.29993359 2:-4.6115625 
0.01 1:0.27491016 2:-3.939 
0.01 1:0.23383984 2:-4.118375 
0.01 1:0.34483398 2:-3.801125 
0.01 1:0.30825977 2:-4.8471875 
0.01 1:0.27938086 2:-4.3648125 
0.01 1:0.21091211 2:-2.560125 
0.01 1:0.30128711 2:-4.9530625 
0.01 1:0.33241016 2:-4.583 
0.01 1:0.40304883 2:-4.162625 
0.01 1:0.394125 2:-5.0828125 
0.01 1:0.36439648 2:-3.8094375 
0.01 1:0.25394531 2:-3.7655 
0.01 1:0.46163086 2:-3.4993125 
0.01 1:0.3889668 2:-4.9733125 
0.01 1:0.23616016 2:-5.0321875 
0.01 1:0.32063867 2:-4.3848125 
0.01 1:0.27465625 2:-4.9960625 
0.01 1:0.35661523 2:-5.604375 
0.01 1:0.19087891 2:-2.5153125 
0.01 1:0.35942578 2:-2.83575 
0.01 1:0.30999805 2:-3.1918125 
0.01 1:0.27514453 2:-3.4434375 
0.01 1:0.30804102 2:-2.93125 
0.01 1:0.365375 2:-2.8435 
0.01 1:0.33832227 2:-4.7073125 
0.01 1:0.37133594 2:-5.0890625 
0.01 1:0.4300293 2:-5.5360625 
0.01 1:0.38016016 2:-4.81675 
0.01 1:0.54072852 2:-4.29325 
0.01 1:0.40919141 2:-6.5406875 
0.01 1:0.44399023 2:-4.749625 
0.01 1:0.48939844 2:-4.644625 
0.01 1:0.29617773 2:-2.55825 
0.01 1:0.25279492 2:-3.1105 
0.01 1:0.39370508 2:-2.9211875 
-0.01 1:0.23100195 2:-2.88675 
-0.01 1:0.28954102 2:-4.644125 
-0.01 1:0.27822461 2:-4.0888125 
-0.01 1:0.28741406 2:-4.3654375 
-0.01 1:0.15986133 2:-3.2423125 
-0.01 1:0.2253418 2:-3.977875 
-0.01 1:0.33435352 2:-3.808875 
-0.01 1:0.26885156 2:-3.674875 
-0.01 1:0.26610156 2:-3.7638125 
-0.01 1:0.42260938 2:-4.761125 
-0.01 1:0.30116602 2:-3.454875 
-0.01 1:0.3134707 2:-3.9344375 
-0.01 1:0.33870313 2:-4.6759375 
-0.01 1:0.36472656 2:-5.27075 
-0.01 1:0.25219727 2:-3.65825 
-0.01 1:0.32887109 2:-4.583875 
-0.01 1:0.25239062 2:-3.4129375 
-0.01 1:0.32277539 2:-3.7033125 
-0.01 1:0.33418555 2:-2.956375 
-0.01 1:0.33725781 2:-3.869 
-0.01 1:0.30006445 2:-4.989 
-0.01 1:0.21068945 2:-3.207875 
-0.01 1:0.21591406 2:-3.963125 
-0.006161357210491305 1:0.15616016 2:-3.1676875 
-0.01 1:0.24953906 2:-2.5758125 
-0.01 1:0.28785156 2:-4.107875 
-0.01 1:0.25545898 2:-3.367125 
-0.01 1:0.33098047 2:-2.8483125 
-0.009925968164361124 1:0.29497461 2:-2.2556875 
-0.01 1:0.36505469 2:-6.3261875 
-0.01 1:0.17110742 2:-3.0755625 
-0.01 1:0.35275195 2:-5.096875 
-0.01 1:0.31775 2:-3.28175 
-0.01 1:0.46189453 2:-4.7460625 
-0.01 1:0.27433398 2:-3.6994375 
-0.01 1:0.22581641 2:-4.0114375 
-0.01 1:0.28737109 2:-4.235875 
-0.002160480669411882 1:0.089693359 2:-1.929 
-0.01 1:0.2907207 2:-4.073875 
-0.01 1:0.29399219 2:-2.9063125 
-0.01 1:0.31945313 2:-3.7214375 
-0.01 1:0.23073633 2:-3.6994375 
-0.01 1:0.22478906 2:-4.116125 
-0.01 1:0.22826562 2:-4.2855625 
-0.01 1:0.17953516 2:-3.5239375 
-0.01 1:0.17929883 2:-3.351875 
-0.01 1:0.29791797 2:-4.2606875 
-0.01 1:0.20078516 2:-3.2855 
-0.01 1:0.3094082 2:-3.7965 
-0.01 1:0.20133789 2:-4.279625 
-0.01 1:0.22071289 2:-3.80325 
-0.01 1:0.26129492 2:-2.958625 
-0.01 1:0.32558398 2:-5.3535625 
-0.01 1:0.33484375 2:-4.3180625 
-0.01 1:0.30759375 2:-4.9255 
-0.01 1:0.23054297 2:-3.08525 
-0.01 1:0.22968555 2:-4.1193125 
-0.01 1:0.35044531 2:-4.216 
-0.01 1:0.27610742 2:-4.125 
-0.01 1:0.30981836 2:-2.747 
-0.01 1:0.3090957 2:-3.85075 
-0.01 1:0.38376562 2:-3.8575625 
-0.01 1:0.26345898 2:-4.1485 
-0.01 1:0.28462109 2:-2.889125 
-0.01 1:0.18641211 2:-3.39775 
-0.000951656506781023 1:0.1092793 2:-0.1195 
-0.01 1:0.2215957 2:-3.9154375 
-0.01 1:0.37047461 2:-4.07375 
-0.01 1:0.35932617 2:-6.08425 
-0.01 1:0.21633789 2:-4.034625 
-0.01 1:0.26691406 2:-3.8111875 
-0.01 1:0.35586719 2:-4.579125 
-0.01 1:0.2401582 2:-4.4295625 
-0.01 1:0.19905273 2:-3.9894375 
-0.01 1:0.1618418 2:-2.8759375 
-0.01 1:0.31731445 2:-4.57025 
-0.01 1:0.28313086 2:-3.6645625 
-0.01 1:0.22491602 2:-2.3835 
-0.01 1:0.30457617 2:-4.800375 
-0.01 1:0.40452344 2:-5.27575 
-0.01 1:0.43799805 2:-3.4333125 
-0.01 1:0.15584961 2:-2.3285625 
-0.01 1:0.30417187 2:-4.292125 
-0.01 1:0.27897461 2:-2.5580625 
-0.01 1:0.42115039 2:-5.187125 
-0.01 1:0.39049805 2:-3.56675 
-0.01 1:0.30953711 2:-4.07725 
-0.01 1:0.4319082 2:-4.9931875 
-0.01 1:0.1968457 2:-2.86375 
-0.009831620611413966 1:0.2080957 2:-1.8283125 
-0.01 1:0.32033984 2:-3.4545625 
-0.01 1:0.28611328 2:-4.2628125 
-0.00271827719238505 1:0.38957813 2:-2.6315 
-0.01 1:0.24329297 2:-3.091 
-0.01 1:0.34983789 2:-4.0816875 
-0.01 1:0.33359375 2:-4.6084375 
-0.01 1:0.27132227 2:-3.500875 
-0.01 1:0.21739453 2:-3.4963125 
-0.01 1:0.37456445 2:-3.8265 
-0.01 1:0.45618164 2:-6.5829375 
-0.01 1:0.22560547 2:-4.3295 
-0.01 1:0.35406641 2:-3.704375 
-0.01 1:0.36295508 2:-4.2379375 
-0.01 1:0.28090234 2:-3.5523125 
-0.01 1:0.3136582 2:-3.195375 
-0.004585505142640904 1:0.12190039 2:-2.296 
-0.01 1:0.20530664 2:-2.8386875 
-0.01 1:0.15331641 2:-1.8380625 
-0.01 1:0.40866211 2:-2.91425 
-0.01 1:0.45111328 2:-4.638 
-0.01 1:0.28788477 2:-4.9349375 
-0.01 1:0.44136914 2:-5.2418125 
-0.01 1:0.3462832 2:-4.65725 
-0.01 1:0.34679102 2:-4.3859375 
-0.01 1:0.34100781 2:-3.860125 
-0.01 1:0.26811719 2:-3.05975 
-0.01 1:0.22442969 2:-3.56525 
-0.01 1:0.21860547 2:-3.1045625 
-0.01 1:0.42146484 2:-5.1829375 
-0.01 1:0.27114648 2:-4.04875 
-0.01 1:0.39208203 2:-3.828125 
-0.01 1:0.32747266 2:-4.7500625 
-0.01 1:0.23667969 2:-3.285 
-0.01 1:0.33836133 2:-3.841 
-0.01 1:0.1909375 2:-3.7321875 
-0.01 1:0.25605273 2:-4.287875 
-0.01 1:0.29849609 2:-4.329875 
-0.01 1:0.24605078 2:-3.83775 
-0.01 1:0.20967578 2:-4.212875 
-0.01 1:0.20708398 2:-4.1880625 
-0.01 1:0.3979668 2:-6.434375 
-0.01 1:0.27411523 2:-3.071875 
-0.0009877959392503538 1:0.34156445 2:-3.5378125 
-0.009984675875491457 1:0.4747207 2:-3.821125 
-0.01 1:0.29941016 2:-4.748375 
-0.01 1:0.226 2:-4.10375 
-0.01 1:0.31982812 2:-5.0585 
-0.01 1:0.37527344 2:-4.52 
-0.01 1:0.27646094 2:-4.252875 
-0.01 1:0.36245508 2:-4.3391875 
-0.01 1:0.29338672 2:-4.0900625 
-0.01 1:0.20520508 2:-3.3331875 
-0.01 1:0.25668555 2:-4.356 
-0.0003453448264933138 1:0.41219531 2:-7.08375 
-0.01 1:0.28256055 2:-4.3718125 
-0.002247583521874976 1:0.21929688 2:-1.9210625 
-0.01 1:0.2723418 2:-3.8523125 
-0.01 1:0.22350586 2:-3.3078125 
-0.01 1:0.20652539 2:-3.2526875 
-0.01 1:0.23394336 2:-2.904 
-0.01 1:0.27834961 2:-3.9286875 
-0.01 1:0.28398047 2:-4.0013125 
-0.01 1:0.28656836 2:-5.2745 
-0.01 1:0.26083203 2:-4.1255 
-0.01 1:0.23815625 2:-3.5234375 
-0.01 1:0.21666797 2:-3.20075 
-0.01 1:0.40971094 2:-4.368375 
-0.01 1:0.27562891 2:-3.6761875 
-0.01 1:0.28095313 2:-3.7199375 
-0.01 1:0.32786328 2:-5.173 
-0.01 1:0.26879883 2:-3.4326875 
-0.01 1:0.28180078 2:-2.841625 
-0.01 1:0.2024707 2:-3.138375 
-0.01 1:0.29261328 2:-3.979625 
-0.01 1:0.19991992 2:-3.5648125 
-0.01 1:0.26975781 2:-5.03375 
-0.01 1:0.29874609 2:-4.2219375 
-0.01 1:0.34758984 2:-4.6420625 
-0.01 1:0.21825586 2:-3.408625 
-0.01 1:0.31465625 2:-3.7899375 
-0.01 1:0.27801758 2:-3.6923125 
-0.01 1:0.32285156 2:-5.26975 
-0.009991262056187914 1:0.52707617 2:-4.68575 
-0.01 1:0.19614844 2:-2.9331875 
-0.01 1:0.20826953 2:-2.767125 
-0.01 1:0.30327539 2:-3.748 
-0.01 1:0.20696875 2:-3.8543125 
-0.01 1:0.25041016 2:-4.2638125 
-0.01 1:0.2369043 2:-4.1780625 
-0.01 1:0.45636133 2:-5.3300625 
-0.01 1:0.27151172 2:-4.3516875 
-0.01 1:0.44980664 2:-3.9481875 
-0.01 1:0.37691602 2:-4.8575625 
-0.01 1:0.32289844 2:-3.9433125 
-0.01 1:0.22086914 2:-3.7381875 
-0.01 1:0.31211133 2:-5.5661875 
-0.01 1:0.26678906 2:-3.29475 
-0.01 1:0.27678516 2:-4.6961875 
-0.01 1:0.30008594 2:-3.7301875 
-0.01 1:0.28879492 2:-3.6378125 
-0.01 1:0.26252539 2:-4.9896875 
-0.01 1:0.30563672 2:-5.15925 
-0.01 1:0.30758008 2:-4.352375 
-0.01 1:0.36126172 2:-3.423875 
-0.01 1:0.3470957 2:-5.6554375 
-0.01 1:0.17573242 2:-3.1003125 
-0.01 1:0.30642578 2:-4.261 
-0.01 1:0.24298438 2:-3.9543125 
-0.01 1:0.25010547 2:-4.1759375 
-0.01 1:0.17714062 2:-2.3680625 
-0.01 1:0.3624082 2:-4.4905625 
-0.01 1:0.21893164 2:-4.2990625 
-0.01 1:0.25761328 2:-2.3586875 
-0.01 1:0.46525391 2:-4.268125 
-0.01 1:0.36124023 2:-3.3540625 
-0.01 1:0.33942383 2:-2.816875 
-0.01 1:0.25864844 2:-4.2033125 
-0.01 1:0.28158398 2:-3.5241875 
-0.01 1:0.38706445 2:-4.7500625 
-0.01 1:0.17988086 2:-3.68975 
-0.01 1:0.16594141 2:-2.926125 
-0.01 1:0.39567969 2:-3.775375 
-0.01 1:0.44560547 2:-3.518625 
-0.01 1:0.18180469 2:-3.0364375 
-0.01 1:0.44405469 2:-4.3299375 
-0.01 1:0.34806836 2:-4.6636875 
-0.01 1:0.31481055 2:-3.7885625 
-0.01 1:0.309625 2:-4.95275 
-0.01 1:0.35265234 2:-4.1054375 
-0.01 1:0.44163867 2:-4.752125 
-0.01 1:0.27122852 2:-3.7273125 
-0.01 1:0.37478516 2:-3.9449375 
-0.01 1:0.22241992 2:-4.2011875 
-0.01 1:0.30768945 2:-2.5954375 
-0.01 1:0.28400586 2:-4.984125 
-0.01 1:0.25196094 2:-4.2266875 
-0.01 1:0.23423242 2:-3.962625 
-0.01 1:0.35986719 2:-5.0923125 
-0.01 1:0.30995703 2:-2.99925 
-0.007136138039506797 1:0.17764258 2:-3.615625 
-0.01 1:0.26663086 2:-3.441375 
-0.002863861960493202 1:0.16984375 2:-3.620125 
-0.01 1:0.15983203 2:-3.2945625 
-0.01 1:0.40891211 2:-5.9803125 
-0.01 1:0.28936719 2:-4.1814375 
-0.01 1:0.23536914 2:-4.077375 
-0.01 1:0.28703906 2:-4.3553125 
-0.001608574750083496 1:0.19193359 2:-1.929375 
-0.01 1:0.32134961 2:-4.70525 
-0.01 1:0.23297852 2:-3.4668125 
-1.734723475976807e-18 1:0.29096289 2:-5.5216875 
-0.01 1:0.23552734 2:-4.1799375 
-0.01 1:0.22076758 2:-3.50925 
-0.01 1:0.22887305 2:-3.4574375 
-0.01 1:0.2688418 2:-2.9066875 
-0.01 1:0.29217773 2:-3.0855625 
-0.01 1:0.26034961 2:-2.928375 
-0.01 1:0.3802207 2:-3.17925 
-0.002330625232082987 1:0.3885957 2:-2.639375 
-0.01 1:0.32786133 2:-4.434 
-0.01 1:0.32075781 2:-5.06075 
-0.01 1:0.23379883 2:-4.032375 
-0.01 1:0.21798437 2:-2.28275 
-0.01 1:0.32014844 2:-4.688375 
-0.01 1:0.17863086 2:-3.4599375 
-0.01 1:0.22368359 2:-2.012125 
-0.001054542824603192 1:0.34167578 2:-2.6451875 
-0.01 1:0.18257227 2:-3.9139375 
-0.003918340966977045 1:0.22722266 2:-2.2946875 
-0.01 1:0.37977539 2:-2.7740625 
-0.01 1:0.30072461 2:-5.2973125 
-0.01 1:0.23161719 2:-3.56975 
-0.01 1:0.2713125 2:-4.0443125 
-0.01 1:0.23154102 2:-3.049125 
-0.01 1:0.18212695 2:-3.46125 
-0.01 1:0.22426367 2:-3.909375 
-0.01 1:0.26896484 2:-3.7311875 
-0.01 1:0.19893359 2:-3.0593125 
-0.01 1:0.30756836 2:-5.313125 
-0.01 1:0.20227148 2:-3.4111875 
-0.01 1:0.30873047 2:-4.7131875 
-0.01 1:0.35726367 2:-4.68325 
-0.009976913915673338 1:0.14253711 2:-2.94925 
-0.01 1:0.28427539 2:-6.015875 
-0.01 1:0.29695703 2:-4.6118125 
-0.01 1:0.38269336 2:-5.2319375 
-0.01 1:0.24494141 2:-4.1144375 
-0.01 1:0.20746289 2:-3.017875 
-0.01 1:0.25738867 2:-4.4885 
-0.01 1:0.38738477 2:-2.848625 
-0.01 1:0.36968945 2:-4.4983125 
-0.01 1:0.29422656 2:-4.070625 
-0.01 1:0.26341406 2:-4.861375 
-0.002517648772573593 1:0.24992773 2:-4.1205 
-0.01 1:0.26744336 2:-2.9053125 
-0.01 1:0.21965625 2:-4.0564375 
-0.01 1:0.23808984 2:-4.31375 
-0.01 1:0.37638477 2:-4.545875 
-0.01 1:0.1399082 2:-3.0259375 
-0.01 1:0.21351367 2:-4.0935625 
-0.01 1:0.14845312 2:-2.919125 
-0.01 1:0.25605469 2:-4.37625 
-0.003975121993927108 1:0.14812891 2:-1.9295625 
-0.01 1:0.22683203 2:-4.1194375 
-0.01 1:0.20912305 2:-3.4735625 
-0.003838642789508695 1:0.14449023 2:-3.170375 
-0.01 1:0.35320508 2:-2.8369375 
-0.003673208560710682 1:0.18521094 2:-4.1219375 
-0.01 1:0.24000977 2:-3.822125 
-0.01 1:0.24218555 2:-4.0425625 
-0.01 1:0.25950391 2:-5.104375 
-0.01 1:0.24095313 2:-4.219625 
-0.01 1:0.24683398 2:-3.15875 
-0.01 1:0.22788867 2:-3.7604375 
-0.01 1:0.27886328 2:-2.8150625 
-0.01 1:0.33678711 2:-3.9640625 
-0.01 1:0.25628516 2:-2.2579375 
-0.01 1:0.24440234 2:-2.9349375 
-0.01 1:0.28953516 2:-4.65275 
-0.01 1:0.31485156 2:-4.1795 
-0.01 1:0.29781641 2:-4.276625 
-0.01 1:0.36661328 2:-6.022 
-0.004394091678012852 1:0.32645508 2:-5.77125 
-0.01 1:0.28153906 2:-5.5325 
-0.01 1:0.41635938 2:-3.8374375 
-0.01 1:0.27689648 2:-4.442125 
-0.01 1:0.32344922 2:-4.7141875 
-0.01 1:0.41641016 2:-4.679 
-0.01 1:0.19649219 2:-3.337625 
-0.01 1:0.34091016 2:-6.29425 
-0.01 1:0.28838281 2:-3.5944375 
-0.01 1:0.2568418 2:-4.657 
-0.01 1:0.33544727 2:-5.1939375 
-0.01 1:0.31161719 2:-4.9703125 
-0.01 1:0.36937305 2:-4.2165 
-0.01 1:0.24901172 2:-4.034375 
-0.01 1:0.43727148 2:-4.1584375 
-0.01 1:0.30439258 2:-3.55325 
-0.01 1:0.28589844 2:-4.4878125 
-0.01 1:0.28432422 2:-3.0955625 
-0.01 1:0.37286523 2:-4.83775 
-0.01 1:0.22610547 2:-2.844625 
-0.0001652633355928738 1:0.40441406 2:-2.705 
-0.01 1:0.26091406 2:-2.994125 
-0.01 1:0.34912305 2:-3.1158125 
-0.01 1:0.169 2:-3.4413125 
-0.01 1:0.21907031 2:-3.1823125 
-0.01 1:0.33449023 2:-3.8235625 
-0.01 1:0.3274082 2:-4.5879375 
-0.01 1:0.2802793 2:-4.02175 
-0.01 1:0.21219141 2:-4.072125 
-0.01 1:0.19563672 2:-3.308 
-0.01 1:0.20934766 2:-2.263375 
-0.01 1:0.20646875 2:-2.1166875 
-0.01 1:0.23383398 2:-2.8864375 
-0.01 1:0.27546094 2:-3.8045625 
-0.01 1:0.20718359 2:-3.8455625 
-0.01 1:0.21239258 2:-2.7041875 
-0.01 1:0.29257812 2:-4.753 
-0.01 1:0.40830859 2:-5.9036875 
-0.007507523784054531 1:0.249375 2:-5.0311875 
-0.01 1:0.2622793 2:-3.6535625 
-0.01 1:0.22554688 2:-3.4891875 
-0.01 1:0.20608203 2:-3.458125 
-0.01 1:0.33741797 2:-4.1974375 
-0.01 1:0.35174805 2:-4.259375 
-0.01 1:0.39990039 2:-5.5281875 
-0.01 1:0.2137168 2:-3.3163125 
-0.01 1:0.27606055 2:-4.38525 
-0.01 1:0.4074082 2:-3.9875 
-0.002492476215945469 1:0.32179492 2:-5.032375 
-0.01 1:0.2464082 2:-3.9310625 
-0.01 1:0.29987109 2:-4.4885625 
-0.01 1:0.29425977 2:-3.531625 
-0.01 1:0.19515234 2:-3.8171875 
-0.01 1:0.18084375 2:-3.0259375 
-0.01 1:0.27235742 2:-4.1454375 
-0.01 1:0.33297852 2:-3.5381875 
-0.01 1:0.45997461 2:-6.2921875 
-0.01 1:0.23192383 2:-3.22575 
-0.01 1:0.33852344 2:-3.2181875 
-0.01 1:0.22622461 2:-3.44825 
-0.01 1:0.27026563 2:-4.021375 
-0.01 1:0.21264844 2:-2.9796875 
-0.008938827813778244 1:0.4660332 2:-3.523875 
-0.01 1:0.20431445 2:-3.215375 
-0.01 1:0.1944375 2:-2.5219375 
-0.01 1:0.17056445 2:-2.7794375 
-0.01 1:0.35210742 2:-4.3413125 
-0.01 1:0.26938086 2:-3.7621875 
-0.01 1:0.27007617 2:-3.8908125 
-0.01 1:0.20986914 2:-3.282625 
-0.01 1:0.28777148 2:-3.8546875 
-0.01 1:0.18713672 2:-3.1725 
-0.01 1:0.2102832 2:-4.280125 
-0.01 1:0.27471094 2:-5.619875 
-0.01 1:0.45030664 2:-4.5109375 
-0.008207553388682532 1:0.45623047 2:-2.8043125 
-0.01 1:0.29270508 2:-5.25575 
-0.01 1:0.31149023 2:-4.888 
-0.01 1:0.22776953 2:-3.9111875 
-0.01 1:0.27932617 2:-4.1611875 
-0.01 1:0.30602148 2:-4.477625 
-0.01 1:0.19169922 2:-3.3955 
-0.01 1:0.27074414 2:-3.84525 
-0.01 1:0.4214707 2:-4.5469375 
-0.01 1:0.37240234 2:-3.902125 
-0.01 1:0.24682813 2:-3.020875 
-0.01 1:0.3155957 2:-4.250125 
-0.01 1:0.32173438 2:-3.9305 
-0.01 1:0.15958984 2:-2.8121875 
-0.01 1:0.1980957 2:-3.68 
-0.01 1:0.3218125 2:-4.0596875 
-0.01 1:0.28618945 2:-3.7015625 
-0.01 1:0.3360625 2:-5.0768125 
-0.01 1:0.19877344 2:-3.577625 
-0.01 1:0.23155859 2:-4.342375 
-0.01 1:0.39452734 2:-5.0855 
-0.01 1:0.27617578 2:-2.6374375 
-0.01 1:0.2544375 2:-4.094875 
-0.01 1:0.23667187 2:-4.167375 
-0.01 1:0.14473438 2:-2.6431875 
-0.01 1:0.22468359 2:-4.2766875 
-0.01 1:0.22306445 2:-2.1304375 
-0.01 1:0.26711914 2:-3.2993125 
-0.01 1:0.27263477 2:-4.8355625 
-0.003493089130381505 1:0.25172266 2:-5.077125 
-0.01 1:0.38253711 2:-4.640375 
-0.01 1:0.23004102 2:-4.380125 
-0.01 1:0.28783594 2:-4.0601875 
-0.01 1:0.38785547 2:-6.0408125 
-0.01 1:0.38444141 2:-4.484 
-0.01 1:0.31301172 2:-2.7151875 
-0.01 1:0.16494336 2:-2.7305625 
-0.01 1:0.16387695 2:-3.2295625 
-0.01 1:0.35810352 2:-5.0428125 
-0.01 1:0.25073828 2:-3.981875 
-0.01 1:0.33210742 2:-3.9484375 
-9.833091980730771e-05 1:0.16224609 2:-2.8259375 
-0.01 1:0.24639453 2:-3.246 
-0.01 1:0.2477793 2:-3.9765 
-0.01 1:0.37616406 2:-3.7056875 
-0.01 1:0.30995313 2:-4.216375 
-0.01 1:0.26407422 2:-4.263 
-0.01 1:0.15169531 2:-2.536625 
-0.01 1:0.24498437 2:-4.217875 
-0.01 1:0.32529102 2:-3.8465 
-0.01 1:0.23816016 2:-3.161375 
-0.01 1:0.31316992 2:-2.777625 
-0.01 1:0.29016016 2:-4.3633125 
-0.01 1:0.23755859 2:-3.473125 
-0.01 1:0.18811523 2:-2.5400625 
-0.01 1:0.31565234 2:-4.6780625 
-0.01 1:0.24638867 2:-2.7195625 
-0.01 1:0.34374219 2:-3.757125 
-0.01 1:0.32339258 2:-4.312625 
-0.01 1:0.32582227 2:-3.9795 
-0.01 1:0.22908008 2:-3.718375 
-0.01 1:0.15488867 2:-2.5001875 
-0.01 1:0.34261133 2:-3.0275 
-0.01 1:0.24733008 2:-3.39625 
-0.01 1:0.22943555 2:-3.31275 
-0.01 1:0.22531836 2:-4.4789375 
-0.01 1:0.22170898 2:-2.994125 
-0.01 1:0.3418125 2:-4.4185625 
-0.01 1:0.30327344 2:-3.6006875 
-0.01 1:0.3072793 2:-4.848875 
-0.005605908321987148 1:0.26517773 2:-5.7705 
-0.01 1:0.38744727 2:-3.2230625 
-0.01 1:0.21975195 2:-2.9699375 
-0.01 1:0.27590625 2:-3.695875 
-0.01 1:0.30116211 2:-5.28175 
-0.01 1:0.24583008 2:-2.7515625 
-0.01 1:0.26628711 2:-3.311375 
-0.01 1:0.2614707 2:-3.76825 
-0.01 1:0.39010742 2:-5.8763125 
-0.01 1:0.20956836 2:-2.620875 
-0.01 1:0.18112891 2:-2.400875 
-0.01 1:0.20821484 2:-2.039 
-0.01 1:0.36935156 2:-4.7301875 
-0.01 1:0.37672852 2:-2.83925 
-0.01 1:0.21799805 2:-3.0160625 
-0.01 1:0.259125 2:-3.7574375 
-0.01 1:0.22000586 2:-2.8480625 
-0.01 1:0.369375 2:-4.5480625 
-0.01 1:0.28462305 2:-4.135875 
-0.006978002854539443 1:0.12900781 2:-1.6446875 
-0.01 1:0.2731875 2:-5.0144375 
-0.01 1:0.3078125 2:-3.290375 
-0.01 1:0.38302539 2:-3.317625 
-0.01 1:0.28383789 2:-4.0355 
-0.01 1:0.29079883 2:-4.241625 
-0.01 1:0.21849805 2:-2.5488125 
-0.01 1:0.24029297 2:-3.9731875 
-0.003809142666715724 1:0.20357812 2:-4.131875 
-0.01 1:0.19626367 2:-2.565125 
-0.001694115691510161 1:0.38924414 2:-2.8080625 
-0.01 1:0.22350977 2:-3.162875 
-0.01 1:0.3019375 2:-5.195875 
-0.01 1:0.30941602 2:-4.469125 
-0.01 1:0.32103516 2:-4.3830625 
-0.01 1:0.36638086 2:-3.2388125 
-0.01 1:0.18352148 2:-2.7554375 
-0.01 1:0.32193359 2:-4.249 
-0.01 1:0.30044727 2:-3.9584375 
-0.01 1:0.17932031 2:-2.390125 
-0.01 1:0.31373047 2:-4.525875 
-0.01 1:0.19892578 2:-2.933375 
-0.01 1:0.35803711 2:-4.82725 
-0.01 1:0.27845508 2:-4.615 
-0.01 1:0.3175 2:-5.6600625 
-0.01 1:0.23071094 2:-3.8465 
-0.01 1:0.37115234 2:-5.0883125 
-0.01 1:0.37445117 2:-4.3005625 
-0.01 1:0.21699023 2:-2.6715 
-0.01 1:0.29777344 2:-3.685375 
-0.01 1:0.39331055 2:-4.977875 
-0.01 1:0.434875 2:-4.560125 
-0.01 1:0.30438281 2:-3.43725 
-0.01 1:0.2158125 2:-3.4626875 
-0.01 1:0.32717578 2:-3.737625 
-0.01 1:0.42033008 2:-5.502875 
-0.01 1:0.40345508 2:-5.1710625 
-0.01 1:0.29119141 2:-3.1743125 
-0.01 1:0.29278125 2:-3.8043125 
-0.01 1:0.22444141 2:-3.7030625 
-0.01 1:0.29499023 2:-2.921 
-0.01 1:0.15764063 2:-3.175875 
-0.01 1:0.32199023 2:-4.8565 
-0.01 1:0.30561719 2:-4.2335 
-0.01 1:0.28290039 2:-3.3270625 
-0.01 1:0.27213672 2:-4.651375 
-0.01 1:0.2375957 2:-3.8353125 
-0.01 1:0.23042383 2:-4.1130625 
-0.01 1:0.21876367 2:-3.14925 
-0.01 1:0.28355469 2:-4.5768125 
-0.01 1:0.26118359 2:-3.87125 
-0.01 1:0.32211914 2:-4.326625 
-0.01 1:0.33679883 2:-3.4530625 
-0.01 1:0.27748437 2:-4.232625 
-0.01 1:0.31102734 2:-4.2288125 
-0.01 1:0.39310937 2:-3.974875 
-0.01 1:0.29471094 2:-3.955125 
-0.01 1:0.39480273 2:-5.77025 
-0.01 1:0.31074805 2:-4.0411875 
-0.01 1:0.18567578 2:-3.196375 
-0.01 1:0.39713867 2:-5.9639375 
-0.01 1:0.27491992 2:-5.1063125 
-0.003789626102473621 1:0.45823437 2:-2.62375 
-0.01 1:0.23423633 2:-3.7383125 
-0.01 1:0.23672852 2:-2.6773125 
-0.01 1:0.35592578 2:-5.0685625 
-0.01 1:0.47109961 2:-4.566125 
-0.01 1:0.37928906 2:-3.4013125 
-0.01 1:0.39456641 2:-5.40375 
-0.01 1:0.34269922 2:-4.25825 
-0.01 1:0.24919336 2:-3.9710625 
-0.01 1:0.26841797 2:-5.0613125 
-0.01 1:0.29331641 2:-4.4920625 
-0.01 1:0.38183594 2:-4.813125 
-0.01 1:0.22305664 2:-3.5366875 
-0.01 1:0.20789063 2:-3.1371875 
-0.01 1:0.20785547 2:-3.4725 
-0.009887571654531975 1:0.12346875 2:-2.673375 
-0.01 1:0.30524609 2:-3.7535625 
-0.01 1:0.23178906 2:-3.548875 
-0.01 1:0.20570898 2:-3.3461875 
-0.01 1:0.40251367 2:-3.5608125 
-0.01 1:0.23525781 2:-3.2718125 
-0.01 1:0.18959375 2:-3.477625 
-0.01 1:0.22897461 2:-3.203625 
-0.009997288743018489 1:0.35628711 2:-6.539625 
-0.01 1:0.23275 2:-3.6356875 
-0.01 1:0.2403418 2:-4.1645625 
-0.01 1:0.30280664 2:-4.5919375 
-0.01 1:0.27839258 2:-5.0685 
-0.01 1:0.27208203 2:-3.9379375 
-0.01 1:0.25319922 2:-3.517625 
-0.01 1:0.27366016 2:-3.7085625 
-0.01 1:0.27574414 2:-3.3558125 
-0.009972675171977313 1:0.56246484 2:-4.2535625 
-0.01 1:0.30757422 2:-4.07725 
-0.01 1:0.37178516 2:-3.7303125 
-0.01 1:0.26129297 2:-3.4439375 
-0.01 1:0.19077344 2:-3.2408125 
-0.01 1:0.16608594 2:-3.4151875 
-0.01 1:0.23701172 2:-3.993 
-0.01 1:0.30825586 2:-3.884125 
-0.01 1:0.37046094 2:-5.16625 
-0.01 1:0.3006875 2:-3.8331875 
-0.01 1:0.31645703 2:-4.6393125 
-0.01 1:0.21078516 2:-3.50975 
-0.01 1:0.22916406 2:-3.683875 
-0.01 1:0.32823438 2:-4.709125 
-0.01 1:0.22273828 2:-3.67025 
-0.01 1:0.21485938 2:-2.81125 
-0.01 1:0.23586719 2:-4.0855 
-0.01 1:0.16208008 2:-2.296625 
-0.01 1:0.38394531 2:-3.999875 
-0.01 1:0.27436328 2:-4.999875 
-0.01 1:0.20381836 2:-2.5619375 
-0.01 1:0.23898828 2:-4.7155 
-0.01 1:0.28910742 2:-3.9309375 
-0.01 1:0.25813086 2:-3.672125 
-0.01 1:0.31997461 2:-4.7644375 
-0.01 1:0.19322656 2:-3.948625 
-0.01 1:0.32114258 2:-3.879125 
-0.01 1:0.25541797 2:-3.2610625 
-0.01 1:0.24795898 2:-3.6968125 
-0.01 1:0.33002344 2:-4.5489375 
-0.01 1:0.32984766 2:-4.237625 
-0.01 1:0.26300977 2:-3.754 
-0.01 1:0.25852734 2:-4.3065 
-0.01 1:0.24790039 2:-4.9433125 
-0.01 1:0.25445313 2:-3.2235625 
-0.01 1:0.23964258 2:-3.02975 
-0.01 1:0.27541992 2:-5.0645625 
-0.01 1:0.41696289 2:-3.655625 
-0.01 1:0.23587695 2:-3.104625 
-0.01 1:0.20524414 2:-2.742625 
-0.01 1:0.29099414 2:-4.63425 
-0.01 1:0.249375 2:-4.0724375 
-0.01 1:0.27020117 2:-4.633875 
-0.01 1:0.24193164 2:-3.122625 
-0.01 1:0.40263672 2:-5.2531875 
-0.01 1:0.26674219 2:-3.784625 
-0.01 1:0.27708008 2:-3.813875 
-0.01 1:0.24304883 2:-3.1459375 
-0.01 1:0.22953125 2:-4.0635 
-0.001178419566136228 1:0.21907617 2:-2.309 
-0.01 1:0.38547461 2:-3.8594375 
-0.01 1:0.27764062 2:-4.09275 
-0.01 1:0.26446094 2:-4.773 
-0.01 1:0.30507812 2:-4.618125 
-0.01 1:0.19146484 2:-3.2836875 
-0.01 1:0.29271875 2:-4.6921875 
-0.01 1:0.21776758 2:-3.8276875 
-0.01 1:0.32821484 2:-3.377375 
-0.01 1:0.293625 2:-4.611625 
-0.01 1:0.25783594 2:-3.97125 
-0.01 1:0.27304883 2:-2.7235625 
-0.01 1:0.37297266 2:-4.1598125 
-0.01 1:0.39016797 2:-4.9833125 
-0.01 1:0.37181836 2:-4.92175 
-0.01 1:0.21027539 2:-4.002 
-0.01 1:0.3381582 2:-5.9806875 
-0.01 1:0.33358203 2:-3.0415 
-0.01 1:0.26001172 2:-3.86525 
-0.01 1:0.18873437 2:-3.9215625 
-0.01 1:0.23742969 2:-4.69325 
-0.01 1:0.27386914 2:-3.9796875 
-0.01 1:0.31573633 2:-3.224125 
-0.00273206155570355 1:0.17296875 2:-1.639 
-0.01 1:0.14437891 2:-2.991375 
-0.01 1:0.23333008 2:-3.917375 
-0.01 1:0.41373437 2:-5.745875 
-0.01 1:0.27879492 2:-3.8149375 
-0.008490159541295606 1:0.41708984 2:-7.1114375 
-0.01 1:0.41676953 2:-3.57375 
-0.01 1:0.22242773 2:-3.79525 
-0.001285553673689182 1:0.51585742 2:-6.6545 
-0.01 1:0.33559961 2:-4.079875 
-0.01 1:0.32889453 2:-3.90775 
-0.01 1:0.40685938 2:-5.1049375 
-0.01 1:0.16456836 2:-2.996875 
-0.01 1:0.44803711 2:-4.523 
-0.01 1:0.43280273 2:-3.691 
-0.01 1:0.12784375 2:-2.3675 
-0.01 1:0.23111133 2:-4.5469375 
-0.01 1:0.2085332 2:-3.418375 
-0.01 1:0.36582813 2:-4.68175 
-0.01 1:0.20115625 2:-3.74225 
-0.01 1:0.41551562 2:-4.2259375 
-0.01 1:0.22116602 2:-4.0903125 
-0.00999025979762435 1:0.16253516 2:-3.7593125 
-0.01 1:0.32077539 2:-4.60375 
-0.01 1:0.28653711 2:-3.8649375 
-0.01 1:0.26757422 2:-3.5734375 
-0.01 1:0.29028516 2:-4.75325 
-0.01 1:0.25547266 2:-4.4555 
-0.01 1:0.21085156 2:-3.8074375 
-0.01 1:0.29617187 2:-4.460625 
-0.01 1:0.3371582 2:-3.8149375 
-0.01 1:0.25717578 2:-3.669125 
-0.01 1:0.35023242 2:-5.6015 
-0.01 1:0.28097656 2:-4.3633125 
-0.01 1:0.14599023 2:-2.587 
-0.01 1:0.2689082 2:-3.412375 
-0.01 1:0.30793164 2:-4.2683125 
-0.006506910869618495 1:0.27296094 2:-5.079125 
-0.01 1:0.14630273 2:-2.197625 
-0.01 1:0.25189063 2:-3.2545 
