svm_type c_svc
kernel_type polynomial
degree 2
gamma 1
coef0 1
nr_class 2
total_sv 1119
rho 0.999519
label 1 -1
nr_sv 556 563
SV
0.01 1:0.44413086 2:-5.4968125 
0.01 1:0.21798242 2:-3.359625 
0.01 1:0.304 2:-4.2009375 
0.01 1:0.33870313 2:-4.6759375 
0.01 1:0.36472656 2:-5.27075 
0.01 1:0.32936523 2:-4.9815 
0.01 1:0.19998828 2:-4.3165625 
0.01 1:0.25895117 2:-4.7979375 
0.01 1:0.24378906 2:-4.7823125 
0.01 1:0.29211523 2:-5.5613125 
0.01 1:0.18447266 2:-3.474625 
0.01 1:0.20691602 2:-3.74675 
0.01 1:0.20191211 2:-3.6116875 
0.01 1:0.4447832 2:-5.192375 
0.01 1:0.22581641 2:-4.0114375 
0.01 1:0.30793359 2:-6.8123125 
0.01 1:0.24226758 2:-5.4451875 
0.01 1:0.33945508 2:-5.1548125 
0.01 1:0.34478125 2:-5.5698125 
0.01 1:0.35733008 2:-5.43475 
0.01 1:0.23699023 2:-4.6709375 
0.01 1:0.31241797 2:-5.316625 
0.01 1:0.22704492 2:-4.5253125 
0.01 1:0.16456055 2:-2.7685625 
0.01 1:0.35155469 2:-4.9226875 
0.01 1:0.22054102 2:-4.6275625 
0.01 1:0.20003516 2:-3.9598125 
0.01 1:0.27249219 2:-4.408625 
0.01 1:0.20799219 2:-4.0975625 
0.01 1:0.35479102 2:-5.16575 
0.01 1:0.27346484 2:-5.3194375 
0.01 1:0.1849043 2:-3.6331875 
0.01 1:0.14020508 2:-2.8765 
0.01 1:0.35932617 2:-6.08425 
0.01 1:0.33897266 2:-5.44625 
0.01 1:0.26691406 2:-3.8111875 
0.01 1:0.32707617 2:-5.3795 
0.01 1:0.36448047 2:-5.8969375 
0.01 1:0.4319082 2:-4.9931875 
0.01 1:0.34739258 2:-4.986 
0.01 1:0.28666016 2:-4.5425625 
0.01 1:0.21938672 2:-3.08825 
0.01 1:0.28221484 2:-5.066125 
0.01 1:0.33359375 2:-4.6084375 
0.01 1:0.24210937 2:-3.6994375 
0.01 1:0.39511133 2:-5.375 
0.01 1:0.30248438 2:-5.774375 
0.01 1:0.18441602 2:-3.94975 
0.01 1:0.19592383 2:-3.6909375 
0.01 1:0.26565625 2:-4.6618125 
0.01 1:0.35425195 2:-5.4400625 
0.01 1:0.34451172 2:-5.8075 
0.01 1:0.35028711 2:-6.351625 
0.01 1:0.30993359 2:-5.042375 
0.01 1:0.52801953 2:-5.481 
0.01 1:0.34674805 2:-4.9859375 
0.01 1:0.31473047 2:-4.4974375 
0.01 1:0.16533203 2:-3.7995 
0.01 1:0.37476758 2:-6.0885625 
0.01 1:0.22929492 2:-4.1615 
0.01 1:0.22442969 2:-3.56525 
0.01 1:0.33296875 2:-5.5289375 
0.01 1:0.27114648 2:-4.04875 
0.01 1:0.21854297 2:-4.6409375 
0.01 1:0.37276172 2:-6.2431875 
0.01 1:0.21350781 2:-4.545 
0.01 1:0.36864453 2:-5.4316875 
0.01 1:0.35889258 2:-6.5419375 
0.01 1:0.43250195 2:-4.395375 
0.01 1:0.37187109 2:-5.5975 
0.01 1:0.31933203 2:-4.76475 
0.01 1:0.29941016 2:-4.748375 
0.01 1:0.31458398 2:-6.05 
0.01 1:0.1780957 2:-3.2313125 
0.01 1:0.35349219 2:-6.191 
0.01 1:0.30542383 2:-4.773875 
0.01 1:0.25544727 2:-3.8409375 
0.01 1:0.22999023 2:-4.06075 
0.01 1:0.21479102 2:-3.233 
0.01 1:0.2909043 2:-5.123375 
0.01 1:0.25061328 2:-4.3894375 
0.01 1:0.20934961 2:-3.377625 
0.01 1:0.2040625 2:-3.052875 
0.01 1:0.39625195 2:-5.7065625 
0.01 1:0.34291602 2:-5.659125 
0.01 1:0.37918555 2:-4.8870625 
0.01 1:0.27834961 2:-3.9286875 
0.01 1:0.48716016 2:-4.86025 
0.01 1:0.33233008 2:-5.5936875 
0.01 1:0.40561133 2:-5.3205 
0.01 1:0.34549414 2:-5.2533125 
0.01 1:0.15241797 2:-2.6614375 
0.01 1:0.24530469 2:-4.861 
0.01 1:0.26879883 2:-3.4326875 
0.01 1:0.19991992 2:-3.5648125 
0.01 1:0.32481836 2:-6.3535 
0.01 1:0.24904688 2:-4.5860625 
0.01 1:0.26508984 2:-4.06 
0.01 1:0.27323438 2:-4.118625 
0.01 1:0.25041016 2:-4.2638125 
0.01 1:0.2369043 2:-4.1780625 
0.01 1:0.27151172 2:-4.3516875 
0.01 1:0.37691602 2:-4.8575625 
0.01 1:0.34958789 2:-6.155125 
0.01 1:0.27255078 2:-4.94375 
0.01 1:0.30758008 2:-4.352375 
0.01 1:0.2037168 2:-4.164625 
0.01 1:0.17627734 2:-3.7154375 
0.01 1:0.20374805 2:-4.2816875 
0.01 1:0.3470957 2:-5.6554375 
0.01 1:0.28688477 2:-4.852125 
0.01 1:0.29443555 2:-4.777625 
0.01 1:0.15448633 2:-3.7628125 
0.01 1:0.38319141 2:-5.44775 
0.01 1:0.25864844 2:-4.2033125 
0.01 1:0.15593555 2:-3.0060625 
0.01 1:0.2882832 2:-4.770875 
0.01 1:0.24598828 2:-4.489875 
0.01 1:0.18180469 2:-3.0364375 
0.01 1:0.38185937 2:-5.7153125 
0.01 1:0.30476953 2:-5.2653125 
0.01 1:0.32344922 2:-5.2779375 
0.01 1:0.1738125 2:-3.8840625 
0.01 1:0.18081641 2:-3.34325 
0.01 1:0.28462695 2:-4.688625 
0.01 1:0.36860742 2:-5.2060625 
0.01 1:0.31378711 2:-4.869 
0.01 1:0.2720625 2:-5.821875 
0.01 1:0.37411719 2:-4.8251875 
0.01 1:0.35986719 2:-5.0923125 
0.01 1:0.31410352 2:-5.3563125 
0.01 1:0.37716016 2:-5.5358125 
0.01 1:0.38608203 2:-5.83775 
0.01 1:0.17764258 2:-3.615625 
0.01 1:0.23594531 2:-4.2834375 
0.01 1:0.23297852 2:-3.4668125 
0.01 1:0.33986133 2:-5.56675 
0.01 1:0.34370508 2:-6.6133125 
0.01 1:0.28977539 2:-5.54325 
0.01 1:0.18545703 2:-3.2850625 
0.01 1:0.26604883 2:-5.25375 
0.01 1:0.31289453 2:-4.549 
0.01 1:0.2479082 2:-4.1050625 
0.01 1:0.27169336 2:-5.148125 
0.01 1:0.40190039 2:-4.0061875 
0.01 1:0.41519336 2:-4.189625 
0.01 1:0.32014844 2:-4.688375 
0.01 1:0.18764453 2:-3.5874375 
0.01 1:0.30072461 2:-5.2973125 
0.01 1:0.24657422 2:-5.283375 
0.01 1:0.20479297 2:-4.5269375 
0.01 1:0.31609375 2:-4.556375 
0.01 1:0.23667383 2:-3.7280625 
0.01 1:0.2713125 2:-4.0443125 
0.01 1:0.38089258 2:-4.9790625 
0.01 1:0.3780293 2:-5.445875 
0.01 1:0.22146875 2:-4.413 
0.01 1:0.15563281 2:-3.469125 
0.01 1:0.39191602 2:-5.2935 
0.01 1:0.37720898 2:-5.5465625 
0.01 1:0.28387695 2:-4.8706875 
0.01 1:0.284875 2:-5.496625 
0.01 1:0.15659961 2:-3.070875 
0.01 1:0.33624023 2:-6.860125 
0.01 1:0.24494141 2:-4.1144375 
0.01 1:0.2751875 2:-4.6055625 
0.01 1:0.25738867 2:-4.4885 
0.01 1:0.26739062 2:-5.0718125 
0.01 1:0.31599023 2:-4.90325 
0.01 1:0.28314844 2:-4.734 
0.01 1:0.31408984 2:-5.2239375 
0.01 1:0.34810156 2:-5.0919375 
0.01 1:0.22113672 2:-3.8909375 
0.01 1:0.24269336 2:-4.49325 
0.01 1:0.39140039 2:-5.2985625 
0.01 1:0.40123242 2:-5.4555625 
0.01 1:0.33154688 2:-4.8363125 
0.01 1:0.35174023 2:-4.682875 
0.01 1:0.21965625 2:-4.0564375 
0.01 1:0.30915625 2:-4.5255 
0.01 1:0.37858984 2:-6.0868125 
0.01 1:0.25016406 2:-5.0289375 
0.01 1:0.21081055 2:-3.7844375 
0.01 1:0.15663281 2:-3.2999375 
0.01 1:0.28595703 2:-5.3775625 
0.01 1:0.2179043 2:-4.7313125 
0.01 1:0.19526562 2:-3.679375 
0.01 1:0.25605469 2:-4.37625 
0.01 1:0.35900977 2:-5.2805 
0.01 1:0.33317188 2:-4.68725 
0.01 1:0.36764648 2:-5.1503125 
0.01 1:0.22788867 2:-3.7604375 
0.01 1:0.24993945 2:-5.5373125 
0.01 1:0.18333398 2:-3.381 
0.01 1:0.19073438 2:-4.4073125 
0.01 1:0.36661328 2:-6.022 
0.01 1:0.29732031 2:-4.5391875 
0.01 1:0.36959961 2:-5.9623125 
0.01 1:0.34438281 2:-4.893 
0.01 1:0.2449043 2:-4.3559375 
0.01 1:0.39398437 2:-5.7020625 
0.01 1:0.33589062 2:-4.5236875 
0.01 1:0.35889453 2:-4.4951875 
0.01 1:0.30651367 2:-4.6270625 
0.01 1:0.27312891 2:-4.0998125 
0.01 1:0.28589844 2:-4.4878125 
0.01 1:0.17125391 2:-3.1401875 
0.01 1:0.37286523 2:-4.83775 
0.01 1:0.26533594 2:-4.871 
0.01 1:0.24624609 2:-5.011375 
0.01 1:0.26099023 2:-5.0278125 
0.01 1:0.27323437 2:-4.4154375 
0.01 1:0.21907031 2:-3.1823125 
0.01 1:0.32371875 2:-4.4525 
0.01 1:0.22279883 2:-4.62925 
0.01 1:0.28259961 2:-4.61725 
0.01 1:0.21282422 2:-4.698 
0.01 1:0.29868555 2:-5.44775 
0.01 1:0.31258008 2:-5.577875 
0.01 1:0.23544531 2:-5.3535 
0.01 1:0.26776367 2:-4.0185625 
0.01 1:0.29039062 2:-4.55775 
0.01 1:0.31123828 2:-5.179625 
0.01 1:0.30776562 2:-5.9931875 
0.01 1:0.15175 2:-2.97025 
0.01 1:0.33039648 2:-5.4395 
0.01 1:0.35174805 2:-4.259375 
0.01 1:0.28732031 2:-5.3385 
0.01 1:0.2760918 2:-4.324 
0.01 1:0.39990039 2:-5.5281875 
0.01 1:0.21464258 2:-4.6244375 
0.01 1:0.24214063 2:-4.5038125 
0.01 1:0.43591602 2:-5.860375 
0.01 1:0.29987109 2:-4.4885625 
0.01 1:0.35918359 2:-5.1936875 
0.01 1:0.30384375 2:-4.66825 
0.01 1:0.37999023 2:-5.022125 
0.01 1:0.34343359 2:-4.500875 
0.01 1:0.35570117 2:-4.8763125 
0.01 1:0.18800781 2:-3.768125 
0.01 1:0.23883594 2:-4.293125 
0.01 1:0.23888281 2:-5.203 
0.01 1:0.45997461 2:-6.2921875 
0.01 1:0.32398437 2:-5.519 
0.01 1:0.24407227 2:-4.229 
0.01 1:0.24999023 2:-4.23425 
0.01 1:0.26863672 2:-3.92925 
0.01 1:0.33615625 2:-4.82075 
0.01 1:0.37671289 2:-4.9030625 
0.01 1:0.35058203 2:-5.5184375 
0.01 1:0.15662109 2:-3.363625 
0.01 1:0.24387891 2:-4.462125 
0.01 1:0.2542207 2:-4.6595 
0.01 1:0.23759961 2:-3.883125 
0.01 1:0.15335352 2:-3.1814375 
0.01 1:0.31617773 2:-5.575875 
0.01 1:0.33393945 2:-5.0185 
0.01 1:0.27375977 2:-5.0396875 
0.01 1:0.45030664 2:-4.5109375 
0.01 1:0.29270508 2:-5.25575 
0.01 1:0.32026367 2:-6.1031875 
0.01 1:0.30499414 2:-5.6374375 
0.01 1:0.31149023 2:-4.888 
0.01 1:0.29332227 2:-5.5399375 
0.01 1:0.30049023 2:-4.7780625 
0.01 1:0.20055078 2:-4.0369375 
0.01 1:0.18700195 2:-3.6405 
0.01 1:0.31383203 2:-5.590375 
0.01 1:0.40238867 2:-4.4288125 
0.01 1:0.33367383 2:-4.751375 
0.01 1:0.3155957 2:-4.250125 
0.01 1:0.2073418 2:-3.732875 
0.01 1:0.29419531 2:-5.00075 
0.01 1:0.2588418 2:-4.531875 
0.01 1:0.37291602 2:-5.604 
0.01 1:0.15605664 2:-3.3848125 
0.01 1:0.21972656 2:-4.0135 
0.01 1:0.30444727 2:-5.1534375 
0.01 1:0.39944727 2:-5.0774375 
0.01 1:0.22061328 2:-3.57275 
0.01 1:0.23155859 2:-4.342375 
0.01 1:0.17587695 2:-3.6184375 
0.01 1:0.39452734 2:-5.0855 
0.01 1:0.2189375 2:-4.7980625 
0.01 1:0.23667187 2:-4.167375 
0.01 1:0.25246094 2:-4.52725 
0.01 1:0.31454688 2:-4.9918125 
0.01 1:0.36413867 2:-6.3994375 
0.01 1:0.22468359 2:-4.2766875 
0.01 1:0.24639063 2:-4.836125 
0.01 1:0.10407031 2:-2.424125 
0.01 1:0.31027734 2:-5.6106875 
0.01 1:0.38444141 2:-4.484 
0.01 1:0.37807812 2:-5.0475 
0.01 1:0.25825195 2:-4.7050625 
0.01 1:0.29933594 2:-5.2721875 
0.01 1:0.28783203 2:-5.12625 
0.01 1:0.24499219 2:-4.573 
0.01 1:0.43064648 2:-5.9849375 
0.01 1:0.30909961 2:-4.58375 
0.01 1:0.29062305 2:-5.0640625 
0.01 1:0.3282168 2:-6.19075 
0.01 1:0.39866602 2:-5.4680625 
0.01 1:0.29203516 2:-4.9071875 
0.01 1:0.21123633 2:-4.2875 
0.01 1:0.24498437 2:-4.217875 
0.01 1:0.45663086 2:-6.1100625 
0.01 1:0.24031641 2:-4.144875 
0.01 1:0.34943555 2:-4.5045 
0.01 1:0.25045312 2:-5.030375 
0.01 1:0.3662168 2:-5.5426875 
0.01 1:0.27758789 2:-5.3843125 
0.01 1:0.2814668 2:-3.89525 
0.01 1:0.24623047 2:-4.563 
0.01 1:0.25221875 2:-5.3188125 
0.01 1:0.1867168 2:-3.8624375 
0.01 1:0.22005664 2:-4.01325 
0.01 1:0.30969531 2:-4.8235625 
0.01 1:0.25135156 2:-5.2499375 
0.01 1:0.27326758 2:-5.4265 
0.01 1:0.2585625 2:-5.0456875 
0.01 1:0.30285937 2:-5.6975625 
0.01 1:0.21794531 2:-3.825375 
0.01 1:0.30346094 2:-5.1415 
0.01 1:0.28564453 2:-4.8018125 
0.01 1:0.30116211 2:-5.28175 
0.01 1:0.38377344 2:-6.2124375 
0.01 1:0.33831641 2:-5.011375 
0.01 1:0.15964258 2:-4.055 
0.01 1:0.21822266 2:-3.4904375 
0.01 1:0.39941406 2:-5.231875 
0.01 1:0.3675957 2:-5.8905625 
0.01 1:0.21958594 2:-4.20025 
0.01 1:0.2936582 2:-4.881 
0.01 1:0.24779688 2:-4.3188125 
0.01 1:0.28594531 2:-5.5890625 
0.01 1:0.39553906 2:-4.077875 
0.01 1:0.32921094 2:-5.0735625 
0.01 1:0.23776758 2:-4.4204375 
0.01 1:0.23776758 2:-4.6514375 
0.01 1:0.28563477 2:-5.0140625 
0.01 1:0.18161914 2:-3.980125 
0.01 1:0.34759375 2:-5.3243125 
0.01 1:0.21999219 2:-4.3706875 
0.01 1:0.30235937 2:-4.5140625 
0.01 1:0.369375 2:-4.5480625 
0.01 1:0.25419531 2:-4.5434375 
0.01 1:0.2731875 2:-5.0144375 
0.01 1:0.29423437 2:-5.510375 
0.01 1:0.26322461 2:-5.4883125 
0.01 1:0.28383789 2:-4.0355 
0.01 1:0.35208008 2:-4.6825 
0.01 1:0.30614453 2:-5.2485625 
0.01 1:0.30364453 2:-5.5271875 
0.01 1:0.15937305 2:-3.3386875 
0.01 1:0.16400781 2:-3.708375 
0.01 1:0.14236523 2:-2.8335 
0.01 1:0.30972266 2:-5.4668125 
0.01 1:0.27334961 2:-5.794 
0.01 1:0.22604883 2:-4.733125 
0.01 1:0.26363281 2:-4.3346875 
0.01 1:0.34606445 2:-6.244125 
0.01 1:0.27218164 2:-4.5251875 
0.01 1:0.22181641 2:-4.1625625 
0.01 1:0.21443945 2:-4.1285625 
0.01 1:0.2355957 2:-4.287875 
0.01 1:0.31257617 2:-5.3324375 
0.01 1:0.44727148 2:-5.6630625 
0.01 1:0.26904297 2:-4.7441875 
0.01 1:0.36598828 2:-5.2701875 
0.01 1:0.31229102 2:-6.0148125 
0.01 1:0.44730469 2:-5.969375 
0.01 1:0.16499609 2:-2.9005 
0.01 1:0.17932031 2:-2.390125 
0.01 1:0.41330273 2:-6.1581875 
0.01 1:0.19066406 2:-3.7959375 
0.01 1:0.22706055 2:-4.6515625 
0.01 1:0.25650781 2:-4.108625 
0.01 1:0.37120117 2:-5.6313125 
0.01 1:0.27845508 2:-4.615 
0.01 1:0.32357617 2:-5.043375 
0.01 1:0.21193945 2:-3.8865 
0.01 1:0.20489258 2:-4.5708125 
0.01 1:0.37115234 2:-5.0883125 
0.01 1:0.37664063 2:-5.6056875 
0.01 1:0.28219141 2:-4.966625 
0.01 1:0.25155859 2:-4.918375 
0.01 1:0.25415625 2:-5.34975 
0.01 1:0.3091875 2:-5.107 
0.01 1:0.18000586 2:-2.755125 
0.01 1:0.36560547 2:-5.119625 
0.01 1:0.38048438 2:-5.484625 
0.01 1:0.31440039 2:-5.4684375 
0.01 1:0.29119141 2:-3.1743125 
0.01 1:0.31914844 2:-4.2864375 
0.01 1:0.27748437 2:-4.232625 
0.01 1:0.22673242 2:-4.5121875 
0.01 1:0.13432812 2:-2.488 
0.01 1:0.29301563 2:-5.014 
0.01 1:0.34613867 2:-4.878 
0.01 1:0.30482617 2:-3.0379375 
0.01 1:0.32592383 2:-4.158 
0.01 1:0.27324805 2:-4.7464375 
0.01 1:0.26039062 2:-4.573875 
0.01 1:0.23752344 2:-3.9145 
0.01 1:0.286375 2:-4.498375 
0.01 1:0.17342969 2:-3.4353125 
0.01 1:0.26600391 2:-5.95225 
0.01 1:0.20650391 2:-3.9256875 
0.01 1:0.40545312 2:-6.2274375 
0.01 1:0.32581836 2:-5.1521875 
0.01 1:0.23612891 2:-4.33225 
0.01 1:0.45595703 2:-5.719625 
0.01 1:0.330375 2:-4.9874375 
0.01 1:0.40119336 2:-7.3266875 
0.01 1:0.20789063 2:-3.1371875 
0.01 1:0.19514063 2:-3.7558125 
0.01 1:0.21905469 2:-3.8708125 
0.01 1:0.41617578 2:-5.48325 
0.01 1:0.30120898 2:-4.5260625 
0.01 1:0.35631055 2:-5.519 
0.01 1:0.30795703 2:-6.1831875 
0.01 1:0.27466602 2:-6.4654375 
0.01 1:0.32593555 2:-5.2068125 
0.01 1:0.23947656 2:-3.9203125 
0.01 1:0.35628711 2:-6.539625 
0.01 1:0.24758594 2:-5.0631875 
0.01 1:0.1999375 2:-3.966625 
0.01 1:0.21671484 2:-4.16775 
0.01 1:0.50546875 2:-2.978125 
0.01 1:0.34544336 2:-5.7846875 
0.01 1:0.34107617 2:-5.24025 
0.01 1:0.2635918 2:-5.0038125 
0.01 1:0.26429297 2:-4.2974375 
0.01 1:0.34817773 2:-5.007625 
0.01 1:0.15477344 2:-3.1905625 
0.01 1:0.20798828 2:-4.5903125 
0.01 1:0.2029707 2:-4.5528125 
0.01 1:0.16221484 2:-3.8394375 
0.01 1:0.16737891 2:-4.012875 
0.01 1:0.26544531 2:-4.9369375 
0.01 1:0.22532617 2:-3.8934375 
0.01 1:0.27839258 2:-5.0685 
0.01 1:0.39371289 2:-5.3565 
0.01 1:0.4003418 2:-4.8186875 
0.01 1:0.40289063 2:-5.0608125 
0.01 1:0.18193164 2:-4.0205 
0.01 1:0.29921875 2:-5.0480625 
0.01 1:0.24937305 2:-5.06975 
0.01 1:0.21367187 2:-5.067625 
0.01 1:0.3006875 2:-3.8331875 
0.01 1:0.31645703 2:-4.6393125 
0.01 1:0.21133984 2:-4.653 
0.01 1:0.26028125 2:-5.3745 
0.01 1:0.36280859 2:-5.7243125 
0.01 1:0.29311328 2:-4.3414375 
0.01 1:0.22214258 2:-4.20075 
0.01 1:0.27653711 2:-4.9450625 
0.01 1:0.27436328 2:-4.999875 
0.01 1:0.21148828 2:-4.67825 
0.01 1:0.25700195 2:-5.4485 
0.01 1:0.31710937 2:-4.3620625 
0.01 1:0.2314668 2:-4.4350625 
0.01 1:0.22239453 2:-4.231375 
0.01 1:0.23898828 2:-4.7155 
0.01 1:0.36478711 2:-5.8079375 
0.01 1:0.29875586 2:-5.5695 
0.01 1:0.41792383 2:-5.6728125 
0.01 1:0.28633789 2:-6.1458125 
0.01 1:0.18764453 2:-4.048125 
0.01 1:0.25813086 2:-3.672125 
0.01 1:0.31997461 2:-4.7644375 
0.01 1:0.31799219 2:-3.949 
0.01 1:0.24804883 2:-4.5755625 
0.01 1:0.22599805 2:-4.295625 
0.01 1:0.26445117 2:-6.1681875 
0.01 1:0.2009082 2:-3.641875 
0.01 1:0.1526582 2:-3.2295625 
0.01 1:0.28 2:-4.6884375 
0.01 1:0.28729883 2:-5.168375 
0.01 1:0.24790039 2:-4.9433125 
0.01 1:0.24075195 2:-4.7785625 
0.01 1:0.33158594 2:-4.5533125 
0.01 1:0.25719141 2:-3.743625 
0.01 1:0.21408984 2:-4.0924375 
0.01 1:0.3429043 2:-4.523625 
0.01 1:0.40263672 2:-5.2531875 
0.01 1:0.20539453 2:-4.3329375 
0.01 1:0.33398242 2:-4.921625 
0.01 1:0.31304102 2:-5.107625 
0.01 1:0.27183984 2:-5.1100625 
0.01 1:0.31008008 2:-5.411625 
0.01 1:0.36270117 2:-5.643375 
0.01 1:0.26446094 2:-4.773 
0.01 1:0.2559707 2:-4.602625 
0.01 1:0.38399023 2:-4.735 
0.01 1:0.31316406 2:-5.430125 
0.01 1:0.31185352 2:-4.9824375 
0.01 1:0.31124219 2:-6.1073125 
0.01 1:0.293625 2:-4.611625 
0.01 1:0.3272793 2:-5.0328125 
0.01 1:0.30435937 2:-6.94625 
0.01 1:0.28625391 2:-5.183375 
0.01 1:0.30619336 2:-5.593375 
0.01 1:0.2345 2:-5.0680625 
0.01 1:0.18423828 2:-4.0299375 
0.01 1:0.37297266 2:-4.1598125 
0.01 1:0.36199023 2:-5.0789375 
0.01 1:0.37275586 2:-7.081375 
0.01 1:0.35354297 2:-7.0851875 
0.01 1:0.35895703 2:-6.632125 
0.01 1:0.41917187 2:-5.483375 
0.01 1:0.068048828 2:-0.315 
0.01 1:0.31582422 2:-4.7633125 
0.01 1:0.19463281 2:-4.043 
0.01 1:0.41373437 2:-5.745875 
0.01 1:0.39512695 2:-4.9090625 
0.01 1:0.41708984 2:-7.1114375 
0.01 1:0.35916016 2:-4.7018125 
0.01 1:0.32087109 2:-5.274625 
0.01 1:0.36837695 2:-6.2575 
0.01 1:0.36276172 2:-4.9273125 
0.01 1:0.40685938 2:-5.1049375 
0.01 1:0.28948047 2:-5.2085 
0.01 1:0.35732227 2:-6.6468125 
0.01 1:0.3703457 2:-6.1079375 
0.01 1:0.25339062 2:-4.637125 
0.01 1:0.19591602 2:-3.3183125 
0.01 1:0.32278711 2:-6.0531875 
0.01 1:0.26810547 2:-6.101125 
0.01 1:0.36524414 2:-5.6711875 
0.01 1:0.21464844 2:-5.0144375 
0.01 1:0.28458594 2:-6.0638125 
0.01 1:0.25924219 2:-5.2435 
0.01 1:0.26591016 2:-3.618625 
0.01 1:0.23612109 2:-4.8973125 
0.01 1:0.24375781 2:-4.0209375 
0.01 1:0.32016211 2:-4.0165625 
0.01 1:0.35369141 2:-4.686375 
0.01 1:0.27696484 2:-4.2766875 
0.01 1:0.27724023 2:-3.912125 
0.01 1:0.2792832 2:-4.56025 
0.01 1:0.2860332 2:-5.7048125 
0.01 1:0.48453711 2:-3.700375 
0.01 1:0.31548633 2:-4.1495 
0.01 1:0.26807227 2:-5.3609375 
0.01 1:0.22942383 2:-3.4251875 
0.01 1:0.20572656 2:-4.2385 
0.01 1:0.24443555 2:-3.5398125 
0.01 1:0.29265039 2:-4.442625 
0.01 1:0.25596094 2:-4.934375 
0.01 1:0.27296094 2:-5.079125 
0.01 1:0.19947461 2:-4.2119375 
0.01 1:0.36796094 2:-5.66 
0.01 1:0.35529297 2:-4.68275 
0.01 1:0.23288086 2:-4.4238125 
-0.01 1:0.3410918 2:-4.5289375 
-0.01 1:0.25326172 2:-5.5329375 
-0.01 1:0.15481055 2:-3.29475 
-0.01 1:0.23701172 2:-4.2888125 
-0.01 1:0.27167383 2:-5.0855 
-0.01 1:0.37638086 2:-6.194875 
-0.01 1:0.33438867 2:-4.930875 
-0.01 1:0.26391211 2:-4.62975 
-0.01 1:0.29937891 2:-5.5686875 
-0.01 1:0.31182031 2:-5.115875 
-0.01 1:0.3470957 2:-5.96525 
-0.01 1:0.32179492 2:-4.5561875 
-0.01 1:0.32455469 2:-6.3529375 
-0.01 1:0.28683789 2:-4.4883125 
-0.01 1:0.21730273 2:-4.058625 
-0.00147683923808499 1:0.16002539 2:-2.419375 
-0.01 1:0.17541602 2:-3.6166875 
-0.01 1:0.17282227 2:-3.03875 
-0.01 1:0.26805664 2:-5.3481875 
-0.01 1:0.37451172 2:-5.1918125 
-0.01 1:0.35275195 2:-5.096875 
-0.01 1:0.28737109 2:-4.235875 
-0.01 1:0.25563281 2:-5.0321875 
-0.01 1:0.36113672 2:-5.1243125 
-0.01 1:0.3866875 2:-5.8071875 
-0.01 1:0.20204297 2:-4.244125 
-0.01 1:0.26513867 2:-4.947625 
-0.01 1:0.25695703 2:-4.2045 
-0.01 1:0.24295898 2:-4.509125 
-0.01 1:0.35347656 2:-4.989375 
-0.01 1:0.27994922 2:-4.938125 
-0.01 1:0.25383398 2:-5.38075 
-0.01 1:0.20133789 2:-4.279625 
-0.01 1:0.32777344 2:-5.440125 
-0.01 1:0.30064063 2:-4.62675 
-0.01 1:0.28758984 2:-5.0668125 
-0.01 1:0.25137305 2:-4.0179375 
-0.01 1:0.42903711 2:-5.4879375 
-0.01 1:0.28319336 2:-3.9333125 
-0.01 1:0.23894141 2:-3.915 
-0.01 1:0.25331055 2:-5.259125 
-0.01 1:0.25526562 2:-5.0723125 
-0.01 1:0.32598828 2:-4.6885625 
-0.01 1:0.31284375 2:-5.4084375 
-0.01 1:0.34364453 2:-4.4915 
-0.01 1:0.33061523 2:-4.770625 
-0.01 1:0.38066602 2:-7.1104375 
-0.01 1:0.30735742 2:-5.0974375 
-0.01 1:0.27745898 2:-4.6110625 
-0.01 1:0.22047656 2:-4.6383125 
-0.01 1:0.36164258 2:-6.250875 
-0.01 1:0.19083008 2:-3.947625 
-0.0004017278414706124 1:0.1092793 2:-0.1195 
-0.01 1:0.30709375 2:-4.985375 
-0.01 1:0.35232031 2:-6.1666875 
-0.01 1:0.21788672 2:-4.6306875 
-0.01 1:0.20678516 2:-3.22225 
-0.01 1:0.21120898 2:-3.8875625 
-0.01 1:0.34220117 2:-4.86175 
-0.01 1:0.21545312 2:-4.1344375 
-0.01 1:0.23519141 2:-4.2893125 
-0.01 1:0.37676367 2:-5.549 
-0.01 1:0.30485937 2:-4.899375 
-0.01 1:0.35706836 2:-5.6120625 
-0.01 1:0.41410156 2:-6.125625 
-0.01 1:0.40051758 2:-6.0948125 
-0.01 1:0.31397852 2:-5.3356875 
-0.01 1:0.27245117 2:-3.922625 
-0.01 1:0.3985957 2:-4.82175 
-0.01 1:0.32655273 2:-4.7643125 
-0.01 1:0.37238281 2:-5.6673125 
-0.01 1:0.33091797 2:-5.019 
-0.01 1:0.20435938 2:-4.2846875 
-0.01 1:0.33728711 2:-5.5165625 
-0.01 1:0.21339063 2:-4.5384375 
-0.01 1:0.32582617 2:-5.0324375 
-0.01 1:0.34221484 2:-5.6703125 
-0.01 1:0.34278125 2:-6.560875 
-0.01 1:0.19339844 2:-3.679375 
-0.01 1:0.31507617 2:-5.15525 
-0.01 1:0.22388477 2:-3.3609375 
-0.01 1:0.35138672 2:-6.545875 
-0.01 1:0.41430469 2:-6.158625 
-0.01 1:0.34374023 2:-5.2498125 
-0.01 1:0.37499023 2:-5.383375 
-0.01 1:0.20575391 2:-4.6519375 
-0.01 1:0.2316875 2:-4.8935 
-0.01 1:0.459 2:-5.2013125 
-0.01 1:0.26556641 2:-4.6180625 
-0.01 1:0.30944727 2:-5.53075 
-0.01 1:0.2555332 2:-4.80425 
-0.01 1:0.20317578 2:-3.6855625 
-0.01 1:0.40318555 2:-5.302875 
-0.01 1:0.22222266 2:-3.8930625 
-0.01 1:0.24975391 2:-4.9430625 
-0.01 1:0.23940039 2:-4.7823125 
-0.01 1:0.27955469 2:-5.9626875 
-0.01 1:0.31384961 2:-5.691875 
-0.01 1:0.31907031 2:-6.0515625 
-0.01 1:0.40899219 2:-5.5123125 
-0.01 1:0.35768945 2:-6.08625 
-0.01 1:0.40966797 2:-3.993875 
-0.01 1:0.26469922 2:-4.9360625 
-0.01 1:0.25950977 2:-4.6583125 
-0.01 1:0.21465625 2:-3.1859375 
-0.01 1:0.32654492 2:-4.898875 
-0.01 1:0.18996484 2:-3.868 
-0.01 1:0.30452148 2:-5.4704375 
-0.01 1:0.22775977 2:-4.160375 
-0.01 1:0.23942969 2:-5.0089375 
-0.01 1:0.32683008 2:-4.0153125 
-0.01 1:0.2016543 2:-3.640125 
-0.008926051031762623 1:0.16332227 2:-0.216 
-0.01 1:0.27755664 2:-5.39075 
-0.01 1:0.23883203 2:-4.6520625 
-0.01 1:0.19998633 2:-3.9673125 
-0.01 1:0.41492578 2:-5.714125 
-0.01 1:0.20992187 2:-4.632125 
-0.01 1:0.41219531 2:-7.08375 
-0.01 1:0.2899082 2:-4.8065 
-0.01 1:0.31426953 2:-4.364125 
-0.008467287422304764 1:0.26439062 2:-3.920625 
-0.01 1:0.31061133 2:-5.5855625 
-0.01 1:0.33484766 2:-6.761375 
-0.01 1:0.15715234 2:-3.00575 
-0.01 1:0.27930078 2:-5.494625 
-0.01 1:0.30151758 2:-5.2821875 
-0.01 1:0.2788125 2:-4.1191875 
-0.001532712577695235 1:0.26812109 2:-3.9265625 
-0.01 1:0.2024707 2:-3.138375 
-0.01 1:0.27555469 2:-3.6163125 
-0.006907452855367354 1:0.51782031 2:-2.9840625 
-0.01 1:0.26975781 2:-5.03375 
-0.01 1:0.33228906 2:-5.591625 
-0.01 1:0.2905 2:-5.1194375 
-0.01 1:0.27174219 2:-5.023125 
-0.01 1:0.41588477 2:-5.7424375 
-0.01 1:0.39512695 2:-6.255875 
-0.01 1:0.32285156 2:-5.26975 
-0.01 1:0.35478711 2:-6.158125 
-0.01 1:0.22896484 2:-3.422125 
-0.01 1:0.33034961 2:-4.2894375 
-0.01 1:0.28607422 2:-5.5879375 
-0.01 1:0.38126953 2:-4.8755625 
-0.01 1:0.28911719 2:-4.539875 
-0.01 1:0.33568945 2:-4.6773125 
-0.01 1:0.45814258 2:-3.6809375 
-0.01 1:0.32289844 2:-3.9433125 
-0.01 1:0.29985352 2:-5.4546875 
-0.01 1:0.30507812 2:-4.5428125 
-0.01 1:0.25418359 2:-5.4633125 
-0.01 1:0.21667773 2:-5.065875 
-0.01 1:0.20639648 2:-4.3219375 
-0.01 1:0.30563672 2:-5.15925 
-0.01 1:0.31766992 2:-6.3675 
-0.01 1:0.25072656 2:-4.601875 
-0.01 1:0.29110156 2:-4.4441875 
-0.01 1:0.36684766 2:-5.885625 
-0.01 1:0.25096484 2:-4.1090625 
-0.01 1:0.21582617 2:-4.73525 
-0.01 1:0.29432422 2:-5.3350625 
-0.01 1:0.36457422 2:-5.483875 
-0.01 1:0.29497266 2:-5.505625 
-0.01 1:0.33461719 2:-6.2285 
-0.01 1:0.32275195 2:-4.5200625 
-0.01 1:0.3085 2:-4.161875 
-0.01 1:0.27708008 2:-6.11525 
-0.01 1:0.19795508 2:-4.1676875 
-0.01 1:0.27746094 2:-4.6858125 
-0.01 1:0.22241992 2:-4.2011875 
-0.01 1:0.24145703 2:-5.20275 
-0.01 1:0.30098828 2:-6.4419375 
-0.01 1:0.35743555 2:-5.2845 
-0.01 1:0.17773633 2:-3.628625 
-0.01 1:0.32263086 2:-4.926 
-0.01 1:0.20744336 2:-3.7363125 
-0.01 1:0.24776758 2:-4.3211875 
-0.01 1:0.20867383 2:-3.7443125 
-0.01 1:0.40891211 2:-5.9803125 
-0.01 1:0.36463672 2:-5.2138125 
-0.01 1:0.27248438 2:-4.349875 
-0.01 1:0.23552734 2:-4.1799375 
-0.01 1:0.22663281 2:-4.6451875 
-0.01 1:0.21619336 2:-3.8670625 
-0.01 1:0.29987891 2:-4.787625 
-0.01 1:0.24716016 2:-4.4928125 
-0.01 1:0.29156445 2:-5.253375 
-0.01 1:0.39798438 2:-6.242 
-0.01 1:0.30472266 2:-6.0991875 
-0.01 1:0.26783984 2:-4.52525 
-0.01 1:0.21798242 2:-4.41925 
-0.01 1:0.37414063 2:-4.146625 
-0.01 1:0.17934961 2:-4.0168125 
-0.01 1:0.19249609 2:-3.75625 
-0.01 1:0.16879297 2:-3.4405 
-0.01 1:0.21953711 2:-4.6820625 
-0.01 1:0.29176172 2:-4.8688125 
-0.01 1:0.33366406 2:-5.530375 
-0.01 1:0.26469922 2:-4.0971875 
-0.01 1:0.30620117 2:-4.9893125 
-0.01 1:0.22549609 2:-3.8956875 
-0.01 1:0.28198828 2:-4.9028125 
-0.01 1:0.22791016 2:-4.01 
-0.01 1:0.3770293 2:-6.11475 
-0.01 1:0.30756836 2:-5.313125 
-0.01 1:0.33854492 2:-5.526625 
-0.01 1:0.22225 2:-4.2025 
-0.01 1:0.30478516 2:-5.997625 
-0.01 1:0.35726367 2:-4.68325 
-0.01 1:0.20520117 2:-4.3355625 
-0.01 1:0.29853516 2:-5.612 
-0.01 1:0.29695703 2:-4.6118125 
-0.01 1:0.38269336 2:-5.2319375 
-0.01 1:0.38685742 2:-5.72125 
-0.01 1:0.42924219 2:-6.279125 
-0.01 1:0.36966211 2:-4.90725 
-0.01 1:0.29679883 2:-4.7449375 
-0.01 1:0.23712891 2:-4.3549375 
-0.01 1:0.30266992 2:-4.88725 
-0.01 1:0.30179687 2:-4.583125 
-0.01 1:0.23849023 2:-4.3308125 
-0.01 1:0.25426758 2:-5.0411875 
-0.01 1:0.37638477 2:-4.545875 
-0.01 1:0.29403906 2:-5.0471875 
-0.003092547144632646 1:0.1399082 2:-3.0259375 
-0.01 1:0.1550625 2:-3.471625 
-0.01 1:0.21351367 2:-4.0935625 
-0.009687249531468106 1:0.49560547 2:-4.876 
-0.01 1:0.35151367 2:-5.6770625 
-0.01 1:0.31097266 2:-5.580875 
-0.01 1:0.34935352 2:-5.6198125 
-0.01 1:0.34056836 2:-6.399125 
-0.01 1:0.32004297 2:-4.86475 
-0.01 1:0.30663086 2:-4.8278125 
-0.01 1:0.18203125 2:-3.7155625 
-0.01 1:0.33318164 2:-5.25925 
-0.01 1:0.24745703 2:-4.2286875 
-0.01 1:0.18312109 2:-3.7689375 
-0.01 1:0.42745117 2:-4.3916875 
-0.01 1:0.22221094 2:-3.5665625 
-0.01 1:0.22888672 2:-4.51275 
-0.01 1:0.18467187 2:-3.978875 
-0.01 1:0.20241016 2:-4.5631875 
-0.01 1:0.3104043 2:-6.1365 
-0.01 1:0.38851953 2:-5.6038125 
-0.01 1:0.28153906 2:-5.5325 
-0.01 1:0.4188418 2:-5.466875 
-0.01 1:0.32393945 2:-4.69175 
-0.01 1:0.26612891 2:-5.0080625 
-0.01 1:0.29786133 2:-5.276125 
-0.01 1:0.25968164 2:-4.701 
-0.01 1:0.38269531 2:-4.839625 
-0.01 1:0.33039063 2:-4.84375 
-0.01 1:0.2568418 2:-4.657 
-0.01 1:0.37261328 2:-4.8285 
-0.01 1:0.12201367 2:-2.4213125 
-0.01 1:0.24037891 2:-4.7795625 
-0.01 1:0.32592969 2:-5.55525 
-0.01 1:0.19696289 2:-4.0366875 
-0.01 1:0.3574375 2:-5.559125 
-0.01 1:0.31873438 2:-5.045375 
-0.01 1:0.2892832 2:-4.5595 
-0.01 1:0.23910742 2:-3.884375 
-0.01 1:0.302 2:-6.17125 
-0.01 1:0.42748242 2:-5.4629375 
-0.01 1:0.31471484 2:-4.6373125 
-0.01 1:0.16182812 2:-3.80425 
-0.01 1:0.21940625 2:-4.2265625 
-0.01 1:0.21717383 2:-4.7938125 
-0.01 1:0.25799414 2:-3.7411875 
-0.01 1:0.16924805 2:-2.906375 
-0.01 1:0.24383789 2:-4.421625 
-0.01 1:0.20067773 2:-3.568125 
-0.01 1:0.32763281 2:-5.387875 
-0.01 1:0.36110156 2:-4.7130625 
-0.01 1:0.28030664 2:-4.3249375 
-0.01 1:0.21383594 2:-4.016125 
-0.01 1:0.13570117 2:-2.4930625 
-0.01 1:0.32137891 2:-4.984375 
-0.01 1:0.37183789 2:-5.4435625 
-0.01 1:0.30372656 2:-5.6384375 
-0.01 1:0.249375 2:-5.0311875 
-0.01 1:0.2242832 2:-4.2979375 
-0.01 1:0.26307031 2:-5.029625 
-0.01 1:0.24138477 2:-4.280625 
-0.01 1:0.36026172 2:-5.9035625 
-0.01 1:0.22554688 2:-3.4891875 
-0.01 1:0.20151562 2:-4.401 
-0.01 1:0.29635937 2:-5.16975 
-0.01 1:0.31775977 2:-6.0183125 
-0.01 1:0.2321582 2:-4.1448125 
-0.01 1:0.27808203 2:-3.8909375 
-0.01 1:0.31121484 2:-5.3504375 
-0.01 1:0.22680273 2:-4.3693125 
-0.01 1:0.28276953 2:-4.7361875 
-0.01 1:0.28493359 2:-4.7819375 
-0.01 1:0.27026563 2:-4.021375 
-0.01 1:0.35369141 2:-5.0035 
-0.01 1:0.28069141 2:-5.3175625 
-0.01 1:0.29725586 2:-4.34775 
-0.01 1:0.25576563 2:-4.5810625 
-0.01 1:0.28564844 2:-5.3563125 
-0.01 1:0.25674023 2:-4.3780625 
-0.01 1:0.16381641 2:-3.3376875 
-0.01 1:0.31082422 2:-3.0363125 
-0.01 1:0.33577344 2:-4.9798125 
-0.01 1:0.36389453 2:-4.4950625 
-0.01 1:0.25910937 2:-4.9125 
-0.01 1:0.26445117 2:-4.8659375 
-0.01 1:0.15526172 2:-3.1831875 
-0.01 1:0.26807813 2:-5.1476875 
-0.01 1:0.26907227 2:-4.04375 
-0.01 1:0.24758789 2:-4.2194375 
-0.01 1:0.17538867 2:-4.007875 
-0.01 1:0.16484375 2:-2.7686875 
-0.01 1:0.36611328 2:-5.1491875 
-0.01 1:0.27745117 2:-5.06825 
-0.01 1:0.38274023 2:-5.827375 
-0.01 1:0.23025 2:-4.340625 
-0.01 1:0.29986719 2:-4.7735 
-0.01 1:0.17798437 2:-3.617125 
-0.01 1:0.24883203 2:-4.1166875 
-0.01 1:0.15099805 2:-3.0730625 
-0.01 1:0.17205664 2:-3.2275 
-0.01 1:0.22132813 2:-4.737625 
-0.01 1:0.28202344 2:-4.859375 
-0.01 1:0.34985547 2:-5.783125 
-0.01 1:0.35045508 2:-5.5129375 
-0.01 1:0.41241016 2:-5.256375 
-0.01 1:0.37326563 2:-4.7308125 
-0.01 1:0.23668945 2:-3.4695625 
-0.01 1:0.18877148 2:-3.6405625 
-0.01 1:0.18390039 2:-3.3836875 
-0.01 1:0.20870898 2:-4.1036875 
-0.01 1:0.31932422 2:-5.7755 
-0.01 1:0.35314844 2:-5.3280625 
-0.01 1:0.16870898 2:-3.1403125 
-0.01 1:0.22655664 2:-4.522125 
-0.01 1:0.20908984 2:-3.960375 
-0.01 1:0.37899609 2:-6.203375 
-0.01 1:0.24965039 2:-3.8403125 
-0.01 1:0.16830664 2:-4.0475 
-0.01 1:0.35965234 2:-4.6843125 
-0.01 1:0.38800586 2:-4.0814375 
-0.01 1:0.32768555 2:-5.0791875 
-0.01 1:0.21555469 2:-4.5850625 
-0.01 1:0.22640625 2:-4.277375 
-0.01 1:0.25349023 2:-4.5400625 
-0.01 1:0.22976758 2:-4.4234375 
-0.01 1:0.25033008 2:-4.57875 
-0.01 1:0.35400195 2:-5.0933125 
-0.01 1:0.37686719 2:-6.1020625 
-0.01 1:0.24301953 2:-5.067625 
-0.01 1:0.35855859 2:-5.03625 
-0.01 1:0.38863281 2:-5.3104375 
-0.01 1:0.24972461 2:-4.840625 
-0.01 1:0.4066875 2:-5.1200625 
-0.01 1:0.21939258 2:-4.7096875 
-0.01 1:0.29558789 2:-5.2064375 
-0.01 1:0.31078125 2:-6.1899375 
-0.01 1:0.24902539 2:-4.4651875 
-0.01 1:0.25994336 2:-3.6735 
-0.01 1:0.31249219 2:-4.5206875 
-0.01 1:0.16317773 2:-3.7641875 
-0.01 1:0.31826172 2:-5.8076875 
-0.01 1:0.30721289 2:-5.265875 
-0.01 1:0.17422266 2:-3.7083125 
-0.01 1:0.26214648 2:-5.489875 
-0.0003127504685318939 1:0.21189258 2:-4.8935 
-0.01 1:0.20775781 2:-3.3715 
-0.01 1:0.26025391 2:-4.943875 
-0.01 1:0.26124219 2:-4.48975 
-0.01 1:0.27930469 2:-4.776375 
-0.01 1:0.23780469 2:-3.697 
-0.01 1:0.19660547 2:-3.6106875 
-0.01 1:0.19385938 2:-3.8018125 
-0.01 1:0.156 2:-3.389625 
-0.01 1:0.28289062 2:-4.6854375 
-0.01 1:0.44400781 2:-5.9770625 
-0.01 1:0.24703516 2:-4.5748125 
-0.01 1:0.30321094 2:-5.1368125 
-0.01 1:0.33180469 2:-5.012375 
-0.01 1:0.29588281 2:-5.0153125 
-0.008475661463036884 1:0.18112891 2:-2.400875 
-0.01 1:0.3152832 2:-4.88725 
-0.01 1:0.27291406 2:-4.54875 
-0.01 1:0.14113086 2:-2.8803125 
-0.01 1:0.30857031 2:-6.0686875 
-0.01 1:0.40715039 2:-4.4429375 
-0.01 1:0.24838867 2:-5.320625 
-0.01 1:0.24328906 2:-4.71675 
-0.01 1:0.40020312 2:-5.3531875 
-0.01 1:0.2951543 2:-3.1799375 
-0.01 1:0.23999414 2:-4.667625 
-0.01 1:0.43492188 2:-5.8491875 
-0.01 1:0.3021875 2:-4.1948125 
-0.01 1:0.15070703 2:-3.2255625 
-0.01 1:0.15353906 2:-3.362 
-0.01 1:0.16489453 2:-3.8350625 
-0.01 1:0.39202148 2:-4.8614375 
-0.01 1:0.39500586 2:-4.4770625 
-0.01 1:0.26061328 2:-5.075375 
-0.01 1:0.3845 2:-6.7055 
-0.01 1:0.22598828 2:-4.0158125 
-0.01 1:0.29886328 2:-4.5400625 
-0.01 1:0.23545313 2:-3.917125 
-0.01 1:0.28249219 2:-5.382 
-0.01 1:0.35025195 2:-5.4346875 
-0.01 1:0.34149805 2:-4.603125 
-0.01 1:0.18161328 2:-3.344125 
-0.01 1:0.2019043 2:-4.556625 
-0.01 1:0.25398438 2:-4.262 
-0.01 1:0.31308203 2:-6.5335625 
-0.01 1:0.18352148 2:-2.7554375 
-0.01 1:0.19938086 2:-4.527 
-0.01 1:0.24900586 2:-5.3428125 
-0.01 1:0.32193359 2:-4.249 
-0.01 1:0.4497168 2:-4.510125 
-0.01 1:0.31373047 2:-4.525875 
-0.01 1:0.25119922 2:-4.5901875 
-0.01 1:0.35910352 2:-6.03025 
-0.01 1:0.35639844 2:-5.66275 
-0.01 1:0.27125781 2:-5.2478125 
-0.01 1:0.24120508 2:-4.85975 
-0.01 1:0.30007813 2:-4.4925625 
-0.01 1:0.20086914 2:-3.31725 
-0.01 1:0.42033008 2:-5.502875 
-0.01 1:0.36908789 2:-5.0501875 
-0.01 1:0.2657168 2:-4.5379375 
-0.01 1:0.21969531 2:-5.0075 
-0.01 1:0.27729492 2:-5.7964375 
-0.01 1:0.29319922 2:-4.9666875 
-0.01 1:0.19292188 2:-4.2135 
-0.01 1:0.19742383 2:-3.058375 
-0.01 1:0.33344922 2:-4.6826875 
-0.01 1:0.29563281 2:-5.2989375 
-0.01 1:0.22634375 2:-4.1656875 
-0.01 1:0.23654492 2:-4.495125 
-0.01 1:0.21710742 2:-3.57425 
-0.01 1:0.31218945 2:-4.7634375 
-0.01 1:0.37478125 2:-5.4715 
-0.01 1:0.30823633 2:-5.581375 
-0.01 1:0.32268945 2:-6.0975 
-0.01 1:0.36498437 2:-5.0790625 
-0.01 1:0.46754492 2:-5.648125 
-0.01 1:0.40231445 2:-5.663875 
-0.01 1:0.39775781 2:-5.4693125 
-0.01 1:0.30610937 2:-4.347125 
-0.01 1:0.27491992 2:-5.1063125 
-0.01 1:0.25251953 2:-4.5294375 
-0.01 1:0.22514648 2:-3.759375 
-0.01 1:0.31641211 2:-5.467875 
-0.01 1:0.27022461 2:-3.434875 
-0.01 1:0.34269922 2:-4.25825 
-0.01 1:0.30334375 2:-5.173875 
-0.01 1:0.28152734 2:-5.4225 
-0.01 1:0.1555293 2:-2.655 
-0.01 1:0.15835352 2:-3.1899375 
-0.01 1:0.18272266 2:-4.05425 
-0.01 1:0.16945117 2:-3.875125 
-0.01 1:0.37748242 2:-5.4595 
-0.01 1:0.30887305 2:-5.4248125 
-0.01 1:0.15037695 2:-2.9729375 
-0.01 1:0.32441602 2:-5.6034375 
-0.01 1:0.42158008 2:-4.9910625 
-0.01 1:0.38578516 2:-5.4433125 
-0.01 1:0.34806445 2:-5.270625 
-0.01 1:0.34957617 2:-4.8681875 
-0.01 1:0.18959375 2:-3.477625 
-0.01 1:0.35097461 2:-5.6483125 
-0.01 1:0.3448418 2:-4.1620625 
-0.01 1:0.32181836 2:-5.1540625 
-0.01 1:0.34011523 2:-5.440375 
-0.01 1:0.29912695 2:-3.834875 
-0.01 1:0.37595117 2:-6.845625 
-0.01 1:0.28054102 2:-4.74375 
-0.01 1:0.29929883 2:-4.5318125 
-0.01 1:0.37046094 2:-5.16625 
-0.01 1:0.23783594 2:-4.166125 
-0.01 1:0.25103711 2:-5.075625 
-0.01 1:0.31773438 2:-5.2178125 
-0.01 1:0.19655469 2:-4.0448125 
-0.01 1:0.32371484 2:-4.491375 
-0.01 1:0.25060937 2:-5.4385 
-0.01 1:0.21400977 2:-3.7804375 
-0.01 1:0.28070312 2:-4.0356875 
-0.01 1:0.25672656 2:-4.230875 
-0.01 1:0.38603711 2:-5.7089375 
-0.01 1:0.24578125 2:-3.537125 
-0.01 1:0.22544141 2:-4.4345625 
-0.01 1:0.28180273 2:-5.125 
-0.01 1:0.40423828 2:-5.0844375 
-0.01 1:0.22732031 2:-4.0624375 
-0.01 1:0.24811523 2:-4.385125 
-0.01 1:0.26888086 2:-3.809625 
-0.01 1:0.33202344 2:-4.4995625 
-0.01 1:0.1853418 2:-4.0305625 
-0.01 1:0.33002344 2:-4.5489375 
-0.01 1:0.30280078 2:-5.24075 
-0.01 1:0.323375 2:-5.2134375 
-0.01 1:0.22048047 2:-4.1625 
-0.01 1:0.27196875 2:-4.4168125 
-0.01 1:0.3350332 2:-4.747125 
-0.01 1:0.32950586 2:-5.28025 
-0.01 1:0.39397461 2:-5.0691875 
-0.01 1:0.26416797 2:-4.048625 
-0.01 1:0.30623242 2:-5.047625 
-0.01 1:0.27817773 2:-5.013 
-0.01 1:0.19458008 2:-3.5919375 
-0.01 1:0.30394922 2:-5.17475 
-0.0006988478087280232 1:0.54976758 2:-0.798875 
-0.01 1:0.33244727 2:-5.4505 
-0.01 1:0.23319922 2:-5.2978125 
-0.01 1:0.20837891 2:-3.922875 
-0.01 1:0.21803125 2:-4.6393125 
-0.0001317071173318155 1:0.28741406 2:-6.508375 
-0.01 1:0.27467578 2:-4.279375 
-0.01 1:0.26510352 2:-4.29625 
-0.01 1:0.19146484 2:-3.2836875 
-0.01 1:0.28924414 2:-6.0709375 
-0.01 1:0.21776758 2:-3.8276875 
-0.01 1:0.31377148 2:-4.4531875 
-0.01 1:0.22067578 2:-3.08325 
-0.01 1:0.29102344 2:-4.49575 
-0.01 1:0.32701953 2:-4.8238125 
-0.01 1:0.37181836 2:-4.92175 
-0.01 1:0.27879883 2:-4.7460625 
-0.01 1:0.37425977 2:-6.9378125 
-0.01 1:0.28834766 2:-5.5510625 
-0.01 1:0.26880469 2:-4.7704375 
-0.01 1:0.26983984 2:-5.2569375 
-0.01 1:0.26159375 2:-4.0564375 
-0.01 1:0.29903516 2:-4.6679375 
-0.01 1:0.29771875 2:-4.9973125 
-0.009889165499585052 1:0.43723828 2:-7.1905 
-0.01 1:0.25980469 2:-4.1055 
-0.01 1:0.13896484 2:-2.837125 
-0.01 1:0.35055469 2:-5.5453125 
-0.01 1:0.27969727 2:-5.0708125 
-0.01 1:0.40974609 2:-6.5911875 
-0.01 1:0.33665234 2:-5.5881875 
-0.01 1:0.39734961 2:-4.196375 
-0.01 1:0.36516211 2:-4.9870625 
-0.01 1:0.36582813 2:-4.68175 
-0.01 1:0.27525195 2:-4.4076875 
-0.01 1:0.41186133 2:-5.304625 
-0.01 1:0.34190039 2:-5.7218125 
-0.01 1:0.30539844 2:-5.5684375 
-0.01 1:0.39958398 2:-4.91325 
-0.01 1:0.26417188 2:-4.3373125 
-0.01 1:0.27573828 2:-4.6065625 
-0.01 1:0.39750586 2:-5.7055625 
-0.01 1:0.29069922 2:-5.8220625 
-0.01 1:0.394125 2:-5.0828125 
-0.01 1:0.2994082 2:-5.6973125 
-0.01 1:0.3889668 2:-4.9733125 
-0.01 1:0.25216211 2:-4.5590625 
-0.01 1:0.27465625 2:-4.9960625 
-0.01 1:0.40981836 2:-7.1111875 
-0.01 1:0.35661523 2:-5.604375 
-0.01 1:0.37423047 2:-5.276625 
-0.01 1:0.2394668 2:-3.7249375 
-0.01 1:0.37133594 2:-5.0890625 
