svm_type c_svc
kernel_type polynomial
degree 2
gamma 1
coef0 1
nr_class 2
total_sv 1338
rho 0.998979
label 1 -1
nr_sv 645 693
SV
0.01 1:0.20027539 2:-3.534375 
0.01 1:0.25326172 2:-5.5329375 
0.01 1:0.15481055 2:-3.29475 
0.01 1:0.18846094 2:-3.202 
0.01 1:0.19740234 2:-4.139 
0.01 1:0.15986133 2:-3.2423125 
0.01 1:0.19057617 2:-3.876 
0.01 1:0.17407813 2:-3.443375 
0.01 1:0.16850195 2:-3.7725625 
0.01 1:0.21072461 2:-4.0576875 
0.01 1:0.23701172 2:-4.2888125 
0.01 1:0.25998047 2:-4.9770625 
0.01 1:0.16880273 2:-3.3520625 
0.01 1:0.22111914 2:-4.2523125 
0.01 1:0.25282812 2:-4.810375 
0.01 1:0.20053906 2:-3.7035 
0.01 1:0.3470957 2:-5.96525 
0.01 1:0.18037891 2:-3.96825 
0.01 1:0.18958984 2:-3.7131875 
0.01 1:0.21730273 2:-4.058625 
0.01 1:0.36164258 2:-5.9445 
0.01 1:0.2030957 2:-3.4150625 
0.01 1:0.12221289 2:-1.896 
0.01 1:0.21591406 2:-3.963125 
0.01 1:0.14884961 2:-3.037 
0.01 1:0.24633398 2:-4.1683125 
0.01 1:0.19739063 2:-3.8541875 
0.01 1:0.12535156 2:-2.5491875 
0.01 1:0.21030664 2:-3.8050625 
0.01 1:0.21387305 2:-4.0073125 
0.01 1:0.17422656 2:-3.5231875 
0.01 1:0.21604492 2:-4.5743125 
0.01 1:0.18840039 2:-3.832625 
0.01 1:0.19091211 2:-3.9148125 
0.01 1:0.35275195 2:-5.096875 
0.01 1:0.076144531 2:-1.757125 
0.01 1:0.26702148 2:-5.8805 
0.01 1:0.24305469 2:-4.645625 
0.01 1:0.1034375 2:-2.272875 
0.01 1:0.10009375 2:-2.2575 
0.01 1:0.089693359 2:-1.929 
0.01 1:0.26074023 2:-4.97875 
0.01 1:0.21878516 2:-3.5774375 
0.01 1:0.21332617 2:-4.2690625 
0.01 1:0.27144727 2:-4.3475 
0.01 1:0.21219141 2:-4.848875 
0.01 1:0.23842773 2:-4.6815 
0.01 1:0.19726367 2:-3.866375 
0.01 1:0.20499219 2:-4.49775 
0.01 1:0.23956055 2:-4.2628125 
0.01 1:0.17128516 2:-3.2225 
0.01 1:0.26625781 2:-5.1054375 
0.01 1:0.38066602 2:-7.1104375 
0.01 1:0.22314258 2:-3.736875 
0.01 1:0.20363477 2:-4.17475 
0.01 1:0.11845703 2:-2.042875 
0.01 1:0.18641211 2:-3.39775 
0.01 1:0.13629297 2:-3.055125 
0.01 1:0.21788672 2:-4.6306875 
0.01 1:0.12933398 2:-2.5115 
0.01 1:0.20782617 2:-3.9805 
0.01 1:0.18683984 2:-4.0678125 
0.01 1:0.23519141 2:-4.2893125 
0.01 1:0.14931836 2:-3.0621875 
0.01 1:0.16167383 2:-3.40125 
0.01 1:0.40051758 2:-6.0948125 
0.01 1:0.19857227 2:-3.7183125 
0.01 1:0.19793945 2:-4.1524375 
0.01 1:0.22748242 2:-4.72475 
0.01 1:0.16691602 2:-3.3095625 
0.01 1:0.11273828 2:-2.7833125 
0.01 1:0.16550391 2:-3.13475 
0.01 1:0.25823242 2:-4.5935 
0.01 1:0.18363672 2:-3.9099375 
0.01 1:0.18858594 2:-4.2381875 
0.01 1:0.31998242 2:-4.3355 
0.01 1:0.12190039 2:-2.296 
0.01 1:0.29421289 2:-4.131125 
0.01 1:0.27958203 2:-4.9163125 
0.01 1:0.25723828 2:-4.764 
0.01 1:0.22916211 2:-3.99775 
0.01 1:0.23810742 2:-3.604625 
0.01 1:0.28788477 2:-4.9349375 
0.01 1:0.22198633 2:-4.4669375 
0.01 1:0.15530469 2:-3.2506875 
0.01 1:0.31817187 2:-5.0755625 
0.01 1:0.2777793 2:-5.2920625 
0.01 1:0.19914648 2:-3.0976875 
0.01 1:0.11562891 2:-3.0084375 
0.01 1:0.16800195 2:-3.5446875 
0.01 1:0.17549609 2:-3.947 
0.01 1:0.12512305 2:-2.84225 
0.01 1:0.28356641 2:-4.7535 
0.01 1:0.2555332 2:-4.80425 
0.01 1:0.27674609 2:-4.354375 
0.01 1:0.23582422 2:-4.853875 
0.01 1:0.31907031 2:-6.0515625 
0.01 1:0.17334375 2:-3.4825625 
0.01 1:0.1174043 2:-2.6358125 
0.01 1:0.18999414 2:-3.513125 
0.01 1:0.17517187 2:-3.7431875 
0.01 1:0.21409375 2:-4.2804375 
0.01 1:0.22221484 2:-4.77875 
0.01 1:0.26959375 2:-4.9015 
0.01 1:0.20270508 2:-4.2705625 
0.01 1:0.16031641 2:-3.5353125 
0.01 1:0.26085938 2:-4.9448125 
0.01 1:0.19214258 2:-4.0940625 
0.01 1:0.23942969 2:-5.0089375 
0.01 1:0.10730469 2:-2.29425 
0.01 1:0.19691602 2:-3.7170625 
0.01 1:0.2016543 2:-3.640125 
0.01 1:0.21491211 2:-3.60225 
0.01 1:0.23864648 2:-4.581875 
0.01 1:0.15466797 2:-3.45675 
0.01 1:0.1427832 2:-3.6198125 
0.01 1:0.2695293 2:-5.125 
0.01 1:0.24641211 2:-4.2855 
0.01 1:0.24318555 2:-3.649125 
0.01 1:0.14280859 2:-2.5488125 
0.01 1:0.29338672 2:-4.0900625 
0.01 1:0.32233594 2:-3.5528125 
0.01 1:0.20560742 2:-3.632625 
0.01 1:0.16050391 2:-3.176 
0.01 1:0.17077148 2:-3.607875 
0.01 1:0.28458984 2:-5.68975 
0.01 1:0.27972656 2:-5.766375 
0.01 1:0.19998633 2:-3.9673125 
0.01 1:0.2487207 2:-5.019875 
0.01 1:0.23692383 2:-5.2616875 
0.01 1:0.28302148 2:-3.572375 
0.01 1:0.20992187 2:-4.632125 
0.01 1:0.1523418 2:-3.6244375 
0.01 1:0.20183789 2:-3.868875 
0.01 1:0.18902344 2:-4.05675 
0.01 1:0.22020313 2:-4.3205625 
0.01 1:0.30117969 2:-5.2889375 
0.01 1:0.2899082 2:-4.8065 
0.01 1:0.24804492 2:-3.8865 
0.01 1:0.28256055 2:-4.3718125 
0.01 1:0.24308984 2:-3.6590625 
0.01 1:0.12414258 2:-2.3363125 
0.01 1:0.29452344 2:-5.858625 
0.01 1:0.31426953 2:-4.364125 
0.01 1:0.25239648 2:-4.017875 
0.01 1:0.26439062 2:-3.920625 
0.01 1:0.13442383 2:-3.32075 
0.01 1:0.31061133 2:-5.5855625 
0.01 1:0.24987891 2:-4.8996875 
0.01 1:0.14933984 2:-2.861125 
0.01 1:0.17063867 2:-3.44675 
0.01 1:0.3395625 2:-5.95575 
0.01 1:0.15715234 2:-3.00575 
0.01 1:0.27930078 2:-5.494625 
0.01 1:0.22405859 2:-3.8614375 
0.01 1:0.18490625 2:-4.305 
0.01 1:0.11567383 2:-2.49925 
0.01 1:0.1967793 2:-4.2446875 
0.01 1:0.24836328 2:-4.981375 
0.01 1:0.1776582 2:-3.817625 
0.01 1:0.15704688 2:-3.08375 
0.01 1:0.15460156 2:-3.2545625 
0.01 1:0.22081836 2:-3.715625 
0.01 1:0.2052832 2:-4.142 
0.01 1:0.22949023 2:-4.5896875 
0.01 1:0.14358984 2:-3.1105 
0.01 1:0.31239258 2:-3.335375 
0.01 1:0.32786328 2:-5.173 
0.01 1:0.20821875 2:-4.0215 
0.01 1:0.16033594 2:-3.4038125 
0.01 1:0.11959766 2:-2.1474375 
0.01 1:0.20562109 2:-4.42025 
0.01 1:0.39354883 2:-5.9889375 
0.01 1:0.11307227 2:-2.4548125 
0.01 1:0.2107832 2:-4.512875 
0.01 1:0.24689063 2:-3.7405625 
0.01 1:0.32285156 2:-5.26975 
0.01 1:0.30325391 2:-4.8945625 
0.01 1:0.19614844 2:-2.9331875 
0.01 1:0.1608125 2:-3.3086875 
0.01 1:0.25145898 2:-4.9026875 
0.01 1:0.26274414 2:-5.226375 
0.01 1:0.31211133 2:-5.5661875 
0.01 1:0.29985352 2:-5.4546875 
0.01 1:0.27678516 2:-4.6961875 
0.01 1:0.13147852 2:-2.66425 
0.01 1:0.25610352 2:-4.7163125 
0.01 1:0.15868945 2:-3.581875 
0.01 1:0.2078125 2:-4.278 
0.01 1:0.25418359 2:-5.4633125 
0.01 1:0.21667773 2:-5.065875 
0.01 1:0.11673633 2:-2.6884375 
0.01 1:0.17999219 2:-3.5201875 
0.01 1:0.28702539 2:-5.30925 
0.01 1:0.20639648 2:-4.3219375 
0.01 1:0.25072656 2:-4.601875 
0.01 1:0.23946289 2:-4.7473125 
0.01 1:0.22498242 2:-4.971 
0.01 1:0.32047656 2:-5.663 
0.01 1:0.36684766 2:-5.885625 
0.01 1:0.16884961 2:-3.4281875 
0.01 1:0.25216016 2:-4.95275 
0.01 1:0.29137109 2:-5.3916875 
0.01 1:0.16872461 2:-2.8725625 
0.01 1:0.21582617 2:-4.73525 
0.01 1:0.15181445 2:-2.9251875 
0.01 1:0.19035547 2:-3.197625 
0.01 1:0.26589258 2:-4.75925 
0.01 1:0.29444336 2:-5.786 
0.01 1:0.17988086 2:-3.68975 
0.01 1:0.16594141 2:-2.926125 
0.01 1:0.42445703 2:-4.7930625 
0.01 1:0.12164258 2:-2.7250625 
0.01 1:0.19612891 2:-4.27875 
0.01 1:0.2049082 2:-4.3041875 
0.01 1:0.22241992 2:-4.2011875 
0.01 1:0.24145703 2:-5.20275 
0.01 1:0.29744727 2:-5.4004375 
0.01 1:0.28400586 2:-4.984125 
0.01 1:0.24781445 2:-4.7665625 
0.01 1:0.26652148 2:-4.352875 
0.01 1:0.22898633 2:-3.8538125 
0.01 1:0.24776758 2:-4.3211875 
0.01 1:0.16984375 2:-3.620125 
0.01 1:0.15073828 2:-3.9104375 
0.01 1:0.15983203 2:-3.2945625 
0.01 1:0.11468945 2:-2.700125 
0.01 1:0.24482813 2:-4.285875 
0.01 1:0.18330469 2:-3.5765 
0.01 1:0.17952539 2:-2.6530625 
0.01 1:0.23536914 2:-4.077375 
0.01 1:0.19237891 2:-4.173875 
0.01 1:0.15743945 2:-3.077375 
0.01 1:0.1796543 2:-4.172875 
0.01 1:0.17454883 2:-3.9793125 
0.01 1:0.18027344 2:-3.6921875 
0.01 1:0.16354492 2:-3.2545625 
0.01 1:0.2190332 2:-3.64075 
0.01 1:0.16485938 2:-3.327375 
0.01 1:0.27126758 2:-4.673875 
0.01 1:0.20120117 2:-4.0053125 
0.01 1:0.28327148 2:-5.4188125 
0.01 1:0.23177344 2:-4.517375 
0.01 1:0.24716016 2:-4.4928125 
0.01 1:0.18101367 2:-3.8128125 
0.01 1:0.17704492 2:-3.367875 
0.01 1:0.2063125 2:-3.6064375 
0.01 1:0.21396484 2:-4.0625625 
0.01 1:0.20857617 2:-3.8 
0.01 1:0.16742383 2:-3.3311875 
0.01 1:0.21798242 2:-4.41925 
0.01 1:0.20148437 2:-3.4808125 
0.01 1:0.14162891 2:-2.912125 
0.01 1:0.11232422 2:-2.5880625 
0.01 1:0.1845625 2:-3.876875 
0.01 1:0.2493457 2:-4.6851875 
0.01 1:0.21953711 2:-4.6820625 
0.01 1:0.2099043 2:-3.5541875 
0.01 1:0.21361133 2:-3.8678125 
0.01 1:0.19649805 2:-4.149 
0.01 1:0.16242188 2:-3.9239375 
0.01 1:0.22225 2:-4.2025 
0.01 1:0.19711133 2:-3.1739375 
0.01 1:0.2082207 2:-4.359125 
0.01 1:0.20746289 2:-3.017875 
0.01 1:0.20919336 2:-4.7135625 
0.01 1:0.1299375 2:-2.358625 
0.01 1:0.22073438 2:-4.42075 
0.01 1:0.13798438 2:-3.302 
0.01 1:0.18673828 2:-3.8420625 
0.01 1:0.30179687 2:-4.583125 
0.01 1:0.24010938 2:-4.32075 
0.01 1:0.17176563 2:-3.2689375 
0.01 1:0.29403906 2:-5.0471875 
0.01 1:0.13451953 2:-3.1604375 
0.01 1:0.18521094 2:-4.1219375 
0.01 1:0.18312109 2:-3.7689375 
0.01 1:0.21207031 2:-3.7689375 
0.01 1:0.20957227 2:-4.60125 
0.01 1:0.15839063 2:-3.1755 
0.01 1:0.15946289 2:-2.677 
0.01 1:0.32344922 2:-4.7141875 
0.01 1:0.31721875 2:-5.6945 
0.01 1:0.13750977 2:-3.2733125 
0.01 1:0.13548828 2:-3.4148125 
0.01 1:0.29786133 2:-5.276125 
0.01 1:0.38501367 2:-5.7355 
0.01 1:0.23757422 2:-3.913375 
0.01 1:0.19241016 2:-3.4095625 
0.01 1:0.2568418 2:-4.657 
0.01 1:0.1232832 2:-2.5836875 
0.01 1:0.23810352 2:-4.97125 
0.01 1:0.31161719 2:-4.9703125 
0.01 1:0.29496094 2:-4.4983125 
0.01 1:0.14011523 2:-2.8700625 
0.01 1:0.19351172 2:-3.924625 
0.01 1:0.28926172 2:-5.3529375 
0.01 1:0.27357227 2:-4.515875 
0.01 1:0.31765234 2:-5.4841875 
0.01 1:0.23656641 2:-5.13225 
0.01 1:0.15591602 2:-3.776625 
0.01 1:0.19133594 2:-3.9938125 
0.01 1:0.12365625 2:-2.7953125 
0.01 1:0.169 2:-3.4413125 
0.01 1:0.20010547 2:-4.0784375 
0.01 1:0.34186523 2:-5.8350625 
0.01 1:0.33609766 2:-5.6264375 
0.01 1:0.26944727 2:-3.795375 
0.01 1:0.16182812 2:-3.80425 
0.01 1:0.21940625 2:-4.2265625 
0.01 1:0.22945312 2:-4.614625 
0.01 1:0.3274082 2:-4.5879375 
0.01 1:0.24564648 2:-3.865375 
0.01 1:0.20620898 2:-3.808125 
0.01 1:0.2247832 2:-3.946875 
0.01 1:0.2594668 2:-4.8190625 
0.01 1:0.17507617 2:-3.6906875 
0.01 1:0.1082207 2:-2.2316875 
0.01 1:0.2639082 2:-5.1389375 
0.01 1:0.21848242 2:-4.455375 
0.01 1:0.27203125 2:-4.3726875 
0.01 1:0.2052832 2:-3.755625 
0.01 1:0.17117969 2:-2.7189375 
0.01 1:0.14431055 2:-2.7098125 
0.01 1:0.16926953 2:-3.60625 
0.01 1:0.1397793 2:-3.1024375 
0.01 1:0.15511914 2:-3.6179375 
0.01 1:0.14848633 2:-2.9063125 
0.01 1:0.17545312 2:-3.936625 
0.01 1:0.23702539 2:-4.615 
0.01 1:0.23659766 2:-4.324125 
0.01 1:0.20718359 2:-3.8455625 
0.01 1:0.17430664 2:-3.45025 
0.01 1:0.19180859 2:-3.9403125 
0.01 1:0.17616797 2:-3.5999375 
0.01 1:0.18235938 2:-3.0129375 
0.01 1:0.23611133 2:-4.6514375 
0.01 1:0.21383594 2:-4.016125 
0.01 1:0.14083398 2:-3.0911875 
0.01 1:0.23461328 2:-5.1766875 
0.01 1:0.16704688 2:-3.42775 
0.01 1:0.25655273 2:-4.507 
0.01 1:0.21199805 2:-3.9019375 
0.01 1:0.32137891 2:-4.984375 
0.01 1:0.34402344 2:-5.874 
0.01 1:0.30372656 2:-5.6384375 
0.01 1:0.16408984 2:-3.7249375 
0.01 1:0.249375 2:-5.0311875 
0.01 1:0.13165039 2:-2.7039375 
0.01 1:0.23767383 2:-4.242625 
0.01 1:0.10788672 2:-0.7638125 
0.01 1:0.2321582 2:-4.1448125 
0.01 1:0.2464082 2:-3.9310625 
0.01 1:0.23874805 2:-3.977375 
0.01 1:0.20005273 2:-3.7125625 
0.01 1:0.097283203 2:-2.3428125 
0.01 1:0.11764648 2:-2.7798125 
0.01 1:0.088455078 2:-2.1455 
0.01 1:0.1941543 2:-3.8710625 
0.01 1:0.273875 2:-5.762125 
0.01 1:0.24149023 2:-4.4803125 
0.01 1:0.17056445 2:-2.7794375 
0.01 1:0.16266602 2:-3.922375 
0.01 1:0.15013867 2:-3.0341875 
0.01 1:0.16381641 2:-3.3376875 
0.01 1:0.22923242 2:-4.659125 
0.01 1:0.15187109 2:-2.5178125 
0.01 1:0.13378516 2:-3.048875 
0.01 1:0.10449414 2:-2.4495 
0.01 1:0.11491797 2:-2.302125 
0.01 1:0.26442188 2:-5.5128125 
0.01 1:0.2462207 2:-5.1228125 
0.01 1:0.32538672 2:-5.82175 
0.01 1:0.24758789 2:-4.2194375 
0.01 1:0.12804883 2:-2.8983125 
0.01 1:0.18944141 2:-3.60075 
0.01 1:0.21955664 2:-4.0781875 
0.01 1:0.15978906 2:-3.0546875 
0.01 1:0.17538867 2:-4.007875 
0.01 1:0.13850586 2:-3.0759375 
0.01 1:0.13674023 2:-2.810375 
0.01 1:0.20986328 2:-4.2008125 
0.01 1:0.20377734 2:-3.9136875 
0.01 1:0.19224023 2:-3.7641875 
0.01 1:0.17798437 2:-3.617125 
0.01 1:0.20382617 2:-3.0071875 
0.01 1:0.17154883 2:-3.5608125 
0.01 1:0.15099805 2:-3.0730625 
0.01 1:0.14513867 2:-3.324375 
0.01 1:0.19398438 2:-4.392625 
0.01 1:0.181125 2:-3.933125 
0.01 1:0.16257031 2:-3.3836875 
0.01 1:0.1769707 2:-3.981125 
0.01 1:0.22323828 2:-4.847625 
0.01 1:0.16563086 2:-3.213125 
0.01 1:0.093474609 2:-2.29 
0.01 1:0.16586328 2:-4.110875 
0.01 1:0.089224609 2:-2.2149375 
0.01 1:0.22213477 2:-4.2635625 
0.01 1:0.25172266 2:-5.077125 
0.01 1:0.15973242 2:-3.5840625 
0.01 1:0.18165039 2:-2.6295 
0.01 1:0.1672168 2:-3.3611875 
0.01 1:0.22043555 2:-4.38875 
0.01 1:0.18387891 2:-3.7400625 
0.01 1:0.35895312 2:-5.38 
0.01 1:0.15099414 2:-3.5285625 
0.01 1:0.17123437 2:-3.3623125 
0.01 1:0.1675918 2:-3.143 
0.01 1:0.16387695 2:-3.2295625 
0.01 1:0.25073828 2:-3.981875 
0.01 1:0.16200977 2:-3.2114375 
0.01 1:0.15425 2:-3.3069375 
0.01 1:0.26006055 2:-4.025625 
0.01 1:0.21588086 2:-4.6470625 
0.01 1:0.18858008 2:-3.26925 
0.01 1:0.16830664 2:-4.0475 
0.01 1:0.19770117 2:-3.8305625 
0.01 1:0.22319727 2:-3.79 
0.01 1:0.18542383 2:-3.4695 
0.01 1:0.18305664 2:-3.4683125 
0.01 1:0.24521484 2:-4.95975 
0.01 1:0.25509375 2:-4.5146875 
0.01 1:0.22464063 2:-4.6425 
0.01 1:0.24220117 2:-5.2620625 
0.01 1:0.24301953 2:-5.067625 
0.01 1:0.26394336 2:-5.5184375 
0.01 1:0.17325781 2:-3.0504375 
0.01 1:0.096158203 2:-2.4403125 
0.01 1:0.26612695 2:-4.95275 
0.01 1:0.31826172 2:-5.8076875 
0.01 1:0.21189258 2:-4.8935 
0.01 1:0.26025391 2:-4.943875 
0.01 1:0.22183594 2:-4.183375 
0.01 1:0.18769531 2:-4.1099375 
0.01 1:0.15244141 2:-3.0126875 
0.01 1:0.18183594 2:-4.09675 
0.01 1:0.16499414 2:-3.35325 
0.01 1:0.19660547 2:-3.6106875 
0.01 1:0.26517773 2:-5.7705 
0.01 1:0.23208594 2:-4.444875 
0.01 1:0.16426172 2:-3.277875 
0.01 1:0.19710742 2:-4.32825 
0.01 1:0.090146484 2:-2.255375 
0.01 1:0.156 2:-3.389625 
0.01 1:0.30283789 2:-5.636875 
0.01 1:0.28025586 2:-5.4515 
0.01 1:0.25190234 2:-4.1924375 
0.01 1:0.15211719 2:-3.4205 
0.01 1:0.23002734 2:-4.8020625 
0.01 1:0.091326172 2:-2.0931875 
0.01 1:0.24838867 2:-5.320625 
0.01 1:0.1895625 2:-3.3044375 
0.01 1:0.21265039 2:-3.7266875 
0.01 1:0.21227734 2:-3.9625 
0.01 1:0.16800781 2:-3.335375 
0.01 1:0.20410352 2:-5.0283125 
0.01 1:0.17917773 2:-3.852375 
0.01 1:0.14841406 2:-3.5308125 
0.01 1:0.15353906 2:-3.362 
0.01 1:0.16489453 2:-3.8350625 
0.01 1:0.19635742 2:-4.18325 
0.01 1:0.22320508 2:-4.4395625 
0.01 1:0.087019531 2:-2.105 
0.01 1:0.12753711 2:-2.747625 
0.01 1:0.26061328 2:-5.075375 
0.01 1:0.23141602 2:-3.70475 
0.01 1:0.14464258 2:-3.03075 
0.01 1:0.17656055 2:-4.049 
0.01 1:0.10349609 2:-2.527125 
0.01 1:0.19636914 2:-3.620125 
0.01 1:0.23671484 2:-4.6655625 
0.01 1:0.16782812 2:-3.937 
0.01 1:0.18161328 2:-3.344125 
0.01 1:0.19938086 2:-4.527 
0.01 1:0.21603711 2:-4.561 
0.01 1:0.16039453 2:-3.9334375 
0.01 1:0.10792188 2:-2.571 
0.01 1:0.10254883 2:-2.6481875 
0.01 1:0.18766016 2:-2.834875 
0.01 1:0.19924219 2:-3.78625 
0.01 1:0.18298047 2:-3.544875 
0.01 1:0.24120508 2:-4.85975 
0.01 1:0.25561914 2:-3.6824375 
0.01 1:0.17507617 2:-3.894 
0.01 1:0.10382617 2:-1.89325 
0.01 1:0.14239648 2:-2.7166875 
0.01 1:0.079349609 2:-1.6896875 
0.01 1:0.076787109 2:-1.723625 
0.01 1:0.090884766 2:-1.8548125 
0.01 1:0.24784766 2:-3.7591875 
0.01 1:0.20969922 2:-4.5064375 
0.01 1:0.26219922 2:-5.5840625 
0.01 1:0.24060352 2:-4.693 
0.01 1:0.2394375 2:-4.736625 
0.01 1:0.14207031 2:-3.0404375 
0.01 1:0.32199023 2:-4.8565 
0.01 1:0.12178906 2:-2.817 
0.01 1:0.19722461 2:-3.7011875 
0.01 1:0.093445313 2:-1.990875 
0.01 1:0.32268945 2:-6.0975 
0.01 1:0.13778906 2:-3.1403125 
0.01 1:0.24024219 2:-4.55325 
0.01 1:0.35592578 2:-5.0685625 
0.01 1:0.17208594 2:-3.5984375 
0.01 1:0.19034375 2:-3.3563125 
0.01 1:0.15785352 2:-3.62625 
0.01 1:0.25451562 2:-4.7883125 
0.01 1:0.17577539 2:-3.6035625 
0.01 1:0.17992969 2:-3.8296875 
0.01 1:0.23275195 2:-4.741375 
0.01 1:0.15835352 2:-3.1899375 
0.01 1:0.18272266 2:-4.05425 
0.01 1:0.14129883 2:-3.09775 
0.01 1:0.27161133 2:-4.981 
0.01 1:0.29528906 2:-5.3894375 
0.01 1:0.1741582 2:-3.27975 
0.01 1:0.12846289 2:-2.95275 
0.01 1:0.1423125 2:-3.2208125 
0.01 1:0.11874023 2:-2.7379375 
0.01 1:0.12012305 2:-2.803 
0.01 1:0.10036328 2:-2.349375 
0.01 1:0.2374082 2:-4.640875 
0.01 1:0.20635352 2:-3.929625 
0.01 1:0.22411133 2:-4.558375 
0.01 1:0.11204297 2:-2.446125 
0.01 1:0.1684668 2:-3.364625 
0.01 1:0.16215625 2:-3.688625 
0.01 1:0.30887305 2:-5.4248125 
0.01 1:0.20403516 2:-4.382375 
0.01 1:0.19595898 2:-3.7265625 
0.01 1:0.15037695 2:-2.9729375 
0.01 1:0.1552168 2:-3.012125 
0.01 1:0.19602539 2:-4.35925 
0.01 1:0.20631055 2:-3.800375 
0.01 1:0.2140918 2:-4.74425 
0.01 1:0.21691016 2:-3.847 
0.01 1:0.2174043 2:-3.4804375 
0.01 1:0.28879688 2:-4.4715 
0.01 1:0.28149414 2:-4.88575 
0.01 1:0.32181836 2:-5.1540625 
0.01 1:0.1791875 2:-3.6853125 
0.01 1:0.17175391 2:-2.844375 
0.01 1:0.34576953 2:-4.79525 
0.01 1:0.16672461 2:-3.398875 
0.01 1:0.24148242 2:-4.3440625 
0.01 1:0.24851563 2:-4.2783125 
0.01 1:0.23905859 2:-4.34175 
0.01 1:0.29775781 2:-4.6875 
0.01 1:0.36097461 2:-6.4238125 
0.01 1:0.31773438 2:-5.2178125 
0.01 1:0.18129297 2:-3.3499375 
0.01 1:0.17897461 2:-3.3109375 
0.01 1:0.19655469 2:-4.0448125 
0.01 1:0.28470117 2:-5.518375 
0.01 1:0.28018164 2:-5.1475625 
0.01 1:0.28180273 2:-5.125 
0.01 1:0.22941797 2:-3.9183125 
0.01 1:0.13844727 2:-3.4694375 
0.01 1:0.19876758 2:-3.76275 
0.01 1:0.16373633 2:-3.692 
0.01 1:0.099566406 2:-2.39075 
0.01 1:0.19 2:-2.9119375 
0.01 1:0.22447461 2:-3.3846875 
0.01 1:0.19928711 2:-2.6759375 
0.01 1:0.11428711 2:-2.539875 
0.01 1:0.41570703 2:-5.70025 
0.01 1:0.1853418 2:-4.0305625 
0.01 1:0.23572656 2:-3.5988125 
0.01 1:0.19175 2:-3.8348125 
0.01 1:0.26298828 2:-4.5124375 
0.01 1:0.24388672 2:-4.416375 
0.01 1:0.31403516 2:-4.7519375 
0.01 1:0.249375 2:-4.0724375 
0.01 1:0.25215234 2:-4.9543125 
0.01 1:0.14244141 2:-2.752 
0.01 1:0.23822656 2:-4.2061875 
0.01 1:0.19458008 2:-3.5919375 
0.01 1:0.19827148 2:-3.9509375 
0.01 1:0.11911719 2:-2.54775 
0.01 1:0.13181055 2:-2.4746875 
0.01 1:0.23883203 2:-4.2444375 
0.01 1:0.19692187 2:-3.781625 
0.01 1:0.14575 2:-3.0774375 
0.01 1:0.15851562 2:-3.6440625 
0.01 1:0.16992578 2:-3.4936875 
0.01 1:0.17355273 2:-3.04975 
0.01 1:0.14199219 2:-2.8046875 
0.01 1:0.28924414 2:-6.0709375 
0.01 1:0.18808789 2:-3.8718125 
0.01 1:0.077703125 2:-1.7349375 
0.01 1:0.091894531 2:-1.8661875 
0.01 1:0.27551563 2:-4.810875 
0.01 1:0.2065918 2:-3.79375 
0.01 1:0.24606641 2:-4.011125 
0.01 1:0.22251758 2:-4.223375 
0.01 1:0.20078906 2:-3.7110625 
0.01 1:0.17662891 2:-4.19575 
0.01 1:0.14820898 2:-3.221625 
0.01 1:0.40796094 2:-6.3503125 
0.01 1:0.28318945 2:-4.6805625 
0.01 1:0.21027539 2:-4.002 
0.01 1:0.14532031 2:-2.90125 
0.01 1:0.23077344 2:-4.6613125 
0.01 1:0.18275195 2:-3.747 
0.01 1:0.18873437 2:-3.9215625 
0.01 1:0.23742969 2:-4.69325 
0.01 1:0.27406641 2:-5.22475 
0.01 1:0.23213672 2:-4.9410625 
0.01 1:0.14437891 2:-2.991375 
0.01 1:0.26983984 2:-5.2569375 
0.01 1:0.2595918 2:-3.181375 
0.01 1:0.15342969 2:-3.0081875 
0.01 1:0.15626758 2:-3.13425 
0.01 1:0.20958594 2:-4.371625 
0.01 1:0.27804883 2:-4.917125 
0.01 1:0.13896484 2:-2.837125 
0.01 1:0.16957227 2:-3.7373125 
0.01 1:0.16194922 2:-3.18525 
0.01 1:0.22953516 2:-4.7948125 
0.01 1:0.24111133 2:-4.3975625 
0.01 1:0.21967187 2:-4.086125 
0.01 1:0.13609375 2:-2.8210625 
0.01 1:0.29561328 2:-3.4695625 
0.01 1:0.21693359 2:-4.2391875 
0.01 1:0.30233398 2:-5.5493125 
0.01 1:0.20223633 2:-4.10725 
0.01 1:0.20036719 2:-4.3238125 
0.01 1:0.138125 2:-3.5304375 
0.01 1:0.16253516 2:-3.7593125 
0.01 1:0.28900781 2:-4.7948125 
0.01 1:0.21085156 2:-3.8074375 
0.01 1:0.16768555 2:-3.1911875 
0.01 1:0.18057031 2:-4.090625 
0.01 1:0.17387305 2:-3.2475 
0.01 1:0.20933984 2:-4.3206875 
0.01 1:0.19910742 2:-3.6005 
0.01 1:0.27653906 2:-1.923375 
0.01 1:0.35023242 2:-5.6015 
0.01 1:0.28097656 2:-4.3633125 
0.01 1:0.13396289 2:-2.110125 
0.01 1:0.15910547 2:-4.0384375 
0.01 1:0.13801953 2:-3.2393125 
0.01 1:0.23673437 2:-4.8410625 
0.01 1:0.20195117 2:-3.5916875 
-0.01 1:0.21278516 2:-3.721375 
-0.01 1:0.20914258 2:-3.79575 
-0.01 1:0.20930078 2:-3.767125 
-0.000495756024096472 1:0.12761914 2:-3.1504375 
-0.01 1:0.23323633 2:-4.245875 
-0.01 1:0.11708789 2:-2.7410625 
-0.0008733191882844964 1:0.41233789 2:-5.5705 
-0.01 1:0.21973828 2:-3.86075 
-0.009993721744725513 1:0.34718164 2:-5.0629375 
-0.01 1:0.27704883 2:-4.812625 
-0.01 1:0.25520508 2:-4.975 
-0.01 1:0.25219727 2:-3.65825 
-0.01 1:0.32887109 2:-4.583875 
-0.01 1:0.32936523 2:-4.9815 
-0.01 1:0.28472852 2:-5.4161875 
-0.01 1:0.16754883 2:-3.00825 
-0.01 1:0.19998828 2:-4.3165625 
-0.01 1:0.1929668 2:-3.8806875 
-0.01 1:0.17541602 2:-3.6166875 
-0.01 1:0.24427539 2:-4.5516875 
-0.01 1:0.15451758 2:-3.617125 
-0.01 1:0.20004297 2:-3.977 
-0.01 1:0.26468555 2:-4.594875 
-0.01 1:0.16800391 2:-4.0455 
-0.01 1:0.19798242 2:-3.7665 
-0.01 1:0.20749805 2:-4.2295 
-0.01 1:0.23658008 2:-4.75075 
-0.01 1:0.18142773 2:-3.918625 
-0.01 1:0.18956836 2:-3.929875 
-0.01 1:0.19194531 2:-3.868625 
-0.01 1:0.22577344 2:-4.980125 
-0.01 1:0.28038086 2:-4.51125 
-0.009951699293646738 1:0.10011719 2:-1.7415625 
-0.01 1:0.23699023 2:-4.6709375 
-0.01 1:0.20204297 2:-4.244125 
-0.01 1:0.16511328 2:-3.0784375 
-0.01 1:0.26513867 2:-4.947625 
-0.01 1:0.27569727 2:-5.115 
-0.01 1:0.17742578 2:-3.540875 
-0.01 1:0.17953516 2:-3.5239375 
-0.01 1:0.22054102 2:-4.6275625 
-0.01 1:0.20408203 2:-4.0919375 
-0.01 1:0.13626172 2:-2.8964375 
-0.01 1:0.17929883 2:-3.351875 
-0.01 1:0.11208398 2:-2.1299375 
-0.01 1:0.24193359 2:-4.4168125 
-0.01 1:0.2238125 2:-3.79475 
-0.01 1:0.16731445 2:-3.6010625 
-0.01 1:0.20133789 2:-4.279625 
-0.01 1:0.15137891 2:-3.006625 
-0.01 1:0.27254883 2:-4.6736875 
-0.01 1:0.24926172 2:-4.9521875 
-0.01 1:0.25137305 2:-4.0179375 
-0.01 1:0.25526562 2:-5.0723125 
-0.01 1:0.24241602 2:-4.259875 
-0.01 1:0.20799219 2:-4.0975625 
-0.01 1:0.13936914 2:-2.2974375 
-0.01 1:0.18247852 2:-3.4698125 
-0.01 1:0.24461719 2:-3.759875 
-0.01 1:0.31208594 2:-5.566 
-0.0001223803005072092 1:0.25940625 2:-5.0618125 
-0.01 1:0.15067578 2:-3.0638125 
-0.01 1:0.16535352 2:-3.2903125 
-0.01 1:0.19467773 2:-4.1794375 
-0.01 1:0.17297461 2:-3.49175 
-0.01 1:0.15999805 2:-3.0535 
-0.01 1:0.35225586 2:-5.7073125 
-0.01 1:0.1618418 2:-2.8759375 
-0.01 1:0.16104883 2:-3.1120625 
-0.01 1:0.16298828 2:-3.2735 
-0.01 1:0.30485937 2:-4.899375 
-0.01 1:0.284625 2:-5.445375 
-0.01 1:0.24679687 2:-4.9829375 
-0.01 1:0.22739648 2:-4.514875 
-0.01 1:0.27245117 2:-3.922625 
-0.01 1:0.24570312 2:-4.9655625 
-0.01 1:0.18111133 2:-3.8718125 
-0.01 1:0.19030078 2:-4.238 
-0.01 1:0.14078516 2:-2.9080625 
-0.01 1:0.22813477 2:-4.2560625 
-0.01 1:0.30248438 2:-5.774375 
-0.01 1:0.16525 2:-3.4219375 
-0.01 1:0.17 2:-3.446 
-0.01 1:0.15940039 2:-3.1838125 
-0.01 1:0.18441602 2:-3.94975 
-0.01 1:0.19549805 2:-3.938375 
-0.0003368937675689504 1:0.52801953 2:-5.481 
-0.01 1:0.13395313 2:-2.58675 
-0.01 1:0.11805469 2:-2.27 
-0.01 1:0.16533203 2:-3.7995 
-0.01 1:0.27733398 2:-4.9113125 
-0.01 1:0.19699805 2:-4.1509375 
-0.01 1:0.19805664 2:-3.72775 
-0.01 1:0.22445117 2:-4.268625 
-0.01 1:0.18468164 2:-3.602 
-0.01 1:0.11633203 2:-2.3460625 
-0.01 1:0.17423047 2:-3.274 
-0.01 1:0.13996484 2:-3.0751875 
-0.01 1:0.21854297 2:-4.6409375 
-0.009994018997882666 1:0.21612695 2:-4.571875 
-0.01 1:0.12272852 2:-2.4301875 
-0.01 1:0.24975391 2:-4.9430625 
-0.01 1:0.18807031 2:-4.1786875 
-0.01 1:0.21657813 2:-4.06625 
-0.01 1:0.28495703 2:-4.809125 
-0.01 1:0.31384961 2:-5.691875 
-0.01 1:0.3482832 2:-5.8353125 
-0.01 1:0.20766602 2:-4.0169375 
-0.01 1:0.24275586 2:-4.3421875 
-0.01 1:0.21073242 2:-4.0100625 
-0.01 1:0.20251562 2:-4.3700625 
-0.01 1:0.21664258 2:-3.8098125 
-0.01 1:0.23866406 2:-4.9033125 
-0.01 1:0.25950977 2:-4.6583125 
-0.01 1:0.33651953 2:-5.174875 
-0.0004167738185134629 1:0.3979668 2:-6.434375 
-0.01 1:0.1842832 2:-2.837 
-0.01 1:0.13291602 2:-2.10625 
-0.01 1:0.23485742 2:-4.6140625 
-0.01 1:0.17041797 2:-3.62 
-0.01 1:0.3255625 2:-6.09575 
-0.01 1:0.18996484 2:-3.868 
-0.01 1:0.1603125 2:-3.0386875 
-0.01 1:0.18447266 2:-3.1966875 
-0.01 1:0.18250586 2:-3.7494375 
-0.01 1:0.27755664 2:-5.39075 
-0.01 1:0.18078125 2:-3.5711875 
-0.01 1:0.23883203 2:-4.6520625 
-0.01 1:0.22332031 2:-3.847 
-0.009961116549988745 1:0.41219531 2:-7.08375 
-0.01 1:0.37899609 2:-5.7434375 
-0.01 1:0.14039648 2:-2.7203125 
-0.01 1:0.20934961 2:-3.377625 
-0.01 1:0.1494082 2:-2.75125 
-0.01 1:0.15603125 2:-3.233625 
-0.01 1:0.18258203 2:-3.4679375 
-0.01 1:0.26061719 2:-5.466125 
-0.01 1:0.25234375 2:-3.647875 
-0.0003858248327409192 1:0.1969668 2:-4.3445625 
-0.009999999999999998 1:0.15241797 2:-2.6614375 
-0.01 1:0.21329492 2:-4.0851875 
-0.01 1:0.24530469 2:-4.861 
-0.01 1:0.33639062 2:-5.632125 
-0.01 1:0.1732793 2:-3.3630625 
-0.01 1:0.17326563 2:-3.60525 
-0.01 1:0.14036523 2:-2.703625 
-0.01 1:0.15107227 2:-3.094 
-0.01 1:0.18976758 2:-4.0565625 
-0.01 1:0.32481836 2:-6.3535 
-0.01 1:0.12210156 2:-2.33825 
-0.01 1:0.17563477 2:-3.6879375 
-0.002622655669020473 1:0.24851367 2:-4.4968125 
-0.01 1:0.28478516 2:-5.7710625 
-8.561533278891119e-05 1:0.52820117 2:-3.1533125 
-1.959724799206812e-05 1:0.53497656 2:-4.1345 
-0.01 1:0.20202539 2:-3.603875 
-0.01 1:0.28648438 2:-5.312 
-0.01 1:0.23030078 2:-4.562125 
-0.01 1:0.29967383 2:-4.1315625 
-0.01 1:0.27151172 2:-4.3516875 
-0.01 1:0.12290039 2:-2.5601875 
-0.01 1:0.24225781 2:-3.93575 
-0.01 1:0.19994727 2:-3.95225 
-0.01 1:0.22086914 2:-3.7381875 
-0.01 1:0.26462695 2:-4.9809375 
-0.01 1:0.22991602 2:-5.1326875 
-0.005373075269531824 1:0.2037168 2:-4.164625 
-0.01 1:0.17627734 2:-3.7154375 
-0.01 1:0.17897656 2:-3.216625 
-0.01 1:0.19631641 2:-3.776 
-0.01 1:0.19228711 2:-3.721375 
-6.474301522978271e-05 1:0.12288477 2:-2.757375 
-0.01 1:0.16573828 2:-3.3041875 
-0.01 1:0.15448633 2:-3.7628125 
-0.01 1:0.18080469 2:-3.690125 
-0.01 1:0.21158789 2:-3.901625 
-0.01 1:0.165 2:-3.3045625 
-0.01 1:0.14333789 2:-2.5066875 
-0.01 1:0.2285293 2:-4.7909375 
-0.01 1:0.25946094 2:-4.9086875 
-0.01 1:0.190125 2:-3.3479375 
-0.01 1:0.15593555 2:-3.0060625 
-0.009607930266546721 1:0.3180957 2:-4.3368125 
-0.007377344330979528 1:0.24598828 2:-4.489875 
-0.00645896846363719 1:0.13062305 2:-1.9200625 
-0.01 1:0.18390234 2:-3.9641875 
-0.01 1:0.27118945 2:-5.1365625 
-0.01 1:0.16715039 2:-3.0455 
-0.004626924730468177 1:0.19795508 2:-4.1676875 
-0.01 1:0.1738125 2:-3.8840625 
-0.01 1:0.098121094 2:-1.977625 
-0.01 1:0.20826953 2:-3.633 
-0.01 1:0.18081641 2:-3.34325 
-0.01 1:0.17773633 2:-3.628625 
-0.01 1:0.17764258 2:-3.615625 
-0.009879270041814429 1:0.18991211 2:-4.3025 
-0.01 1:0.17910547 2:-3.856 
-0.01 1:0.28919727 2:-4.9364375 
-0.01 1:0.25924609 2:-4.822625 
-0.01 1:0.33349023 2:-5.87225 
-0.01 1:0.19905664 2:-3.7884375 
-0.01 1:0.29367383 2:-5.8570625 
-0.01 1:0.27248438 2:-4.349875 
-0.01 1:0.29096289 2:-5.5216875 
-0.01 1:0.22663281 2:-4.6451875 
-0.01 1:0.21619336 2:-3.8670625 
-0.01 1:0.21616992 2:-4.3509375 
-0.01 1:0.25119336 2:-5.2188125 
-0.01 1:0.17179883 2:-4.12625 
-0.01 1:0.26604883 2:-5.25375 
-0.01 1:0.21367188 2:-3.5629375 
-0.01 1:0.25031445 2:-4.073125 
-0.00147665959146037 1:0.39774414 2:-6.05375 
-0.01 1:0.17220508 2:-3.4438125 
-0.01 1:0.16884766 2:-3.1375625 
-0.01 1:0.22074023 2:-4.273625 
-0.01 1:0.16263672 2:-3.347625 
-0.01 1:0.12046484 2:-2.772625 
-0.01 1:0.24185742 2:-3.9803125 
-0.01 1:0.27169336 2:-5.148125 
-0.01 1:0.21359961 2:-3.6458125 
-0.01 1:0.2465293 2:-4.695875 
-0.01 1:0.18764453 2:-3.5874375 
-0.01 1:0.16270117 2:-3.36225 
-0.01 1:0.16446875 2:-3.5409375 
-0.008451748236335002 1:0.20025195 2:-2.91475 
-0.01 1:0.10554297 2:-2.39975 
-0.005375405060379595 1:0.17863086 2:-3.4599375 
-0.01 1:0.16879297 2:-3.4405 
-0.004278130966529758 1:0.16398828 2:-2.6860625 
-0.01 1:0.1496875 2:-2.9224375 
-0.01 1:0.20332227 2:-4.2685625 
-0.01 1:0.18257227 2:-3.9139375 
-0.001548251763664998 1:0.17099023 2:-2.9165625 
-0.01 1:0.20479297 2:-4.5269375 
-0.01 1:0.1538125 2:-2.801 
-0.007741378952670791 1:0.22475195 2:-4.8864375 
-0.01 1:0.29112109 2:-4.6861875 
-0.01 1:0.2444375 2:-4.2815625 
-0.01 1:0.21028906 2:-4.5154375 
-0.01 1:0.22146875 2:-4.413 
-0.0003528500238750591 1:0.18048437 2:-4.2701875 
-0.00291551738103031 1:0.15563281 2:-3.469125 
-0.01 1:0.20227148 2:-3.4111875 
-0.01 1:0.284875 2:-5.496625 
-0.01 1:0.1425293 2:-2.8435 
-0.01 1:0.1806875 2:-3.8233125 
-0.01 1:0.13337695 2:-2.63725 
-0.01 1:0.15659961 2:-3.070875 
-0.01 1:0.28873242 2:-4.8899375 
-0.01 1:0.18136328 2:-3.9119375 
-0.01 1:0.32687305 2:-5.4759375 
-0.01 1:0.23266016 2:-4.689 
-0.01 1:0.24060547 2:-4.2458125 
-0.01 1:0.20789648 2:-4.8635625 
-0.01 1:0.23249414 2:-3.9426875 
-0.01 1:0.21965625 2:-4.0564375 
-0.009813820239493939 1:0.1310332 2:-3.0138125 
-0.01 1:0.15527148 2:-3.574 
-0.01 1:0.082253906 2:-1.711875 
-0.01 1:0.37858984 2:-6.0868125 
-0.01 1:0.31535937 2:-4.855125 
-0.01 1:0.18666406 2:-3.8370625 
-0.01 1:0.15663281 2:-3.2999375 
-0.01 1:0.15878516 2:-3.40725 
-0.01 1:0.17560156 2:-3.320375 
-0.01 1:0.14660547 2:-3.27375 
-0.01 1:0.19176563 2:-3.596625 
-0.01 1:0.2179043 2:-4.7313125 
-0.01 1:0.1550625 2:-3.471625 
-0.009935256984770217 1:0.17013477 2:-2.714375 
-3.455298497579735e-05 1:0.49560547 2:-4.876 
-0.01 1:0.17887109 2:-3.7491875 
-0.01 1:0.20374609 2:-3.9115625 
-0.01 1:0.26202148 2:-4.5193125 
-0.000440484842190879 1:0.34056836 2:-6.399125 
-0.01 1:0.20293359 2:-3.7611875 
-0.01 1:0.23572266 2:-3.609125 
-0.01 1:0.20121875 2:-4.0243125 
-0.01 1:0.25950391 2:-5.104375 
-0.01 1:0.18203125 2:-3.7155625 
-0.01 1:0.27145703 2:-4.896875 
-0.01 1:0.20151953 2:-4.1438125 
-0.01 1:0.19595898 2:-3.706625 
-0.01 1:0.18467187 2:-3.978875 
-0.008941119994077444 1:0.24993945 2:-5.5373125 
-0.01 1:0.21530078 2:-4.203625 
-0.0001207299581855698 1:0.19073438 2:-4.4073125 
-0.01 1:0.19478711 2:-3.9204375 
-0.0008517839724133773 1:0.28153906 2:-5.5325 
-0.01 1:0.36959961 2:-5.9623125 
-0.01 1:0.2390332 2:-4.7351875 
-0.01 1:0.27291602 2:-4.354625 
-1.529204665026872e-05 1:0.15628906 2:-3.502625 
-0.01 1:0.19984375 2:-4.152625 
-0.01 1:0.17984766 2:-3.559 
-0.01 1:0.23148828 2:-3.603875 
-0.01 1:0.12785937 2:-3.4310625 
-0.01 1:0.24168555 2:-5.2645625 
-0.01 1:0.24235156 2:-4.3270625 
-0.009928683910728413 1:0.23286914 2:-5.2669375 
-0.01 1:0.13827344 2:-2.6864375 
-0.01 1:0.19408398 2:-3.9269375 
-0.01 1:0.21072852 2:-3.4869375 
-0.01 1:0.24624609 2:-5.011375 
-0.01 1:0.25458203 2:-3.885375 
-0.01 1:0.083269531 2:-1.9089375 
-0.0001825776719796176 1:0.17083203 2:-4.0699375 
-0.01 1:0.18242773 2:-3.8430625 
-0.01 1:0.29868555 2:-5.44775 
-0.004312816727500396 1:0.25332031 2:-3.16875 
-0.01 1:0.14549609 2:-2.8609375 
-0.004975490307251889 1:0.13369531 2:-2.6811875 
-0.01 1:0.11307227 2:-2.437125 
-0.01 1:0.27546094 2:-3.8045625 
-0.01 1:0.15469141 2:-3.0516875 
-0.00403984458223763 1:0.13674414 2:-2.6331875 
-0.01 1:0.15378711 2:-2.6814375 
-0.01 1:0.21655469 2:-4.2428125 
-0.01 1:0.29257812 2:-4.753 
-0.01 1:0.31054102 2:-4.9661875 
-0.01 1:0.24138477 2:-4.280625 
-0.01 1:0.19193555 2:-3.7229375 
-0.01 1:0.23487305 2:-4.7185625 
-0.01 1:0.099441406 2:-2.0795 
-0.01 1:0.1417793 2:-3.0480625 
-0.01 1:0.16170898 2:-3.8336875 
-0.01 1:0.241125 2:-4.6085 
-0.01 1:0.15921289 2:-3.507 
-0.01 1:0.15175 2:-2.97025 
-0.01 1:0.24904492 2:-3.73525 
-0.01 1:0.21464258 2:-4.6244375 
-0.009963053847735003 1:0.23021875 2:-4.95975 
-0.01 1:0.24682227 2:-3.861875 
-0.01 1:0.18800781 2:-3.768125 
-0.01 1:0.23883594 2:-4.293125 
-0.000340816074453409 1:0.17967383 2:-4.1776875 
-0.01 1:0.15552148 2:-3.5993125 
-0.01 1:0.23888281 2:-5.203 
-0.01 1:0.27892383 2:-4.925875 
-0.01 1:0.11834375 2:-2.6625 
-0.01 1:0.32116211 2:-5.215 
-0.01 1:0.129375 2:-2.6505625 
-0.01 1:0.32123828 2:-5.983375 
-0.01 1:0.23117969 2:-3.998875 
-0.00243237917632734 1:0.19359766 2:-3.0270625 
-0.01 1:0.11894727 2:-2.755 
-0.01 1:0.2605957 2:-4.3708125 
-0.001986406002287441 1:0.33494336 2:-6.0705625 
-0.01 1:0.15662109 2:-3.363625 
-0.01 1:0.31896094 2:-5.0758125 
-0.01 1:0.28564844 2:-5.3563125 
-0.01 1:0.17236133 2:-3.4455 
-0.01 1:0.17954883 2:-3.3505625 
-0.01 1:0.23323438 2:-4.785 
-0.01 1:0.14313281 2:-2.5671875 
-0.01 1:0.19753125 2:-3.80925 
-0.01 1:0.10730859 2:-1.8963125 
-0.01 1:0.2102832 2:-4.280125 
-0.01 1:0.17776172 2:-3.941625 
-0.01 1:0.18870117 2:-3.0108125 
-0.01 1:0.30499414 2:-5.6374375 
-0.01 1:0.1194082 2:-2.294 
-0.01 1:0.27081641 2:-5.5245 
-0.01 1:0.19169922 2:-3.3955 
-0.01 1:0.1920293 2:-3.27425 
-0.01 1:0.2285625 2:-4.742625 
-0.01 1:0.27311133 2:-4.796125 
-0.004024862430535015 1:0.14104297 2:-2.236375 
-0.003541031536362811 1:0.10699219 2:-1.968375 
-0.01 1:0.15916406 2:-3.2581875 
-0.01 1:0.15605664 2:-3.3848125 
-0.01 1:0.17215039 2:-3.63775 
-0.01 1:0.17035938 2:-3.4815 
-0.01 1:0.13572852 2:-2.5335 
-0.01 1:0.25020898 2:-5.5086875 
-0.01 1:0.23166406 2:-4.7021875 
-0.01 1:0.25088867 2:-4.781375 
-0.01 1:0.17587695 2:-3.6184375 
-0.01 1:0.20494531 2:-3.0038125 
-0.01 1:0.11286719 2:-2.107375 
-0.01 1:0.2189375 2:-4.7980625 
-0.01 1:0.23531641 2:-4.8604375 
-0.01 1:0.15904297 2:-3.7005625 
-0.01 1:0.17964063 2:-3.5225 
-0.01 1:0.17205664 2:-3.2275 
-0.01 1:0.22132813 2:-4.737625 
-0.01 1:0.17485547 2:-4.1879375 
-0.005243140714445951 1:0.23007227 2:-3.1764375 
-0.01 1:0.22197656 2:-4.3826875 
-0.01 1:0.10407031 2:-2.424125 
-0.01 1:0.14301563 2:-3.3251875 
-0.01 1:0.2355625 2:-5.174625 
-0.01 1:0.13747656 2:-2.793375 
-0.01 1:0.13429297 2:-3.16725 
-0.01 1:0.15030469 2:-2.90425 
-0.01 1:0.36211133 2:-5.380375 
-0.01 1:0.19598633 2:-3.6105625 
-0.01 1:0.32567383 2:-4.7173125 
-0.01 1:0.20870898 2:-4.1036875 
-0.01 1:0.19154492 2:-4.0826875 
-0.01 1:0.29933594 2:-5.2721875 
-0.01 1:0.28783203 2:-5.12625 
-0.01 1:0.13604102 2:-2.4754375 
-0.01 1:0.16870898 2:-3.1403125 
-0.01 1:0.20908984 2:-3.960375 
-0.01 1:0.26134961 2:-5.7624375 
-0.01 1:0.30909961 2:-4.58375 
-0.01 1:0.25590625 2:-4.9785625 
-0.01 1:0.16066602 2:-3.24775 
-0.01 1:0.19902344 2:-3.5900625 
-0.01 1:0.19032617 2:-3.7165 
-0.01 1:0.24498437 2:-4.217875 
-9.169924003992269e-05 1:0.45663086 2:-6.1100625 
-0.01 1:0.22976758 2:-4.4234375 
-0.01 1:0.25346875 2:-4.811125 
-0.01 1:0.28091016 2:-5.2229375 
-0.01 1:0.24245508 2:-4.3968125 
-0.01 1:0.25045312 2:-5.030375 
-0.01 1:0.13869727 2:-2.8969375 
-0.01 1:0.23267969 2:-4.1489375 
-0.01 1:0.21939258 2:-4.7096875 
-0.01 1:0.22908008 2:-3.718375 
-0.01 1:0.25221875 2:-5.3188125 
-0.01 1:0.28462695 2:-4.9796875 
-0.01 1:0.16815039 2:-3.534125 
-0.01 1:0.18537695 2:-3.6905 
-0.01 1:0.17536328 2:-3.52325 
-0.01 1:0.25994336 2:-3.6735 
-0.01 1:0.16317773 2:-3.7641875 
-0.01 1:0.19224414 2:-3.40725 
-0.009855898709083977 1:0.15226758 2:-2.5156875 
-0.01 1:0.20551172 2:-4.395125 
-0.01 1:0.17560742 2:-3.4273125 
-0.01 1:0.17261719 2:-3.7925 
-0.01 1:0.15475781 2:-3.454125 
-0.01 1:0.32263086 2:-5.6656875 
-0.01 1:0.17070117 2:-3.2515 
-0.01 1:0.21948047 2:-3.96125 
-0.01 1:0.21728125 2:-3.6040625 
-0.01 1:0.088638672 2:-1.6873125 
-0.001541034937851434 1:0.13230078 2:-1.8993125 
-0.01 1:0.28564453 2:-4.8018125 
-0.01 1:0.24279883 2:-4.3206875 
-0.01 1:0.1295293 2:-3.367125 
-0.01 1:0.21380859 2:-4.451875 
-0.01 1:0.16273437 2:-3.362 
-0.0006572786784238184 1:0.11510742 2:-2.670625 
-0.008693304432127591 1:0.15964258 2:-4.055 
-0.01 1:0.21116992 2:-3.813625 
-0.01 1:0.20247656 2:-3.79575 
-0.01 1:0.1784082 2:-4.033125 
-0.01 1:0.28289062 2:-4.6854375 
-0.01 1:0.13742773 2:-2.704375 
-0.01 1:0.3675957 2:-5.8905625 
-0.01 1:0.22788477 2:-4.178625 
-0.01 1:0.16580273 2:-3.4043125 
-0.01 1:0.21958594 2:-4.20025 
-0.01 1:0.14010547 2:-3.013375 
-0.01 1:0.16618555 2:-3.896125 
-0.01 1:0.17387305 2:-3.586375 
-0.01 1:0.1223125 2:-2.686875 
-0.01 1:0.24779688 2:-4.3188125 
-0.006540014745397373 1:0.21799805 2:-3.0160625 
-0.01 1:0.23776758 2:-4.6514375 
-0.01 1:0.14607617 2:-3.1498125 
-0.01 1:0.18161914 2:-3.980125 
-0.01 1:0.24729492 2:-4.18675 
-0.01 1:0.14900391 2:-2.8193125 
-0.01 1:0.16991992 2:-2.7774375 
-0.01 1:0.26240039 2:-4.5095625 
-0.01 1:0.16150195 2:-3.2275625 
-0.01 1:0.16266602 2:-3.3941875 
-0.01 1:0.2274375 2:-4.322625 
-0.01 1:0.23999414 2:-4.667625 
-0.01 1:0.19480664 2:-3.9958125 
-0.01 1:0.17849023 2:-3.7330625 
-0.01 1:0.19496289 2:-3.4786875 
-0.01 1:0.18266797 2:-3.69325 
-0.01 1:0.15070703 2:-3.2255625 
-0.01 1:0.14836328 2:-3.05775 
-0.01 1:0.15937305 2:-3.3386875 
-0.01 1:0.17598242 2:-3.369 
-3.892780219007049e-05 1:0.16400781 2:-3.708375 
-0.01 1:0.14236523 2:-2.8335 
-0.01 1:0.20199219 2:-4.3338125 
-0.01 1:0.085773437 2:-1.749625 
-0.01 1:0.27334961 2:-5.794 
-0.0002242632434795397 1:0.15794727 2:-3.4435 
-0.01 1:0.1352793 2:-2.868875 
-0.01 1:0.16818945 2:-3.3835 
-0.01 1:0.1474375 2:-2.99075 
-0.01 1:0.13772852 2:-3.0235 
-0.01 1:0.17868555 2:-3.814125 
-0.01 1:0.35314648 2:-5.098125 
-0.01 1:0.28249219 2:-5.382 
-0.01 1:0.2355957 2:-4.287875 
-0.01 1:0.16075195 2:-3.208625 
-0.01 1:0.18071289 2:-3.5975 
-0.01 1:0.24223242 2:-4.5849375 
-0.01 1:0.22706055 2:-4.6515625 
-0.01 1:0.10522656 2:-1.86675 
-0.01 1:0.19892578 2:-2.933375 
-0.01 1:0.14205078 2:-3.3005 
-0.01 1:0.14224023 2:-3.3098125 
-0.008420614487643165 1:0.087923828 2:-1.8408125 
-0.01 1:0.12336719 2:-2.2634375 
-0.01 1:0.24727539 2:-4.8033125 
-0.01 1:0.15734961 2:-3.1759375 
-0.01 1:0.19722656 2:-4.386625 
-0.01 1:0.23071094 2:-3.8465 
-0.01 1:0.31170117 2:-5.809375 
-0.01 1:0.20828906 2:-3.7574375 
-0.01 1:0.31049414 2:-5.8270625 
-0.01 1:0.1204707 2:-2.2618125 
-0.01 1:0.21398438 2:-4.000375 
-0.01 1:0.24109766 2:-4.7700625 
-0.01 1:0.2326875 2:-4.4476875 
-0.01 1:0.20539844 2:-3.8018125 
-0.01 1:0.1350918 2:-2.561125 
-0.01 1:0.16262695 2:-3.097125 
-0.01 1:0.15764063 2:-3.175875 
-0.01 1:0.1077793 2:-2.3355 
-0.01 1:0.097115234 2:-2.1411875 
-0.01 1:0.16381055 2:-3.1893125 
-0.01 1:0.21278125 2:-4.3166875 
-0.01 1:0.22960742 2:-4.8444375 
-0.01 1:0.20033008 2:-3.8315 
-0.01 1:0.20291211 2:-3.866875 
-0.01 1:0.21969531 2:-5.0075 
-0.01 1:0.16031445 2:-3.2430625 
-0.01 1:0.16670117 2:-3.921 
-0.0005004522162190895 1:0.16263281 2:-4.21425 
-0.005975137569464985 1:0.10031641 2:-2.1820625 
-0.01 1:0.20388867 2:-4.0078125 
-0.01 1:0.11855664 2:-2.1941875 
-0.01 1:0.1807832 2:-4.0069375 
-0.006736422239608279 1:0.13761328 2:-3.332875 
-0.01 1:0.1992207 2:-4.415625 
-0.01 1:0.19033594 2:-3.621 
-0.01 1:0.084816406 2:-1.8560625 
-0.01 1:0.16565625 2:-3.267125 
-0.01 1:0.27839453 2:-4.3684375 
-0.01 1:0.31258203 2:-4.3628125 
-0.009993867113143673 1:0.28993164 2:-4.093625 
-0.01 1:0.21710742 2:-3.57425 
-0.01 1:0.26830078 2:-4.02525 
-0.01 1:0.25571094 2:-4.712625 
-0.01 1:0.30823633 2:-5.581375 
-0.01 1:0.18567578 2:-3.196375 
-0.005510464369475995 1:0.20897656 2:-5.02475 
-0.01 1:0.12641016 2:-2.8191875 
-0.01 1:0.20453516 2:-4.0585 
-0.01 1:0.28536914 2:-4.698875 
-0.01 1:0.24485742 2:-4.1643125 
-0.01 1:0.20644336 2:-4.13675 
-0.01 1:0.14344727 2:-3.080375 
-0.01 1:0.23752344 2:-3.9145 
-7.131608927158739e-05 1:0.47638086 2:-5.2835625 
-0.01 1:0.14077734 2:-2.5475 
-0.01 1:0.20650391 2:-3.9256875 
-0.0001523960293690904 1:0.16945117 2:-3.875125 
-0.01 1:0.32581836 2:-5.1521875 
-0.01 1:0.32716211 2:-4.7526875 
-0.01 1:0.26438477 2:-4.9513125 
-0.00591861915838804 1:0.1662793 2:-2.6305 
-0.01 1:0.1775332 2:-4.1705625 
-0.01 1:0.16515234 2:-3.647125 
-0.01 1:0.18704102 2:-3.7403125 
-0.01 1:0.20672852 2:-4.349125 
-0.01 1:0.11754102 2:-2.3025625 
-0.01 1:0.18184961 2:-4.1116875 
-0.01 1:0.24904297 2:-4.2915 
-0.01 1:0.1999375 2:-3.966625 
-0.01 1:0.15477344 2:-3.1905625 
-0.01 1:0.20798828 2:-4.5903125 
-0.01 1:0.2156543 2:-4.505875 
-0.01 1:0.16221484 2:-3.8394375 
-0.01 1:0.30914844 2:-5.638125 
-0.01 1:0.35535352 2:-5.9386875 
-0.009946423030877649 1:0.16261914 2:-3.700375 
-0.01 1:0.29921875 2:-5.0480625 
-0.0001545540144404031 1:0.56246484 2:-4.2535625 
-0.01 1:0.16104883 2:-3.330625 
-0.01 1:0.13779102 2:-2.9471875 
-0.009569387496073013 1:0.046820312 2:-0.9586875 
-0.01 1:0.1850332 2:-3.9254375 
-0.01 1:0.1939082 2:-4.118375 
-0.01 1:0.16990234 2:-3.0521875 
-0.01 1:0.22654297 2:-4.5641875 
-0.01 1:0.16608594 2:-3.4151875 
-0.01 1:0.29557227 2:-4.465 
-0.01 1:0.24937305 2:-5.06975 
-0.01 1:0.21367187 2:-5.067625 
-0.01 1:0.21133984 2:-4.653 
-0.01 1:0.25103711 2:-5.075625 
-0.01 1:0.17895703 2:-3.934375 
-0.01 1:0.32877344 2:-5.270875 
-0.01 1:0.22214258 2:-4.20075 
-0.01 1:0.18728125 2:-3.3040625 
-0.01 1:0.12105859 2:-2.527625 
-0.01 1:0.21148828 2:-4.67825 
-0.008957355683880305 1:0.2517832 2:-5.5881875 
-0.01 1:0.1327832 2:-2.80375 
-0.01 1:0.22137305 2:-4.4660625 
-0.01 1:0.14626172 2:-2.79875 
-0.01 1:0.22239453 2:-4.231375 
-0.01 1:0.22544141 2:-4.4345625 
-0.01 1:0.20044727 2:-3.71625 
-0.01 1:0.18764453 2:-4.048125 
-0.01 1:0.1859668 2:-3.8364375 
-0.01 1:0.16210352 2:-2.9211875 
-0.01 1:0.15392383 2:-3.092 
-0.003263577760391722 1:0.17847266 2:-3.3421875 
-0.01 1:0.1760957 2:-3.3080625 
-0.01 1:0.2009082 2:-3.641875 
-0.01 1:0.21939063 2:-4.302 
-0.01 1:0.1526582 2:-3.2295625 
-0.01 1:0.14826172 2:-3.133125 
-0.01 1:0.12781641 2:-3.3241875 
-0.0009742820594456711 1:0.16587109 2:-3.019 
-0.01 1:0.24790039 2:-4.9433125 
-3.952739377542592e-05 1:0.5255957 2:-5.70775 
-0.01 1:0.18900781 2:-3.5194375 
-0.01 1:0.23642187 2:-4.082625 
-0.01 1:0.20554492 2:-3.8453125 
-0.01 1:0.23702148 2:-4.3444375 
-0.01 1:0.30314062 2:-5.2896875 
-0.01 1:0.20539453 2:-4.3329375 
-0.01 1:0.203625 2:-4.27825 
-0.01 1:0.16492187 2:-3.25625 
-0.001071497318489443 1:0.27183984 2:-5.1100625 
-0.01 1:0.12339844 2:-2.0333125 
-0.01 1:0.24061133 2:-4.476625 
-0.01 1:0.26446094 2:-4.773 
-0.01 1:0.2559707 2:-4.602625 
-0.01 1:0.14791016 2:-3.037625 
-0.001334176143939123 1:0.29636133 2:-3.4575 
-0.009142741339295659 1:0.328875 2:-6.424 
-0.01 1:0.24952539 2:-3.982125 
-0.01 1:0.29102344 2:-4.49575 
-0.01 1:0.2420918 2:-4.2074375 
-0.01 1:0.18423828 2:-4.0299375 
-0.01 1:0.30747852 2:-5.424875 
-0.01 1:0.18887695 2:-3.8695 
-0.01 1:0.35847852 2:-5.94475 
-0.0004970265524937398 1:0.068048828 2:-0.315 
-0.01 1:0.19463281 2:-4.043 
-0.01 1:0.27773047 2:-3.5765625 
-0.01 1:0.19181836 2:-4.0843125 
-0.01 1:0.25605078 2:-4.6960625 
-0.01 1:0.2960625 2:-5.3981875 
-0.01 1:0.28834766 2:-5.5510625 
-0.01 1:0.12398047 2:-2.4904375 
-0.01 1:0.20760742 2:-3.0956875 
-0.01 1:0.23333008 2:-3.917375 
-0.01 1:0.1618457 2:-3.0893125 
-0.0001341235794088511 1:0.51585742 2:-6.6545 
-0.01 1:0.28197461 2:-5.886 
-0.008928502681510558 1:0.25410547 2:-5.11025 
-0.01 1:0.13338672 2:-2.776875 
-0.01 1:0.12784375 2:-2.3675 
-0.01 1:0.1242207 2:-2.5944375 
-0.002258621047329209 1:0.23511719 2:-4.8870625 
-0.01 1:0.18862109 2:-3.5570625 
-0.01 1:0.32278711 2:-6.0531875 
-0.01 1:0.17101563 2:-2.8414375 
-0.01 1:0.12617969 2:-2.7285 
-0.01 1:0.12539453 2:-2.4486875 
-0.01 1:0.27938086 2:-4.3648125 
-0.01 1:0.22116602 2:-4.0903125 
-0.01 1:0.19941016 2:-3.5315 
-0.006442599335420198 1:0.28458594 2:-6.0638125 
-0.01 1:0.20105469 2:-3.171 
-0.01 1:0.24375781 2:-4.0209375 
-0.01 1:0.16303711 2:-3.53225 
-8.502330552205042e-05 1:0.43819336 2:-6.483 
-0.004367155330016798 1:0.45968945 2:-5.043375 
-0.01 1:0.22665625 2:-3.7025625 
-0.01 1:0.1927832 2:-4.0649375 
-0.01 1:0.22728516 2:-4.5941875 
-0.01 1:0.11111719 2:-2.2655 
-0.01 1:0.2403418 2:-4.811 
-0.01 1:0.22824414 2:-4.942875 
-0.01 1:0.25961523 2:-4.507 
-0.01 1:0.2994082 2:-5.6973125 
-0.01 1:0.20039648 2:-3.85675 
-0.01 1:0.25774805 2:-4.7595 
-0.01 1:0.27812891 2:-5.2914375 
-0.01 1:0.24467969 2:-4.843 
-0.01 1:0.20808789 2:-4.50125 
-0.01 1:0.35661523 2:-5.604375 
-0.01 1:0.20666992 2:-3.698125 
