svm_type c_svc
kernel_type polynomial
degree 2
gamma 1
coef0 1
nr_class 2
total_sv 1303
rho 0.999123
label 1 -1
nr_sv 644 659
SV
0.01 1:0.17676562 2:-2.18075 
0.01 1:0.26885156 2:-3.674875 
0.01 1:0.37638086 2:-6.194875 
0.01 1:0.26610156 2:-3.7638125 
0.01 1:0.1857832 2:-3.4355625 
0.01 1:0.31595508 2:-5.7154375 
0.01 1:0.39480078 2:-5.1758125 
0.01 1:0.29694531 2:-3.1875 
0.01 1:0.17400391 2:-2.964 
0.01 1:0.15353516 2:-2.9208125 
0.01 1:0.25239062 2:-3.4129375 
0.01 1:0.30691406 2:-4.4438125 
0.01 1:0.15851172 2:-2.733375 
0.01 1:0.16155273 2:-2.772875 
0.01 1:0.31669531 2:-5.9090625 
0.01 1:0.19798242 2:-3.7665 
0.01 1:0.2853125 2:-5.6540625 
0.01 1:0.10989844 2:-1.7845 
0.01 1:0.19408008 2:-3.92775 
0.01 1:0.18956836 2:-3.929875 
0.01 1:0.31775 2:-3.28175 
0.01 1:0.1710625 2:-3.46225 
0.01 1:0.28771484 2:-4.489 
0.01 1:0.24877344 2:-4.000875 
0.01 1:0.28038086 2:-4.51125 
0.01 1:0.28737109 2:-4.235875 
0.01 1:0.25563281 2:-5.0321875 
0.01 1:0.17836914 2:-2.2420625 
0.01 1:0.23387695 2:-4.2503125 
0.01 1:0.23073633 2:-3.6994375 
0.01 1:0.2153418 2:-4.1908125 
0.01 1:0.24554297 2:-3.801875 
0.01 1:0.11208398 2:-2.1299375 
0.01 1:0.20078516 2:-3.2855 
0.01 1:0.19883789 2:-3.663375 
0.01 1:0.20133789 2:-4.279625 
0.01 1:0.26242773 2:-3.55675 
0.01 1:0.22720898 2:-3.548 
0.01 1:0.18875977 2:-2.61775 
0.01 1:0.22943359 2:-3.84 
0.01 1:0.17658008 2:-3.196125 
0.01 1:0.20630469 2:-3.6949375 
0.01 1:0.32689258 2:-5.5529375 
0.01 1:0.18247852 2:-3.4698125 
0.01 1:0.24064453 2:-3.48475 
0.01 1:0.2215957 2:-3.9154375 
0.01 1:0.13289453 2:-2.4026875 
0.01 1:0.21762695 2:-3.75125 
0.01 1:0.15999805 2:-3.0535 
0.01 1:0.15304688 2:-2.4975 
0.01 1:0.2401582 2:-4.4295625 
0.01 1:0.1618418 2:-2.8759375 
0.01 1:0.16104883 2:-3.1120625 
0.01 1:0.25381836 2:-5.42575 
0.01 1:0.40452344 2:-5.27575 
0.01 1:0.16298828 2:-3.2735 
0.01 1:0.27837695 2:-4.208625 
0.01 1:0.15584961 2:-2.3285625 
0.01 1:0.30417187 2:-4.292125 
0.01 1:0.1968457 2:-2.86375 
0.01 1:0.22780859 2:-3.81325 
0.01 1:0.25808594 2:-4.2791875 
0.01 1:0.25841797 2:-3.5398125 
0.01 1:0.16482422 2:-2.99575 
0.01 1:0.21739453 2:-3.4963125 
0.01 1:0.24912695 2:-4.228375 
0.01 1:0.14078516 2:-2.9080625 
0.01 1:0.21339063 2:-4.5384375 
0.01 1:0.32582617 2:-5.0324375 
0.01 1:0.30196484 2:-2.5315 
0.01 1:0.17890234 2:-3.84675 
0.01 1:0.15940039 2:-3.1838125 
0.01 1:0.27819727 2:-3.7015 
0.01 1:0.20530664 2:-2.8386875 
0.01 1:0.30873633 2:-5.4584375 
0.01 1:0.16313281 2:-2.268625 
0.01 1:0.16411133 2:-2.5801875 
0.01 1:0.25251563 2:-4.2004375 
0.01 1:0.31507617 2:-5.15525 
0.01 1:0.29622656 2:-4.78775 
0.01 1:0.1925 2:-3.0773125 
0.01 1:0.21511719 2:-2.72775 
0.01 1:0.3485918 2:-4.0465625 
0.01 1:0.27733398 2:-4.9113125 
0.01 1:0.20505078 2:-3.0623125 
0.01 1:0.2316875 2:-4.8935 
0.01 1:0.15789453 2:-2.7088125 
0.01 1:0.17961133 2:-3.1675625 
0.01 1:0.2256875 2:-3.2185625 
0.01 1:0.29859766 2:-3.285875 
0.01 1:0.32747266 2:-4.7500625 
0.01 1:0.31746484 2:-3.2116875 
0.01 1:0.30238477 2:-4.3874375 
0.01 1:0.15200391 2:-2.9595625 
0.01 1:0.1842832 2:-2.837 
0.01 1:0.13291602 2:-2.10625 
0.01 1:0.24186328 2:-3.3234375 
0.01 1:0.17389258 2:-3.409 
0.01 1:0.22452344 2:-3.2474375 
0.01 1:0.27411523 2:-3.071875 
0.01 1:0.25582617 2:-4.870375 
0.01 1:0.19671484 2:-3.3389375 
0.01 1:0.15566016 2:-2.349875 
0.01 1:0.20795703 2:-3.82 
0.01 1:0.17360938 2:-3.395625 
0.01 1:0.18078125 2:-3.5711875 
0.01 1:0.27646094 2:-4.252875 
0.01 1:0.31701953 2:-3.7220625 
0.01 1:0.19992188 2:-2.851375 
0.01 1:0.23818945 2:-4.0943125 
0.01 1:0.23359961 2:-3.19325 
0.01 1:0.16515039 2:-2.889875 
0.01 1:0.24608203 2:-3.8506875 
0.01 1:0.33361914 2:-6.093125 
0.01 1:0.25830664 2:-4.3925625 
0.01 1:0.26745508 2:-3.3273125 
0.01 1:0.1494082 2:-2.75125 
0.01 1:0.15603125 2:-3.233625 
0.01 1:0.22879688 2:-3.8315 
0.01 1:0.24992773 2:-4.3128125 
0.01 1:0.20070117 2:-3.3521875 
0.01 1:0.21329492 2:-2.4545 
0.01 1:0.25153906 2:-3.174125 
0.01 1:0.28398047 2:-4.0013125 
0.01 1:0.26083203 2:-4.1255 
0.01 1:0.25520117 2:-4.0563125 
0.01 1:0.18258203 2:-3.4679375 
0.01 1:0.22990234 2:-4.13075 
0.01 1:0.23815625 2:-3.5234375 
0.01 1:0.22626367 2:-4.0438125 
0.01 1:0.19008789 2:-3.046375 
0.01 1:0.27933008 2:-2.861125 
0.01 1:0.21666797 2:-3.20075 
0.01 1:0.19580078 2:-3.2155625 
0.01 1:0.17663867 2:-3.0438125 
0.01 1:0.1732793 2:-3.3630625 
0.01 1:0.14889258 2:-2.6009375 
0.01 1:0.15107227 2:-3.094 
0.01 1:0.19649414 2:-3.4255 
0.01 1:0.42217578 2:-5.0205625 
0.01 1:0.28972266 2:-3.752625 
0.01 1:0.21825586 2:-3.408625 
0.01 1:0.27195508 2:-4.1985625 
0.01 1:0.2920332 2:-4.6695 
0.01 1:0.35478711 2:-6.158125 
0.01 1:0.22727734 2:-3.095375 
0.01 1:0.17563477 2:-3.6879375 
0.01 1:0.20287305 2:-3.1580625 
0.01 1:0.28478516 2:-5.7710625 
0.01 1:0.17116602 2:-2.7844375 
0.01 1:0.30327539 2:-3.748 
0.01 1:0.25771875 2:-4.141 
0.01 1:0.17523047 2:-3.4878125 
0.01 1:0.33034961 2:-4.2894375 
0.01 1:0.41253516 2:-4.57525 
0.01 1:0.38126953 2:-4.8755625 
0.01 1:0.20202539 2:-3.603875 
0.01 1:0.33543164 2:-4.2331875 
0.01 1:0.30451758 2:-4.920125 
0.01 1:0.1815332 2:-3.7371875 
0.01 1:0.28911719 2:-4.539875 
0.01 1:0.37572656 2:-4.8021875 
0.01 1:0.23030078 2:-4.562125 
0.01 1:0.24195703 2:-3.4858125 
0.01 1:0.45636133 2:-5.3300625 
0.01 1:0.26592187 2:-4.030375 
0.01 1:0.17506445 2:-2.9646875 
0.01 1:0.12290039 2:-2.5601875 
0.01 1:0.33235938 2:-5.230375 
0.01 1:0.32289844 2:-3.9433125 
0.01 1:0.19994727 2:-3.95225 
0.01 1:0.16385352 2:-3.171875 
0.01 1:0.16495703 2:-2.8470625 
0.01 1:0.29110156 2:-4.4441875 
0.01 1:0.17897656 2:-3.216625 
0.01 1:0.17573242 2:-3.1003125 
0.01 1:0.30642578 2:-4.261 
0.01 1:0.22725195 2:-4.150375 
0.01 1:0.23957422 2:-3.8883125 
0.01 1:0.25096484 2:-4.1090625 
0.01 1:0.22574219 2:-3.81975 
0.01 1:0.2184043 2:-3.258125 
0.01 1:0.24298438 2:-3.9543125 
0.01 1:0.17721484 2:-3.185375 
0.01 1:0.19631641 2:-3.776 
0.01 1:0.1800625 2:-2.518875 
0.01 1:0.3138457 2:-6.0845625 
0.01 1:0.26593359 2:-3.9913125 
0.01 1:0.33136133 2:-4.273 
0.01 1:0.21893164 2:-4.2990625 
0.01 1:0.18878906 2:-3.0636875 
0.01 1:0.14333789 2:-2.5066875 
0.01 1:0.15925781 2:-2.598 
0.01 1:0.13710156 2:-2.3773125 
0.01 1:0.17601953 2:-3.165375 
0.01 1:0.19052344 2:-3.313 
0.01 1:0.38073633 2:-3.9090625 
0.01 1:0.28158398 2:-3.5241875 
0.01 1:0.24007813 2:-4.6259375 
0.01 1:0.26664453 2:-5.2673125 
0.01 1:0.28401758 2:-3.2515625 
0.01 1:0.30668164 2:-3.5968125 
0.01 1:0.33193359 2:-3.9718125 
0.01 1:0.20395117 2:-3.1853125 
0.01 1:0.24345117 2:-3.248125 
0.01 1:0.13062305 2:-1.9200625 
0.01 1:0.14010547 2:-2.987875 
0.01 1:0.1735957 2:-2.556375 
0.01 1:0.21626563 2:-3.61525 
0.01 1:0.31867773 2:-5.0266875 
0.01 1:0.19468164 2:-3.2516875 
0.01 1:0.31331836 2:-5.234625 
0.01 1:0.34806836 2:-4.6636875 
0.01 1:0.32275195 2:-4.5200625 
0.01 1:0.1964707 2:-2.8615 
0.01 1:0.22709961 2:-3.6794375 
0.01 1:0.15668945 2:-3.186125 
0.01 1:0.35265234 2:-4.1054375 
0.01 1:0.19192969 2:-3.6740625 
0.01 1:0.16715039 2:-3.0455 
0.01 1:0.24077344 2:-3.4290625 
0.01 1:0.1603418 2:-3.2399375 
0.01 1:0.37522461 2:-4.0751875 
0.01 1:0.33538672 2:-3.9215625 
0.01 1:0.17773633 2:-3.628625 
0.01 1:0.23871094 2:-3.58175 
0.01 1:0.20744336 2:-3.7363125 
0.01 1:0.26366992 2:-3.5430625 
0.01 1:0.32399805 2:-3.6455625 
0.01 1:0.25649609 2:-4.84025 
0.01 1:0.26663086 2:-3.441375 
0.01 1:0.19905664 2:-3.7884375 
0.01 1:0.13342969 2:-2.5986875 
0.01 1:0.24451562 2:-2.5500625 
0.01 1:0.23552734 2:-4.1799375 
0.01 1:0.22712305 2:-3.956625 
0.01 1:0.20827734 2:-3.6744375 
0.01 1:0.18811328 2:-2.8484375 
0.01 1:0.13053516 2:-1.8559375 
0.01 1:0.13412695 2:-2.6535 
0.01 1:0.17923633 2:-3.3268125 
0.01 1:0.22425781 2:-4.310125 
0.01 1:0.21359961 2:-3.6458125 
0.01 1:0.24211719 2:-3.517375 
0.01 1:0.31150781 2:-4.6233125 
0.01 1:0.23379883 2:-4.032375 
0.01 1:0.2623125 2:-4.7379375 
0.01 1:0.29874609 2:-4.3555625 
0.01 1:0.17258789 2:-3.5675 
0.01 1:0.16446875 2:-3.5409375 
0.01 1:0.14209961 2:-2.4654375 
0.01 1:0.19249609 2:-3.75625 
0.01 1:0.16398828 2:-2.6860625 
0.01 1:0.22570313 2:-3.3734375 
0.01 1:0.24593555 2:-4.580875 
0.01 1:0.17099023 2:-2.9165625 
0.01 1:0.26706836 2:-5.5515625 
0.01 1:0.12839844 2:-1.844625 
0.01 1:0.2065332 2:-3.6621875 
0.01 1:0.30803125 2:-3.0019375 
0.01 1:0.20022656 2:-3.5161875 
0.01 1:0.21073242 2:-3.4711875 
0.01 1:0.21780273 2:-2.6044375 
0.01 1:0.26800977 2:-2.4195 
0.01 1:0.3770293 2:-6.11475 
0.01 1:0.30756836 2:-5.313125 
0.01 1:0.20643164 2:-3.2873125 
0.01 1:0.20227148 2:-3.4111875 
0.01 1:0.1425293 2:-2.8435 
0.01 1:0.1806875 2:-3.8233125 
0.01 1:0.13337695 2:-2.63725 
0.01 1:0.14452539 2:-2.9380625 
0.01 1:0.13434375 2:-2.3210625 
0.01 1:0.14253711 2:-2.94925 
0.01 1:0.27479297 2:-3.251625 
0.01 1:0.32485938 2:-5.72375 
0.01 1:0.10430078 2:-1.799125 
0.01 1:0.24060547 2:-4.2458125 
0.01 1:0.26341406 2:-4.861375 
0.01 1:0.23712891 2:-4.3549375 
0.01 1:0.27653906 2:-3.705375 
0.01 1:0.17914844 2:-3.2561875 
0.01 1:0.21053711 2:-3.5961875 
0.01 1:0.32547656 2:-3.5169375 
0.01 1:0.15919531 2:-3.2850625 
0.01 1:0.14845312 2:-2.919125 
0.01 1:0.20912305 2:-3.4735625 
0.01 1:0.23125586 2:-3.3141875 
0.01 1:0.31097266 2:-5.580875 
0.01 1:0.20293359 2:-3.7611875 
0.01 1:0.16792383 2:-3.11075 
0.01 1:0.25415039 2:-4.566625 
0.01 1:0.18203125 2:-3.7155625 
0.01 1:0.17638281 2:-2.750875 
0.01 1:0.27145703 2:-4.896875 
0.01 1:0.17592578 2:-2.996875 
0.01 1:0.21530078 2:-4.203625 
0.01 1:0.18808398 2:-3.4816875 
0.01 1:0.32726172 2:-4.3330625 
0.01 1:0.27291602 2:-4.354625 
0.01 1:0.32393945 2:-4.69175 
0.01 1:0.19649219 2:-3.337625 
0.01 1:0.15628906 2:-3.502625 
0.01 1:0.30438672 2:-5.9503125 
0.01 1:0.21832617 2:-3.3679375 
0.01 1:0.21866016 2:-3.9565625 
0.01 1:0.22593945 2:-3.865125 
0.01 1:0.20323047 2:-3.2955625 
0.01 1:0.22074805 2:-3.112 
0.01 1:0.34066992 2:-5.281875 
0.01 1:0.14837109 2:-2.9440625 
0.01 1:0.17984766 2:-3.559 
0.01 1:0.19696289 2:-4.0366875 
0.01 1:0.1847168 2:-3.0435625 
0.01 1:0.23895898 2:-3.72025 
0.01 1:0.30483594 2:-5.0721875 
0.01 1:0.24554492 2:-4.076375 
0.01 1:0.15526172 2:-2.0664375 
0.01 1:0.21886133 2:-4.429125 
0.01 1:0.24901172 2:-4.034375 
0.01 1:0.15975391 2:-3.0234375 
0.01 1:0.14558594 2:-2.497875 
0.01 1:0.12996289 2:-2.3450625 
0.01 1:0.19926562 2:-3.3844375 
0.01 1:0.20885547 2:-2.3333125 
0.01 1:0.41975 2:-5.11875 
0.01 1:0.29850977 2:-5.8499375 
0.01 1:0.17560742 2:-3.198875 
0.01 1:0.26067187 2:-3.8223125 
0.01 1:0.2802793 2:-4.02175 
0.01 1:0.16032422 2:-3.1524375 
0.01 1:0.15376367 2:-2.8881875 
0.01 1:0.21717383 2:-4.7938125 
0.01 1:0.25799414 2:-3.7411875 
0.01 1:0.36168359 2:-5.30275 
0.01 1:0.083269531 2:-1.9089375 
0.01 1:0.10405664 2:-2.366625 
0.01 1:0.14595117 2:-3.081875 
0.01 1:0.18546289 2:-3.118 
0.01 1:0.21219141 2:-4.072125 
0.01 1:0.2372207 2:-4.8894375 
0.01 1:0.22082812 2:-2.6729375 
0.01 1:0.20934766 2:-2.263375 
0.01 1:0.20357617 2:-2.9443125 
0.01 1:0.25332031 2:-3.16875 
0.01 1:0.28529688 2:-4.429 
0.01 1:0.2801543 2:-4.520375 
0.01 1:0.14549609 2:-2.8609375 
0.01 1:0.13857031 2:-2.888125 
0.01 1:0.32909766 2:-4.8469375 
0.01 1:0.3237793 2:-4.92775 
0.01 1:0.18314453 2:-2.6559375 
0.01 1:0.23383398 2:-2.8864375 
0.01 1:0.18030859 2:-2.8774375 
0.01 1:0.14578711 2:-2.0193125 
0.01 1:0.22580078 2:-3.2849375 
0.01 1:0.22861523 2:-3.7775 
0.01 1:0.15469141 2:-3.0516875 
0.01 1:0.18048438 2:-3.661 
0.01 1:0.17422852 2:-3.18075 
0.01 1:0.15378711 2:-2.6814375 
0.01 1:0.25669336 2:-4.6960625 
0.01 1:0.25723633 2:-4.8356875 
0.01 1:0.24389258 2:-4.6166875 
0.01 1:0.21655469 2:-4.2428125 
0.01 1:0.20492383 2:-3.8988125 
0.01 1:0.17674609 2:-2.923375 
0.01 1:0.36110156 2:-4.7130625 
0.01 1:0.28030664 2:-4.3249375 
0.01 1:0.13570117 2:-2.4930625 
0.01 1:0.12099414 2:-1.974625 
0.01 1:0.26507812 2:-4.737375 
0.01 1:0.21239258 2:-2.7041875 
0.01 1:0.29257812 2:-4.753 
0.01 1:0.26038281 2:-4.149125 
0.01 1:0.35353711 2:-6.4664375 
0.01 1:0.31054102 2:-4.9661875 
0.01 1:0.40830859 2:-5.9036875 
0.01 1:0.32594531 2:-4.93 
0.01 1:0.25199023 2:-4.2998125 
0.01 1:0.21741797 2:-3.3318125 
0.01 1:0.21200391 2:-3.2475 
0.01 1:0.3510918 2:-5.0261875 
0.01 1:0.20501758 2:-3.4073125 
0.01 1:0.20204688 2:-3.360375 
0.01 1:0.19703906 2:-3.5065 
0.01 1:0.24682227 2:-3.861875 
0.01 1:0.19515234 2:-3.8171875 
0.01 1:0.18289453 2:-3.3156875 
0.01 1:0.18084375 2:-3.0259375 
0.01 1:0.18053125 2:-4.25075 
0.01 1:0.18046875 2:-2.948375 
0.01 1:0.27892383 2:-4.925875 
0.01 1:0.11834375 2:-2.6625 
0.01 1:0.32116211 2:-5.215 
0.01 1:0.129375 2:-2.6505625 
0.01 1:0.24619141 2:-4.186875 
0.01 1:0.29339648 2:-3.8018125 
0.01 1:0.22622461 2:-3.44825 
0.01 1:0.16532031 2:-2.6339375 
0.01 1:0.20339844 2:-3.30575 
0.01 1:0.26610937 2:-4.7318125 
0.01 1:0.11894727 2:-2.755 
0.01 1:0.11671875 2:-2.3286875 
0.01 1:0.22804492 2:-3.699125 
0.01 1:0.20068359 2:-3.530625 
0.01 1:0.15875781 2:-2.5898125 
0.01 1:0.26938086 2:-3.7621875 
0.01 1:0.17236133 2:-3.4455 
0.01 1:0.19264258 2:-2.876 
0.01 1:0.18132617 2:-3.2220625 
0.01 1:0.24345898 2:-4.058625 
0.01 1:0.2067793 2:-2.8316875 
0.01 1:0.18870117 2:-3.0108125 
0.01 1:0.19147852 2:-2.9933125 
0.01 1:0.23095508 2:-4.0023125 
0.01 1:0.22776953 2:-3.9111875 
0.01 1:0.16963086 2:-3.181375 
0.01 1:0.26907227 2:-4.04375 
0.01 1:0.22922852 2:-3.8128125 
0.01 1:0.22376562 2:-3.1526875 
0.01 1:0.1947832 2:-3.4055625 
0.01 1:0.17548047 2:-3.567 
0.01 1:0.15958984 2:-2.8121875 
0.01 1:0.26205273 2:-4.2426875 
0.01 1:0.1980957 2:-3.68 
0.01 1:0.16524805 2:-3.2394375 
0.01 1:0.20494531 2:-3.0038125 
0.01 1:0.12463281 2:-2.6011875 
0.01 1:0.13299805 2:-2.9773125 
0.01 1:0.14148828 2:-3.1513125 
0.01 1:0.13503906 2:-2.462875 
0.01 1:0.34985547 2:-5.783125 
0.01 1:0.17110742 2:-3.1444375 
0.01 1:0.27821289 2:-3.98975 
0.01 1:0.18390039 2:-3.3836875 
0.01 1:0.26767578 2:-4.910625 
0.01 1:0.15030469 2:-2.90425 
0.01 1:0.1854707 2:-3.49675 
0.01 1:0.19039258 2:-3.05225 
0.01 1:0.15643164 2:-2.609 
0.01 1:0.089160156 2:-1.664875 
0.01 1:0.1601543 2:-3.1286875 
0.01 1:0.20870898 2:-4.1036875 
0.01 1:0.16870898 2:-3.1403125 
0.01 1:0.19735547 2:-3.3311875 
0.01 1:0.17653516 2:-3.180875 
0.01 1:0.15044922 2:-2.3756875 
0.01 1:0.1528457 2:-2.7433125 
0.01 1:0.23267969 2:-4.1489375 
0.01 1:0.23749609 2:-3.3665625 
0.01 1:0.18965039 2:-3.00175 
0.01 1:0.15488867 2:-2.5001875 
0.01 1:0.1909707 2:-3.004625 
0.01 1:0.19875 2:-2.709875 
0.01 1:0.14024805 2:-2.6734375 
0.01 1:0.2086875 2:-3.8388125 
0.01 1:0.15226758 2:-2.5156875 
0.01 1:0.22943555 2:-3.31275 
0.01 1:0.19022852 2:-3.45175 
0.01 1:0.17070117 2:-3.2515 
0.01 1:0.20775781 2:-3.3715 
0.01 1:0.25886914 2:-4.3923125 
0.01 1:0.14675 2:-2.513125 
0.01 1:0.1784082 2:-4.033125 
0.01 1:0.25038867 2:-3.137 
0.01 1:0.39010742 2:-5.8763125 
0.01 1:0.10350391 2:-2.0674375 
0.01 1:0.26961328 2:-5.065375 
0.01 1:0.19974219 2:-2.46175 
0.01 1:0.14010547 2:-3.013375 
0.01 1:0.14113086 2:-2.8803125 
0.01 1:0.17387305 2:-3.586375 
0.01 1:0.24451758 2:-2.7610625 
0.01 1:0.27118945 2:-3.6079375 
0.01 1:0.21799805 2:-3.0160625 
0.01 1:0.095677734 2:-1.830875 
0.01 1:0.2274375 2:-4.322625 
0.01 1:0.2359043 2:-3.896125 
0.01 1:0.23048047 2:-4.23575 
0.01 1:0.19994922 2:-3.4756875 
0.01 1:0.16310547 2:-2.4914375 
0.01 1:0.29079883 2:-4.241625 
0.01 1:0.21846094 2:-4.3505 
0.01 1:0.26226563 2:-4.5395 
0.01 1:0.18644727 2:-3.10425 
0.01 1:0.17468945 2:-3.070375 
0.01 1:0.096371094 2:-1.652375 
0.01 1:0.22743945 2:-4.0495 
0.01 1:0.15125977 2:-2.6233125 
0.01 1:0.22350977 2:-3.162875 
0.01 1:0.27363086 2:-4.206625 
0.01 1:0.17868555 2:-3.814125 
0.01 1:0.19900781 2:-2.9758125 
0.01 1:0.17897852 2:-3.954125 
0.01 1:0.24137305 2:-3.8963125 
0.01 1:0.2117168 2:-3.177625 
0.01 1:0.2469707 2:-3.532625 
0.01 1:0.16075195 2:-3.208625 
0.01 1:0.24223242 2:-4.5849375 
0.01 1:0.2893125 2:-4.126625 
0.01 1:0.29880859 2:-4.723125 
0.01 1:0.18277148 2:-3.3138125 
0.01 1:0.14205078 2:-3.3005 
0.01 1:0.22188477 2:-3.3343125 
0.01 1:0.22918164 2:-3.73375 
0.01 1:0.19591406 2:-3.7290625 
0.01 1:0.18010938 2:-3.24625 
0.01 1:0.25745312 2:-3.471875 
0.01 1:0.17063867 2:-2.7429375 
0.01 1:0.23071094 2:-3.8465 
0.01 1:0.30933398 2:-5.401875 
0.01 1:0.20828906 2:-3.7574375 
0.01 1:0.21767773 2:-3.0365625 
0.01 1:0.1204707 2:-2.2618125 
0.01 1:0.15023633 2:-2.348625 
0.01 1:0.14504883 2:-2.4418125 
0.01 1:0.14902148 2:-2.405 
0.01 1:0.2390918 2:-3.6419375 
0.01 1:0.2326875 2:-4.4476875 
0.01 1:0.20539844 2:-3.8018125 
0.01 1:0.15815039 2:-3.1249375 
0.01 1:0.1350918 2:-2.561125 
0.01 1:0.171625 2:-3.0906875 
0.01 1:0.1712168 2:-3.1375625 
0.01 1:0.20291211 2:-3.866875 
0.01 1:0.27663672 2:-4.79175 
0.01 1:0.24443945 2:-3.6415 
0.01 1:0.37478125 2:-5.4715 
0.01 1:0.23944336 2:-3.7123125 
0.01 1:0.1972168 2:-3.4155625 
0.01 1:0.26446289 2:-4.40225 
0.01 1:0.43275195 2:-5.0771875 
0.01 1:0.39480273 2:-5.77025 
0.01 1:0.39655859 2:-4.51775 
0.01 1:0.46754492 2:-5.648125 
0.01 1:0.31074805 2:-4.0411875 
0.01 1:0.1642207 2:-2.02825 
0.01 1:0.18887891 2:-3.604375 
0.01 1:0.18101172 2:-3.5690625 
0.01 1:0.22853516 2:-4.3628125 
0.01 1:0.24028516 2:-3.94575 
0.01 1:0.22842773 2:-3.4714375 
0.01 1:0.16288086 2:-2.8126875 
0.01 1:0.14077734 2:-2.5475 
0.01 1:0.16216797 2:-3.3156875 
0.01 1:0.16945117 2:-3.875125 
0.01 1:0.26841797 2:-5.0613125 
0.01 1:0.25712695 2:-4.3881875 
0.01 1:0.14847461 2:-2.8761875 
0.01 1:0.16414062 2:-2.75425 
0.01 1:0.19323633 2:-3.479375 
0.01 1:0.31258008 2:-5.162375 
0.01 1:0.22826563 2:-3.2530625 
0.01 1:0.1662793 2:-2.6305 
0.01 1:0.19646289 2:-3.268625 
0.01 1:0.21150586 2:-3.543 
0.01 1:0.30253906 2:-5.967375 
0.01 1:0.23817383 2:-3.561625 
0.01 1:0.42124023 2:-5.3928125 
0.01 1:0.2403418 2:-4.1645625 
0.01 1:0.26008984 2:-4.427875 
0.01 1:0.30280664 2:-4.5919375 
0.01 1:0.27208203 2:-3.9379375 
0.01 1:0.18618164 2:-3.519625 
0.01 1:0.18985547 2:-2.84425 
0.01 1:0.19902148 2:-3.129625 
0.01 1:0.25319922 2:-3.517625 
0.01 1:0.23841602 2:-4.7885625 
0.01 1:0.18839844 2:-2.6835 
0.01 1:0.2490625 2:-3.720875 
0.01 1:0.20861133 2:-2.9079375 
0.01 1:0.16208008 2:-2.296625 
0.01 1:0.33885938 2:-5.4545 
0.01 1:0.32371484 2:-4.491375 
0.01 1:0.21400977 2:-3.7804375 
0.01 1:0.24474805 2:-3.388625 
0.01 1:0.1511875 2:-2.6685 
0.01 1:0.11748047 2:-2.1705 
0.01 1:0.24578125 2:-3.537125 
0.01 1:0.2194043 2:-3.8799375 
0.01 1:0.27573242 2:-5.548875 
0.01 1:0.23580859 2:-4.9935 
0.01 1:0.15392383 2:-3.092 
0.01 1:0.11631055 2:-1.8314375 
0.01 1:0.1914668 2:-3.376375 
0.01 1:0.32796484 2:-5.77075 
0.01 1:0.14826172 2:-3.133125 
0.01 1:0.26300977 2:-3.754 
0.01 1:0.25852734 2:-4.3065 
0.01 1:0.16587109 2:-3.019 
0.01 1:0.29725 2:-3.954375 
0.01 1:0.18900781 2:-3.5194375 
0.01 1:0.23498242 2:-3.247 
0.01 1:0.26843555 2:-3.3073125 
0.01 1:0.27248438 2:-4.0574375 
0.01 1:0.27610547 2:-4.5 
0.01 1:0.23702148 2:-4.3444375 
0.01 1:0.30314062 2:-5.2896875 
0.01 1:0.20847656 2:-2.4965625 
0.01 1:0.14062305 2:-2.6523125 
0.01 1:0.17652344 2:-2.8240625 
0.01 1:0.1517207 2:-2.4916875 
0.01 1:0.21776758 2:-3.8276875 
0.01 1:0.24952539 2:-3.982125 
0.01 1:0.16107227 2:-2.714625 
0.01 1:0.2645 2:-3.494875 
0.01 1:0.25783594 2:-3.97125 
0.01 1:0.2089707 2:-2.9054375 
0.01 1:0.26019922 2:-3.834125 
0.01 1:0.21431445 2:-3.4475625 
0.01 1:0.29102344 2:-4.49575 
0.01 1:0.22511328 2:-3.103875 
0.01 1:0.2420918 2:-4.2074375 
0.01 1:0.25726172 2:-4.3054375 
0.01 1:0.30747852 2:-5.424875 
0.01 1:0.23399219 2:-2.62225 
0.01 1:0.27423047 2:-5.4185625 
0.01 1:0.17512305 2:-3.1599375 
0.01 1:0.20760742 2:-3.0956875 
0.01 1:0.20012695 2:-3.5238125 
0.01 1:0.1367168 2:-2.7264375 
0.01 1:0.12784375 2:-2.3675 
0.01 1:0.20150977 2:-3.11175 
0.01 1:0.15863672 2:-3.6760625 
0.01 1:0.13687305 2:-2.3974375 
0.01 1:0.28324609 2:-4.5954375 
0.01 1:0.22116602 2:-4.0903125 
0.01 1:0.15271875 2:-3.000875 
0.01 1:0.34190039 2:-5.7218125 
0.01 1:0.20105469 2:-3.171 
0.01 1:0.32321094 2:-4.373875 
0.01 1:0.31683008 2:-4.07375 
0.01 1:0.28653711 2:-3.8649375 
0.01 1:0.25453125 2:-3.755625 
0.01 1:0.29617187 2:-4.460625 
0.01 1:0.18317383 2:-2.6414375 
0.01 1:0.15110547 2:-2.586875 
0.01 1:0.24310742 2:-3.7805625 
0.01 1:0.25774805 2:-4.7595 
0.01 1:0.26068359 2:-4.4959375 
0.01 1:0.24218164 2:-3.77425 
0.01 1:0.16157031 2:-3.1691875 
0.01 1:0.26123828 2:-4.1660625 
-0.01 1:0.23100195 2:-2.88675 
-0.01 1:0.29193555 2:-4.3520625 
-0.01 1:0.20337891 2:-3.3363125 
-0.01 1:0.14204297 2:-1.8194375 
-0.01 1:0.21369531 2:-4.2045625 
-0.01 1:0.15986133 2:-3.2423125 
-0.01 1:0.28341602 2:-4.0206875 
-0.01 1:0.30232617 2:-5.9131875 
-0.01 1:0.24815234 2:-3.5175 
-0.01 1:0.16425195 2:-2.8780625 
-0.01 1:0.14176563 2:-2.326 
-0.01 1:0.16395313 2:-2.691875 
-0.01 1:0.28816211 2:-3.75325 
-0.01 1:0.42295508 2:-4.58325 
-0.01 1:0.2636875 2:-4.38825 
-0.01 1:0.25138281 2:-4.99325 
-0.01 1:0.20269141 2:-3.6675625 
-0.01 1:0.39301562 2:-4.5141875 
-0.01 1:0.21601367 2:-2.9423125 
-0.01 1:0.25332422 2:-3.5625625 
-0.01 1:0.2030957 2:-3.4150625 
-0.004736394390497671 1:0.34291211 2:-6.461375 
-0.01 1:0.33440625 2:-3.9676875 
-0.01 1:0.31355664 2:-4.3781875 
-0.01 1:0.15616016 2:-3.1676875 
-0.01 1:0.12535156 2:-2.5491875 
-0.01 1:0.29270117 2:-3.2854375 
-0.01 1:0.17282227 2:-3.03875 
-0.01 1:0.2848457 2:-4.2438125 
-0.01 1:0.29000391 2:-4.12425 
-0.01 1:0.20691602 2:-3.74675 
-0.01 1:0.1593418 2:-2.700125 
-0.01 1:0.22082227 2:-3.1940625 
-0.01 1:0.20573242 2:-2.702 
-0.01 1:0.27433398 2:-3.6994375 
-0.01 1:0.24505859 2:-3.2475 
-0.01 1:0.20360742 2:-3.3480625 
-0.01 1:0.32865234 2:-6.080125 
-0.01 1:0.089693359 2:-1.929 
-0.01 1:0.17743945 2:-2.8775625 
-0.01 1:0.24010547 2:-3.806125 
-0.01 1:0.31241797 2:-5.316625 
-0.003727486611209341 1:0.187875 2:-3.811875 
-0.01 1:0.31945313 2:-3.7214375 
-0.01 1:0.25695703 2:-4.2045 
-0.01 1:0.23526758 2:-3.806875 
-0.01 1:0.24360156 2:-4.0944375 
-8.136521806960009e-05 1:0.40533789 2:-6.4565 
-0.01 1:0.13626172 2:-2.8964375 
-0.01 1:0.29791797 2:-4.2606875 
-0.01 1:0.15948437 2:-2.029 
-0.01 1:0.15299414 2:-3.1221875 
-0.01 1:0.25929492 2:-3.3233125 
-0.01 1:0.25291602 2:-4.2434375 
-0.01 1:0.27249219 2:-4.408625 
-0.01 1:0.18249414 2:-3.0206875 
-0.01 1:0.23852734 2:-3.167 
-0.01 1:0.32598828 2:-4.6885625 
-0.01 1:0.28779688 2:-4.5116875 
-0.01 1:0.31284375 2:-5.4084375 
-0.01 1:0.28872656 2:-4.489375 
-0.01 1:0.32923242 2:-4.2795625 
-0.01 1:0.25940625 2:-5.0618125 
-0.01 1:0.21958984 2:-2.6198125 
-0.01 1:0.26345898 2:-4.1485 
-0.01 1:0.25223437 2:-3.971 
-0.01 1:0.1849043 2:-3.6331875 
-0.0003696068261497285 1:0.1092793 2:-0.1195 
-0.01 1:0.16263086 2:-2.6108125 
-0.01 1:0.14020508 2:-2.8765 
-0.01 1:0.28441602 2:-4.591875 
-0.01 1:0.37047461 2:-4.07375 
-0.01 1:0.12933398 2:-2.5115 
-0.009964268252950348 1:0.11480469 2:-2.3643125 
-0.01 1:0.26214258 2:-3.674 
-0.01 1:0.15191211 2:-2.062875 
-0.01 1:0.25076563 2:-3.720375 
-0.01 1:0.28365039 2:-2.8665 
-0.01 1:0.19753516 2:-3.424375 
-0.01 1:0.30964844 2:-4.2974375 
-0.01 1:0.23833789 2:-3.5234375 
-0.01 1:0.25609961 2:-4.8286875 
-0.01 1:0.163125 2:-2.3531875 
-0.01 1:0.28666016 2:-4.5425625 
-0.01 1:0.21938672 2:-3.08825 
-0.01 1:0.12591406 2:-1.9669375 
-0.01 1:0.18111133 2:-3.8718125 
-0.001883568448433149 1:0.10470117 2:-2.0403125 
-0.01 1:0.25057227 2:-4.1718125 
-0.01 1:0.32633594 2:-3.9435 
-0.01 1:0.2777832 2:-4.788875 
-0.01 1:0.27132227 2:-3.500875 
-0.0002407806770383834 1:0.26488281 2:-3.2199375 
-0.01 1:0.093355469 2:-1.65375 
-0.01 1:0.18441602 2:-3.94975 
-0.01 1:0.27958203 2:-4.9163125 
-0.01 1:0.19826563 2:-3.12325 
-0.008496786756224924 1:0.15331641 2:-1.8380625 
-0.01 1:0.19125977 2:-2.2409375 
-0.01 1:0.13006055 2:-2.3679375 
-0.01 1:0.19339844 2:-3.679375 
-0.01 1:0.13840234 2:-2.729 
-0.01 1:0.25723828 2:-4.764 
-0.01 1:0.15491016 2:-3.04925 
-0.01 1:0.31817187 2:-5.0755625 
-0.01 1:0.3462832 2:-4.65725 
-0.01 1:0.16781836 2:-3.0938125 
-0.01 1:0.32048242 2:-5.0265 
-0.01 1:0.19805664 2:-3.72775 
-0.01 1:0.19914648 2:-3.0976875 
-0.01 1:0.16800195 2:-3.5446875 
-0.01 1:0.12472852 2:-2.3263125 
-0.01 1:0.21226953 2:-3.20225 
-0.01 1:0.27674609 2:-4.354375 
-0.01 1:0.23467969 2:-3.3324375 
-0.01 1:0.20545117 2:-3.250625 
-0.01 1:0.21365234 2:-3.4150625 
-0.01 1:0.27623242 2:-3.7608125 
-0.01 1:0.32357812 2:-3.277 
-0.005174581214578103 1:0.3979668 2:-6.434375 
-0.01 1:0.20155859 2:-2.3331875 
-0.01 1:0.22808398 2:-3.1641875 
-0.01 1:0.14727148 2:-2.874875 
-0.01 1:0.3255625 2:-6.09575 
-0.01 1:0.26959375 2:-4.9015 
-0.01 1:0.16895703 2:-2.7516875 
-0.01 1:0.18447266 2:-3.1966875 
-0.01 1:0.25314258 2:-3.9844375 
-0.01 1:0.23864648 2:-4.581875 
-0.01 1:0.2169375 2:-3.0226875 
-0.01 1:0.20174609 2:-3.821375 
-0.01 1:0.24318555 2:-3.649125 
-0.01 1:0.14280859 2:-2.5488125 
-0.01 1:0.16050391 2:-3.176 
-0.01 1:0.20520508 2:-3.3331875 
-0.01 1:0.27972656 2:-5.766375 
-0.01 1:0.14101758 2:-2.5933125 
-0.01 1:0.17407812 2:-3.102625 
-0.01 1:0.20183789 2:-3.868875 
-0.01 1:0.22020313 2:-4.3205625 
-0.01 1:0.20959766 2:-3.6588125 
-0.01 1:0.30117969 2:-5.2889375 
-0.01 1:0.24804492 2:-3.8865 
-0.01 1:0.20934961 2:-3.377625 
-0.01 1:0.23505469 2:-3.79325 
-0.01 1:0.14933984 2:-2.861125 
-0.01 1:0.37918555 2:-4.8870625 
-0.01 1:0.1776582 2:-3.817625 
-0.008428126898997372 1:0.27138867 2:-2.4171875 
-0.01 1:0.23622656 2:-4.2471875 
-0.01 1:0.2792793 2:-4.419625 
-0.01 1:0.15241797 2:-2.6614375 
-0.01 1:0.34318555 2:-4.044125 
-0.01 1:0.21883594 2:-3.8285 
-0.01 1:0.12210156 2:-2.33825 
-0.01 1:0.2536543 2:-5.4265 
-0.0007714090442528452 1:0.1608125 2:-3.3086875 
-0.01 1:0.17264844 2:-2.9095625 
-0.01 1:0.20133203 2:-3.4996875 
-0.01 1:0.17018359 2:-2.38025 
-0.01 1:0.26508984 2:-4.06 
-0.01 1:0.18523242 2:-3.55875 
-0.01 1:0.19273242 2:-3.776 
-0.01 1:0.2369043 2:-4.1780625 
-0.01 1:0.16791992 2:-3.2544375 
-0.01 1:0.34958789 2:-6.155125 
-0.01 1:0.29985352 2:-5.4546875 
-0.01 1:0.26062305 2:-4.298875 
-0.01 1:0.13147852 2:-2.66425 
-0.009985390317278927 1:0.32398242 2:-3.5039375 
-0.01 1:0.20362305 2:-3.25075 
-0.01 1:0.30563672 2:-5.15925 
-0.01 1:0.17627734 2:-3.7154375 
-0.01 1:0.36684766 2:-5.885625 
-0.01 1:0.22263086 2:-4.191625 
-0.01 1:0.12288477 2:-2.757375 
-0.01 1:0.46235742 2:-5.634125 
-0.01 1:0.17265039 2:-3.02575 
-0.01 1:0.17937695 2:-2.999875 
-0.01 1:0.22025 2:-3.0306875 
-0.01 1:0.19554297 2:-3.01125 
-0.01 1:0.25946094 2:-4.9086875 
-0.01 1:0.32372266 2:-4.3731875 
-0.01 1:0.15593555 2:-3.0060625 
-0.01 1:0.16594141 2:-2.926125 
-0.01 1:0.18180469 2:-3.0364375 
-0.01 1:0.23423242 2:-3.962625 
-0.01 1:0.32263086 2:-4.926 
-0.009746068007326801 1:0.30995703 2:-2.99925 
-0.01 1:0.15773828 2:-2.32525 
-0.01 1:0.18330469 2:-3.5765 
-0.01 1:0.17952539 2:-2.6530625 
-0.01 1:0.1585332 2:-3.044875 
-0.01 1:0.15351367 2:-2.8905 
-0.01 1:0.1933457 2:-2.478125 
-0.01 1:0.2190332 2:-3.64075 
-0.01 1:0.28977539 2:-5.54325 
-0.01 1:0.18212695 2:-3.0996875 
-0.01 1:0.18795117 2:-2.6435 
-0.01 1:0.21616992 2:-4.3509375 
-0.01 1:0.29987891 2:-4.787625 
-0.01 1:0.25031445 2:-4.073125 
-0.01 1:0.22101953 2:-4.0928125 
-0.00627251338879066 1:0.18101367 2:-3.8128125 
-0.01 1:0.1979668 2:-3.116375 
-0.01 1:0.17220508 2:-3.4438125 
-0.01 1:0.16884766 2:-3.1375625 
-0.01 1:0.18485742 2:-3.0564375 
-0.01 1:0.34316602 2:-5.2844375 
-0.01 1:0.20331055 2:-3.11325 
-0.01 1:0.32144727 2:-5.7114375 
-0.01 1:0.25285937 2:-4.1435625 
-0.01 1:0.25238281 2:-3.4760625 
-0.01 1:0.23067773 2:-3.8641875 
-0.01 1:0.18590625 2:-3.2601875 
-0.01 1:0.18230469 2:-3.516875 
-0.01 1:0.20025195 2:-2.91475 
-0.01 1:0.19823438 2:-3.312625 
-0.01 1:0.40190625 2:-5.91075 
-0.01 1:0.1496875 2:-2.9224375 
-0.01 1:0.19449023 2:-2.5605 
-0.01 1:0.19281836 2:-3.81475 
-0.01 1:0.23430664 2:-3.7355 
-0.01 1:0.37757422 2:-4.804125 
-0.01 1:0.18282422 2:-2.9845625 
-0.01 1:0.17598047 2:-3.4860625 
-0.01 1:0.2713125 2:-4.0443125 
-0.01 1:0.15913672 2:-2.57275 
-0.01 1:0.22549609 2:-3.8956875 
-0.01 1:0.19511328 2:-3.0749375 
-0.01 1:0.14554883 2:-2.5863125 
-0.01 1:0.27220117 2:-3.6044375 
-0.01 1:0.22426367 2:-3.909375 
-0.01 1:0.34219727 2:-5.2260625 
-0.00811643155156685 1:0.18467578 2:-2.040125 
-0.01 1:0.19893359 2:-3.0593125 
-0.01 1:0.19711133 2:-3.1739375 
-0.01 1:0.36293945 2:-4.72275 
-0.008981176384227298 1:0.18933789 2:-4.245625 
-0.01 1:0.32064062 2:-4.5230625 
-0.01 1:0.23304492 2:-3.69675 
-0.01 1:0.39972461 2:-5.7641875 
-0.01 1:0.13055664 2:-2.9695625 
-0.01 1:0.18350195 2:-2.1923125 
-0.01 1:0.20184766 2:-3.3630625 
-0.01 1:0.25 2:-4.624625 
-0.01 1:0.2096543 2:-3.3384375 
-0.009228590955747155 1:0.13798438 2:-3.302 
-0.01 1:0.30473828 2:-5.8505 
-0.01 1:0.1310332 2:-3.0138125 
-0.01 1:0.21081055 2:-3.7844375 
-0.01 1:0.17253516 2:-3.41425 
-0.01 1:0.29676953 2:-4.008375 
-0.01 1:0.17560156 2:-3.320375 
-0.01 1:0.20780078 2:-3.6144375 
-0.01 1:0.20479688 2:-3.65725 
-0.01 1:0.23039844 2:-3.1139375 
-0.01 1:0.19526562 2:-3.679375 
-0.01 1:0.26156836 2:-4.42225 
-0.01 1:0.2255957 2:-4.3601875 
-0.01 1:0.13833594 2:-2.906875 
-0.01 1:0.17408984 2:-3.10925 
-0.01 1:0.25951563 2:-3.7545625 
-0.01 1:0.25907031 2:-4.19675 
-0.01 1:0.24745703 2:-4.2286875 
-0.01 1:0.18333398 2:-3.381 
-0.01 1:0.17439063 2:-3.1875 
-0.01 1:0.32645508 2:-5.77125 
-0.009735701106939774 1:0.33355664 2:-3.210625 
-0.01 1:0.28383789 2:-4.5254375 
-0.01 1:0.20263086 2:-3.304875 
-0.01 1:0.2449043 2:-4.3559375 
-0.01 1:0.23811523 2:-3.25 
-0.01 1:0.19241016 2:-3.4095625 
-0.01 1:0.33039063 2:-4.84375 
-0.01 1:0.32592969 2:-5.55525 
-0.01 1:0.31161719 2:-4.9703125 
-0.01 1:0.29496094 2:-4.4983125 
-0.01 1:0.19351172 2:-3.924625 
-0.01 1:0.30651367 2:-4.6270625 
-0.01 1:0.17125391 2:-3.1401875 
-0.01 1:0.23910742 2:-3.884375 
-0.01 1:0.19408398 2:-3.9269375 
-0.01 1:0.23656055 2:-4.7846875 
-0.01 1:0.20068945 2:-2.8734375 
-0.01 1:0.24564648 2:-3.865375 
-0.01 1:0.17887109 2:-3.1995625 
-0.01 1:0.23158594 2:-3.2494375 
-0.01 1:0.18242773 2:-3.8430625 
-0.01 1:0.15938086 2:-2.61975 
-0.01 1:0.17507617 2:-3.6906875 
-0.01 1:0.13369531 2:-2.6811875 
-0.01 1:0.2052832 2:-3.755625 
-0.01 1:0.31093164 2:-4.075 
-0.01 1:0.13674414 2:-2.6331875 
-0.01 1:0.14848633 2:-2.9063125 
-0.01 1:0.23702539 2:-4.615 
-0.01 1:0.20718359 2:-3.8455625 
-0.01 1:0.18235938 2:-3.0129375 
-0.01 1:0.17499414 2:-3.1650625 
-0.01 1:0.26228711 2:-4.840375 
-0.01 1:0.25462695 2:-3.4156875 
-0.01 1:0.23675195 2:-3.4498125 
-0.01 1:0.19796289 2:-3.3866875 
-0.01 1:0.21823438 2:-2.610625 
-0.01 1:0.15921289 2:-3.507 
-0.01 1:0.15175 2:-2.97025 
-0.01 1:0.20154688 2:-2.2619375 
-0.01 1:0.20030078 2:-2.847375 
-0.01 1:0.2760918 2:-4.324 
-0.01 1:0.22721484 2:-3.4686875 
-0.01 1:0.26016406 2:-4.3838125 
-0.01 1:0.2321582 2:-4.1448125 
-0.01 1:0.15744727 2:-3.6728125 
-0.01 1:0.18891602 2:-2.479875 
-0.01 1:0.29904102 2:-4.7209375 
-0.01 1:0.18442383 2:-2.95375 
-0.01 1:0.22642578 2:-3.8066875 
-0.01 1:0.20888086 2:-3.189875 
-0.01 1:0.20394727 2:-3.174375 
-0.01 1:0.17056445 2:-2.7794375 
-0.01 1:0.27418945 2:-5.417375 
-0.01 1:0.15043945 2:-2.502625 
-0.01 1:0.18749609 2:-3.3806875 
-0.01 1:0.16407617 2:-2.637875 
-0.01 1:0.15056836 2:-2.9521875 
-0.01 1:0.26342773 2:-5.2706875 
-0.01 1:0.24398438 2:-3.719375 
-0.01 1:0.15187109 2:-2.5178125 
-0.01 1:0.22297266 2:-2.9069375 
-0.01 1:0.14313281 2:-2.5671875 
-0.01 1:0.17631641 2:-3.155625 
-0.01 1:0.27891211 2:-4.927 
-0.01 1:0.23705078 2:-3.43175 
-0.01 1:0.26445117 2:-4.8659375 
-0.01 1:0.14380859 2:-2.602 
-0.01 1:0.19155273 2:-3.0366875 
-0.01 1:0.20055078 2:-4.0369375 
-0.01 1:0.15285937 2:-3.283 
-0.01 1:0.15526172 2:-3.1831875 
-0.01 1:0.2469043 2:-4.0656875 
-0.01 1:0.18848047 2:-3.5241875 
-0.01 1:0.23993359 2:-3.5594375 
-0.01 1:0.20861523 2:-3.512375 
-0.01 1:0.18944141 2:-3.60075 
-0.01 1:0.2073418 2:-3.732875 
-0.01 1:0.25391016 2:-3.94825 
-0.01 1:0.15978906 2:-3.0546875 
-0.01 1:0.16750391 2:-2.8849375 
-0.01 1:0.16484375 2:-2.7686875 
-0.01 1:0.16781055 2:-3.1551875 
-0.01 1:0.31226367 2:-3.6335625 
-0.01 1:0.22606445 2:-3.9135625 
-0.01 1:0.22406641 2:-3.3175 
-0.01 1:0.23408203 2:-4.2324375 
-0.01 1:0.17743555 2:-3.588875 
-0.009992231976866387 1:0.22451172 2:-4.5419375 
-0.01 1:0.20382617 2:-3.0071875 
-0.01 1:0.17154883 2:-3.5608125 
-0.01 1:0.20130273 2:-2.4938125 
-0.01 1:0.29289063 2:-5.652375 
-0.01 1:0.14473438 2:-2.6431875 
-0.01 1:0.20524805 2:-3.2940625 
-0.01 1:0.19777344 2:-3.8985625 
-0.01 1:0.18492578 2:-3.3076875 
-0.01 1:0.15877148 2:-2.7178125 
-0.01 1:0.29992578 2:-5.9721875 
-0.01 1:0.19107617 2:-2.8655625 
-0.01 1:0.2129668 2:-4.0715 
-0.01 1:0.21091406 2:-3.474375 
-0.01 1:0.18387891 2:-3.7400625 
-0.01 1:0.24961133 2:-3.538375 
-0.01 1:0.17123437 2:-3.3623125 
-0.01 1:0.1675918 2:-3.143 
-0.01 1:0.32640039 2:-3.9146875 
-0.01 1:0.16494336 2:-2.7305625 
-0.01 1:0.25904102 2:-4.564 
-0.01 1:0.25073828 2:-3.981875 
-0.01 1:0.13604102 2:-2.4754375 
-0.01 1:0.16200977 2:-3.2114375 
-0.01 1:0.28477148 2:-4.239375 
-0.00825646544275542 1:0.081677734 2:-1.615 
-0.009998974286529285 1:0.37899609 2:-6.203375 
-0.01 1:0.23856445 2:-4.425875 
-0.01 1:0.16224609 2:-2.8259375 
-0.01 1:0.25042773 2:-3.641875 
-0.01 1:0.23373633 2:-3.3294375 
-0.01 1:0.16329102 2:-2.5095625 
-0.01 1:0.23644727 2:-3.2451875 
-0.01 1:0.22646094 2:-4.0330625 
-0.01 1:0.22319727 2:-3.79 
-0.01 1:0.18305664 2:-3.4683125 
-0.01 1:0.21740625 2:-4.2459375 
-0.01 1:0.2397168 2:-3.8524375 
-0.01 1:0.2439668 2:-3.3909375 
-0.01 1:0.25033008 2:-4.57875 
-0.01 1:0.23611133 2:-4.131375 
-0.01 1:0.25045312 2:-5.030375 
-0.01 1:0.35855859 2:-5.03625 
-0.01 1:0.4066875 2:-5.1200625 
-0.01 1:0.22680664 2:-3.8293125 
-0.01 1:0.23514258 2:-3.5215 
-0.01 1:0.27598047 2:-3.708 
-0.01 1:0.19224414 2:-3.40725 
-0.01 1:0.26391602 2:-4.205625 
-0.01 1:0.21661914 2:-2.7246875 
-0.01 1:0.18333789 2:-2.972125 
-0.01 1:0.13015625 2:-2.3803125 
-0.01 1:0.30285937 2:-5.6975625 
-0.01 1:0.29859766 2:-4.4423125 
-0.01 1:0.21794531 2:-3.825375 
-0.01 1:0.30327344 2:-3.6006875 
-0.01 1:0.21948047 2:-3.96125 
-0.01 1:0.19644141 2:-2.87675 
-0.009987342468463395 1:0.30219531 2:-2.524375 
-0.01 1:0.23208594 2:-4.444875 
-0.01 1:0.16426172 2:-3.277875 
-0.01 1:0.11510742 2:-2.670625 
-0.01 1:0.14829883 2:-3.12725 
-0.01 1:0.19851367 2:-2.452625 
-0.01 1:0.21822266 2:-3.4904375 
-0.01 1:0.17368945 2:-2.735 
-0.01 1:0.16942969 2:-3.3154375 
-0.01 1:0.26628711 2:-3.311375 
-0.01 1:0.17951758 2:-3.3945 
-0.01 1:0.2614707 2:-3.76825 
-0.01 1:0.14570898 2:-2.8419375 
-0.01 1:0.1179043 2:-2.1775 
-0.01 1:0.31420117 2:-4.928125 
-0.01 1:0.19295312 2:-3.474625 
-0.01 1:0.15217187 2:-2.60975 
-0.01 1:0.26146289 2:-3.535125 
-0.01 1:0.23406836 2:-3.316875 
-0.01 1:0.24779688 2:-4.3188125 
-0.01 1:0.21947852 2:-3.2145625 
-0.01 1:0.23002734 2:-4.8020625 
-0.01 1:0.18412891 2:-3.661625 
-0.01 1:0.14607617 2:-3.1498125 
-0.01 1:0.24729492 2:-4.18675 
-0.01 1:0.14900391 2:-2.8193125 
-0.01 1:0.22000586 2:-2.8480625 
-0.01 1:0.17307031 2:-2.9628125 
-0.01 1:0.4515 2:-5.3444375 
-0.001018823615772701 1:0.23567187 2:-4.2323125 
-0.01 1:0.16077539 2:-2.996375 
-0.01 1:0.23342188 2:-3.4863125 
-0.01 1:0.33195117 2:-4.290125 
-0.01 1:0.2951543 2:-3.1799375 
-0.01 1:0.2801875 2:-4.254 
-0.001010044678270035 1:0.12900781 2:-1.6446875 
-0.01 1:0.19496289 2:-3.4786875 
-0.01 1:0.13358008 2:-2.647875 
-0.01 1:0.32939453 2:-4.4934375 
-0.01 1:0.2967832 2:-3.249875 
-0.01 1:0.15762891 2:-2.296 
-0.01 1:0.22876367 2:-4.0488125 
-0.01 1:0.19945117 2:-3.270625 
-0.01 1:0.14654883 2:-2.5340625 
-0.01 1:0.27602539 2:-4.73425 
-0.01 1:0.21640234 2:-3.2531875 
-0.01 1:0.24166016 2:-3.9934375 
-0.01 1:0.17841406 2:-3.1833125 
-0.01 1:0.30390039 2:-4.5905625 
-0.01 1:0.19197266 2:-3.4304375 
-0.01 1:0.16740625 2:-2.5234375 
-0.01 1:0.23867578 2:-2.756 
-0.01 1:0.10522656 2:-1.86675 
-0.01 1:0.25650781 2:-4.108625 
-0.01 1:0.2675293 2:-3.2640625 
-0.01 1:0.18766016 2:-2.834875 
-0.01 1:0.19924219 2:-3.78625 
-0.01 1:0.19158008 2:-3.4986875 
-0.01 1:0.17372461 2:-3.02175 
-0.01 1:0.087923828 2:-1.8408125 
-0.01 1:0.12336719 2:-2.2634375 
-0.0006542102175158002 1:0.079349609 2:-1.6896875 
-0.001451182923786713 1:0.090884766 2:-1.8548125 
-0.01 1:0.21699023 2:-2.6715 
-0.009975544861147909 1:0.39027148 2:-3.910875 
-0.01 1:0.20823437 2:-3.4113125 
-0.01 1:0.28567383 2:-3.5205 
-0.01 1:0.23520312 2:-3.8448125 
-0.01 1:0.14850586 2:-2.4153125 
-0.01 1:0.18000586 2:-2.755125 
-0.01 1:0.11264453 2:-1.797 
-0.01 1:0.22129492 2:-3.366625 
-0.01 1:0.40345508 2:-5.1710625 
-0.01 1:0.2657168 2:-4.5379375 
-0.01 1:0.25853711 2:-4.3913125 
-0.01 1:0.29278125 2:-3.8043125 
-0.01 1:0.24187695 2:-2.55675 
-0.01 1:0.097115234 2:-2.1411875 
-0.01 1:0.25874023 2:-3.8271875 
-0.01 1:0.16031445 2:-3.2430625 
-0.01 1:0.22179883 2:-4.311125 
-0.01 1:0.17263867 2:-3.1596875 
-0.01 1:0.19194727 2:-3.5285 
-0.01 1:0.21876367 2:-3.14925 
-0.01 1:0.34039258 2:-4.108125 
-0.01 1:0.20975977 2:-3.153625 
-0.01 1:0.081591797 2:-1.7980625 
-0.01 1:0.26061914 2:-4.7349375 
-0.01 1:0.26830078 2:-4.02525 
-0.01 1:0.13432812 2:-2.488 
-0.01 1:0.1918457 2:-3.4600625 
-0.01 1:0.30823633 2:-5.581375 
-0.01 1:0.29471094 2:-3.955125 
-0.01 1:0.26426953 2:-3.7528125 
-0.01 1:0.22072852 2:-3.839 
-0.01 1:0.22940039 2:-3.371875 
-0.01 1:0.19501367 2:-2.6203125 
-0.01 1:0.14344727 2:-3.080375 
-0.01 1:0.39456641 2:-5.40375 
-0.01 1:0.249 2:-3.5843125 
-0.01 1:0.2614707 2:-4.7341875 
-0.01 1:0.286375 2:-4.498375 
-0.01 1:0.2542793 2:-4.8716875 
-0.01 1:0.14129883 2:-3.09775 
-0.009985797557226783 1:0.12846289 2:-2.95275 
-0.01 1:0.15704297 2:-2.8084375 
-0.01 1:0.19802344 2:-3.217 
-0.01 1:0.21552148 2:-3.5938125 
-0.01 1:0.22877148 2:-3.5505625 
-0.01 1:0.37748242 2:-5.4595 
-0.01 1:0.30887305 2:-5.4248125 
-0.01 1:0.32716211 2:-4.7526875 
-0.01 1:0.22382227 2:-3.1024375 
-0.01 1:0.20059961 2:-2.8238125 
-0.01 1:0.22305664 2:-3.5366875 
-0.01 1:0.30944727 2:-4.920875 
-9.42386709554916e-06 1:0.40119336 2:-7.3266875 
-0.01 1:0.20631055 2:-3.800375 
-0.01 1:0.19514063 2:-3.7558125 
-0.01 1:0.20785547 2:-3.4725 
-0.01 1:0.39239062 2:-5.2711875 
-0.01 1:0.30524609 2:-3.7535625 
-0.01 1:0.23612695 2:-3.9413125 
-0.01 1:0.18959375 2:-3.477625 
-0.01 1:0.19952148 2:-3.337 
-0.01 1:0.32181836 2:-5.1540625 
-0.01 1:0.24904297 2:-4.2915 
-0.01 1:0.17175391 2:-2.844375 
-0.01 1:0.34544336 2:-5.7846875 
-0.01 1:0.35513477 2:-5.2988125 
-0.01 1:0.27871484 2:-4.2055625 
-0.01 1:0.20196289 2:-3.2884375 
-0.01 1:0.19740234 2:-3.2804375 
-0.01 1:0.25959375 2:-4.4963125 
-0.01 1:0.22531445 2:-4.0313125 
-0.01 1:0.16562695 2:-2.3655 
-0.01 1:0.21192773 2:-2.841125 
-0.01 1:0.20867188 2:-2.972625 
-0.01 1:0.24998242 2:-3.8195625 
-0.01 1:0.24925391 2:-4.0321875 
-0.01 1:0.25485742 2:-3.544625 
-0.01 1:0.24851563 2:-4.2783125 
-0.01 1:0.23122266 2:-3.48075 
-0.01 1:0.27910352 2:-3.861875 
-0.01 1:0.17019531 2:-3.575625 
-0.01 1:0.13779102 2:-2.9471875 
-0.01 1:0.14456641 2:-2.916 
-0.01 1:0.17409766 2:-3.4580625 
-0.01 1:0.18329492 2:-3.2108125 
-0.01 1:0.26129297 2:-3.4439375 
-0.01 1:0.22654297 2:-4.5641875 
-0.01 1:0.29557227 2:-4.465 
-0.01 1:0.23905859 2:-4.34175 
-0.01 1:0.23220703 2:-3.9996875 
-0.01 1:0.23783594 2:-4.166125 
-0.01 1:0.18889648 2:-3.22025 
-0.01 1:0.36280859 2:-5.7243125 
-0.01 1:0.22916406 2:-3.683875 
-0.01 1:0.24078906 2:-3.714875 
-0.01 1:0.105875 2:-2.0600625 
-0.01 1:0.17897461 2:-3.3109375 
-0.01 1:0.37617578 2:-6.118875 
-0.01 1:0.20666406 2:-3.6920625 
-0.01 1:0.25396289 2:-4.1254375 
-0.01 1:0.16068945 2:-2.8523125 
-0.01 1:0.32654883 2:-4.3288125 
-0.01 1:0.42561328 2:-5.0830625 
-0.01 1:0.15348438 2:-2.6431875 
-0.01 1:0.19876758 2:-3.76275 
-0.01 1:0.19928711 2:-2.6759375 
-0.01 1:0.17244727 2:-3.071125 
-0.01 1:0.22874609 2:-4.1489375 
-0.01 1:0.2700332 2:-3.06725 
-0.0001888643417959225 1:0.12451758 2:-2.9953125 
-0.01 1:0.21939063 2:-4.302 
-0.01 1:0.1526582 2:-3.2295625 
-0.01 1:0.32984766 2:-4.237625 
-0.01 1:0.30280078 2:-5.24075 
-0.01 1:0.21462891 2:-4.4306875 
-0.01 1:0.16420898 2:-2.2751875 
-0.01 1:0.27541992 2:-5.0645625 
-0.01 1:0.323375 2:-5.2134375 
-0.01 1:0.25719141 2:-3.743625 
-0.01 1:0.14244141 2:-2.752 
-0.01 1:0.23822656 2:-4.2061875 
-0.01 1:0.28805859 2:-4.6735 
-0.01 1:0.19827148 2:-3.9509375 
-0.01 1:0.203625 2:-4.27825 
-0.01 1:0.33244727 2:-5.4505 
-0.01 1:0.24304883 2:-3.1459375 
-0.01 1:0.13181055 2:-2.4746875 
-0.01 1:0.23883203 2:-4.2444375 
-0.01 1:0.19014453 2:-3.5728125 
-0.01 1:0.2670332 2:-4.2991875 
-0.01 1:0.3272793 2:-5.0328125 
-0.01 1:0.18082227 2:-3.4686875 
-0.01 1:0.18423828 2:-4.0299375 
-0.01 1:0.29873633 2:-4.0429375 
-0.01 1:0.27386914 2:-3.9796875 
-0.01 1:0.22955859 2:-3.2878125 
-0.01 1:0.25605078 2:-4.6960625 
-0.01 1:0.28834766 2:-5.5510625 
-0.01 1:0.14804297 2:-2.4165625 
-0.01 1:0.12398047 2:-2.4904375 
-0.01 1:0.14437891 2:-2.991375 
-0.01 1:0.2595918 2:-3.181375 
-0.01 1:0.26159375 2:-4.0564375 
-0.01 1:0.15626758 2:-3.13425 
-0.01 1:0.14139258 2:-2.744625 
-0.01 1:0.2079375 2:-2.7189375 
-0.01 1:0.1618457 2:-3.0893125 
-6.027275097552336e-05 1:0.43723828 2:-7.1905 
-0.01 1:0.21333594 2:-3.8818125 
-0.01 1:0.16456836 2:-2.996875 
-0.01 1:0.16194922 2:-3.18525 
-0.01 1:0.20828906 2:-3.446375 
-0.01 1:0.16666602 2:-3.181875 
-0.01 1:0.16669336 2:-3.11175 
-0.01 1:0.19426953 2:-3.063375 
-0.01 1:0.1242207 2:-2.5944375 
-0.01 1:0.23511719 2:-4.8870625 
-0.001522580933637082 1:0.24243945 2:-2.4279375 
-0.01 1:0.15774414 2:-2.6858125 
-0.01 1:0.27491016 2:-3.939 
-0.01 1:0.20223633 2:-4.10725 
-0.01 1:0.19941016 2:-3.5315 
-0.01 1:0.23927539 2:-3.3649375 
-0.01 1:0.23612109 2:-4.8973125 
-0.01 1:0.29028516 2:-4.75325 
-0.01 1:0.19958594 2:-3.75225 
-0.01 1:0.17387305 2:-3.2475 
-0.01 1:0.4194082 2:-4.9998125 
-0.01 1:0.22665625 2:-3.7025625 
-0.01 1:0.16145117 2:-2.4376875 
-0.01 1:0.17203125 2:-3.1764375 
-0.01 1:0.25394531 2:-3.7655 
-0.01 1:0.19910742 2:-3.6005 
-0.01 1:0.13396289 2:-2.110125 
-0.01 1:0.30680469 2:-5.958625 
-0.01 1:0.14599023 2:-2.587 
-0.01 1:0.24443555 2:-3.5398125 
-0.01 1:0.29265039 2:-4.442625 
-0.01 1:0.15616992 2:-2.4105 
-0.009947994027882563 1:0.14553125 2:-1.92825 
-0.01 1:0.19087891 2:-2.5153125 
